words,V1,V2,V3,V4,V5,V6,V7,V8,V9,V10,V11,V12,V13,V14,V15,V16,V17,V18,V19,V20,V21,V22,V23,V24,V25,V26,V27,V28,V29,V30,V31,V32,V33,V34,V35,V36,V37,V38,V39,V40,V41,V42,V43,V44,V45,V46,V47,V48,V49,V50
abnormality,0.030042642,0.09875641,-0.126503871,0.337502416,-0.068578274,0.077783632,0.132149441,-0.274518389,0.073946697,-0.156357643,0.008633616,-0.039079659,0.034339434,0.088504055,0.098464893,-0.046496911,0.266532474,0.026987876,0.220977859,-0.049689224,-0.020730532,0.089705022,-0.011663131,-0.000799987,0.099688442,0.255446628,-0.265218596,-0.159176322,-0.079766766,0.02161124,0.139037035,-0.063464414,-0.007809978,-0.34739756,0.037634394,-0.210713187,-0.11512035,0.080177353,-0.029356962,-0.011457632,0.2531884,0.072333091,-0.051304884,-0.157944561,-0.143900437,0.12534191,-0.131866136,-0.062103319,0.149660971,-0.080725487
acceptance,0.120831502,0.110277422,0.161327222,0.204703855,0.1503718,0.02299963,0.350021141,-0.175556951,-0.252566768,-0.065893462,0.082775619,-0.163083586,-0.327788431,-0.006752664,0.113804058,0.149950591,-0.075982622,0.132883658,-0.002756538,-0.0044831,0.025514966,0.028121696,-0.010142606,0.096472876,0.135826164,0.260891616,0.232599052,0.023422826,0.001778974,-0.011821881,0.034785549,-0.231506292,-0.029035641,-0.220817106,0.022469144,0.034266984,-0.003047411,0.130535216,-0.08411276,-0.099445185,0.2389768,-0.092985976,0.033102698,-0.173852244,0.088849381,-0.188735643,-0.007785621,-0.154319646,0.051832614,0.038119462
acknowledgment,-0.025340844,-0.053424698,-0.101447133,0.168563611,0.193825352,-0.157365898,0.03080127,-0.287329624,-0.099027515,-0.129600783,0.048613381,-0.07678099,0.007026896,-0.099078699,-0.034339962,0.226211007,0.105890854,-0.087203959,0.077143933,-0.165357617,-0.097001085,0.118800912,-0.088488218,0.008279281,-0.088195072,0.29237825,0.159594739,0.031315439,-0.062868187,-0.127111368,0.275301331,-0.046272866,0.142005978,-0.205367395,-0.00349565,0.007535016,-0.207037862,0.081710961,-0.193401919,0.065539073,0.411544431,0.017295615,0.235075184,-0.107966142,-0.048932119,0.070538841,0.03158532,0.012124612,0.121660249,-0.006254247
admiration,0.013298736,0.037082203,0.061352496,0.236312506,-0.029613396,0.137447341,-0.002538862,-0.335053412,-0.263072401,0.00325734,-0.075937304,-0.032158471,-0.267998352,-0.162498686,0.144181693,0.19718448,0.134016927,-0.146855464,0.010265948,-0.162485373,0.095621137,-0.075668818,-0.01893074,0.01498887,0.026788741,0.284395999,0.103389495,0.004563827,-0.069300584,-0.029859694,-0.03736844,-0.168503021,-0.021258806,0.003517617,0.113268023,0.033791579,-0.001471484,0.009778012,-0.083454926,0.042409774,0.223864495,-0.294891381,0.066586873,-0.20020218,-0.127362456,0.067529904,-0.030199185,0.034062284,0.341843236,-0.137875589
aggravation,0.013665227,0.050892835,-0.172016282,0.020655809,0.10526756,0.137086086,0.002882951,-0.351164421,0.02943367,-0.058601599,0.139525454,0.103096205,0.014099271,-0.019643267,0.153098693,0.119183765,0.203946102,0.181226371,0.04307732,-0.060298254,0.158602033,0.281208634,-0.009493772,0.137712963,-0.09127186,0.258223162,0.025318089,-0.093634003,-0.101915133,-0.018000442,0.103954753,-0.184456147,0.034998335,-0.107822763,-0.31386981,-0.072872125,-0.163394459,0.111338723,-0.051496998,-0.089522965,0.299787801,-0.066819133,0.218875303,-0.165683921,0.046341166,0.028479728,-0.104901882,0.105780872,0.179325299,0.069038185
aghast,0.011469259,0.074863831,0.170261478,0.095356043,-0.097015575,-0.101548084,-0.203324989,-0.035298562,-0.027606471,-0.291342573,0.090100089,-0.0678166,0.063314138,-0.204591595,-0.043758013,0.001283456,0.11974746,-0.149038888,0.073317555,-0.114396742,0.120436235,-0.108558334,-0.102703746,-0.107717011,-0.040036779,0.294925128,-0.119971659,-0.068905234,-0.101337753,-0.024862928,0.164432315,0.001432005,0.059151441,-0.129882622,-0.109679327,0.015550367,-0.09964124,-0.071692693,0.178078381,0.061386493,0.449899499,0.200167718,0.117838306,0.187924627,-0.104187617,0.105934979,0.186748163,0.186653398,-0.173381768,0.043610089
agitation,-0.104801213,0.122158525,-0.088419954,0.148402402,0.046683724,0.084993809,0.049278233,-0.142424077,0.047037294,-0.264206622,-0.033287893,-0.345428185,-0.101586712,-0.040172553,0.025464529,-0.097689969,0.154039607,0.026228938,0.138729019,-0.089107176,0.140081051,-0.065410498,-0.085046097,0.233540627,0.070763851,0.323765782,0.098404579,0.163595964,-0.133749156,0.19751381,0.231411736,-0.082456569,0.216439778,-0.33327732,0.048964501,-0.090758,-0.125746516,-0.028200963,-0.039116823,-0.046731033,0.146557363,-0.13470031,0.137491523,0.034448201,-0.200997224,-0.027441534,-0.029299023,0.013026823,0.04210225,-0.064915002
agony,-0.192126412,-0.012274145,0.080300243,-0.005249591,-0.048891047,0.016779418,0.150511458,0.018467866,-0.070121952,-0.122386689,0.139229965,-0.144558291,-0.363873352,-0.027593767,-0.074161683,0.071971302,0.341008244,0.055086827,-0.07195528,-0.127930162,-0.090847032,0.11237548,0.01863449,0.112901904,0.196424777,0.358105577,-0.11208938,-0.056810294,-0.009444045,0.130502773,-0.012496617,-0.199027142,0.092321019,0.157947768,-0.153097802,-0.06964817,-0.163399688,-0.023709675,-0.005479386,-0.025639133,0.273625986,-0.00490856,0.096674315,-0.013539165,-0.045112239,0.052637812,0.167116699,0.188462043,0.264539452,-0.007911465
agreement,0.111695901,0.055538108,-0.030474889,0.147104363,0.071975387,-0.036627606,-0.011739075,-0.071795182,0.111467886,-0.21856304,0.237429411,-0.090578805,-0.435691795,-0.067041813,0.20949762,-0.006786745,-0.014224618,0.199954105,-0.002872065,-0.223619816,0.02805683,-0.042578051,0.018116864,-0.078014097,0.045805194,0.242081644,0.192139088,-0.162991833,0.066525102,0.05917347,0.061497748,-0.03279365,-0.082350052,-0.210527364,0.243865307,-0.023816494,0.03699721,0.096983442,0.011287275,-0.010073833,0.068525747,-0.074656398,0.335512471,-0.158948252,0.131176439,-0.153534743,-0.16109968,-0.044095084,0.098779976,0.046507626
alarm,-0.0312234,0.159352754,-0.069780092,0.028438863,-0.165545808,0.11434488,0.231096249,-0.193342399,0.07176382,0.115818448,0.09768034,-0.094578732,-0.473310322,0.016193811,-0.027483584,-0.067186611,0.112877408,-0.064906136,-0.018724894,-0.032164452,-0.27524234,0.138379296,-0.151629221,-0.077088993,0.172657557,-0.030194951,-0.102556329,-0.038835145,-0.153068237,0.246766892,-0.175564044,-0.000839894,0.017286691,-0.185807889,0.079044267,0.158610888,-0.082416199,0.054564731,0.098338873,0.060759818,-0.060465104,0.304144615,-0.127562284,-0.053690752,0.154988958,0.003986156,0.034020132,-0.134082572,0.001131924,0.148848749
alertness,-0.127016006,-0.157593766,0.094175021,-0.156943239,-0.063085918,0.187260788,0.18264659,-0.197593566,-0.208304556,-0.273765651,0.086383834,-0.043269073,-0.115111376,0.162480277,0.060007264,0.070205398,0.168849383,-0.207124532,0.123799684,-0.135115815,-0.120648413,0.094945062,0.063860498,0.15918226,-0.210755376,0.146572641,-0.009883007,-0.053302305,0.011757127,0.183750972,0.009705398,-0.094940524,0.282767119,-0.024570225,0.089911805,0.050713816,0.147156602,-0.03758075,0.118069001,0.128085592,0.193539123,-0.121492585,-0.125180917,0.067899812,0.094958678,-0.113093232,-0.146232249,0.286231549,-0.001840535,-0.161693594
amazement,-0.026303981,-0.016912166,0.366973752,0.103339566,0.026324959,-0.026387893,0.085781047,-0.34893274,-0.158772555,-0.10809223,0.112984748,-0.133160845,-0.091370497,-0.114446209,-0.021363448,-0.031933056,0.280591338,-0.047314534,0.021702358,-0.137426356,-0.056020371,-0.142218645,0.006493366,0.036091346,-0.003893036,0.279612368,-0.074350411,0.091608247,-0.118019448,-0.006766778,0.122243003,-0.048218915,0.084338232,0.000526383,-0.204821421,-0.024718983,0.044202809,0.008342919,0.081433956,-0.160329583,0.379117637,0.061887196,0.04664324,0.061663431,-0.22706734,0.146279038,0.190360641,0.053465726,0.178923013,0.053106771
ambivalence,-0.033253873,-0.105457858,-0.144295672,0.084549062,0.086128984,0.184517853,0.231160404,-0.311995875,-0.05000763,-0.215496716,0.000174047,-0.150214571,0.021801375,-0.175897985,-0.078912845,0.154377356,0.035526947,-0.027394996,0.183900212,-0.039614221,0.009994943,0.191720439,0.223202709,0.013396616,-0.072072325,0.082215966,-0.174670447,0.116556036,0.031170545,0.151970685,0.127309574,-0.168393355,0.238827673,-0.042708235,-0.11960939,0.183319359,-0.011701104,0.246204514,0.254181572,-0.11356464,0.170736132,0.021627119,-0.0538432,-0.096617265,0.011776421,0.117462168,0.076992156,-0.13977663,0.03742053,0.24074449
ambush,-0.287288742,0.382384405,-0.026121652,-0.18636328,-0.068714525,-0.084891661,0.035626275,-0.064434231,0.007296516,-0.239775509,-0.199817043,-0.031748804,-0.21498836,0.134453603,0.174085857,0.035238281,-0.046492586,-0.063435826,0.021050048,0.056224569,-0.125675542,-0.043200813,0.052670838,-0.190386558,0.165268255,0.315362722,-0.024663337,0.137352439,-0.116067123,0.237002709,0.001090758,-0.008789923,0.018449251,-0.142257971,0.025039222,-0.177083545,0.067115593,0.031224888,-0.025390147,-0.228338328,0.135807876,-0.239968271,0.034561145,0.042442124,0.002528388,0.186368223,-0.023384439,0.016207286,0.051462372,0.116951849
amiss,-0.023595754,0.225190523,-0.133025234,0.176597334,-0.003647729,0.029356085,-0.139023178,-0.169142506,-0.087698633,-0.033933147,-0.006954879,-0.083039965,-0.144178674,-0.161555671,0.024961432,0.154602472,0.062799604,-0.264639187,-0.011563624,-0.115067403,0.334651204,-0.144296281,-0.039117445,0.175858092,-0.066834235,0.022389445,0.056926467,0.087662631,0.04669468,-0.123419883,0.131556349,0.089839556,0.01742116,-0.176854149,-0.043766512,-0.052354204,-0.171110619,-0.012221021,-0.149710991,0.184301776,0.350300102,-0.04758033,0.123659896,-0.135602982,-0.118696412,0.091178832,-0.172879521,-0.096516739,0.13208438,0.30460148
amusement,-0.094247573,0.068019472,-0.139253465,0.008965837,0.16719667,-0.018029643,0.178222711,-0.307497388,-0.037849231,-0.135963583,0.046871718,0.037381475,-0.37656931,0.078868805,0.190904087,-0.027597585,0.129809998,-0.063669344,-0.127333491,-0.065761252,0.291307844,-0.136626237,0.073905398,-0.034437213,-0.029983139,0.182086892,-0.077049755,0.154338586,0.028195273,-0.20809151,0.202951394,-0.153457646,0.044119755,-0.174532638,-0.072881532,-0.027498837,0.028000375,-0.061478688,0.207369087,-0.075830992,0.105250226,0.114329883,-0.067562111,-0.138754526,0.006748675,0.328676326,0.124160548,0.041045561,0.088148558,0.081911816
anger,-0.022587843,0.129725023,-0.054995067,0.174162532,-0.090413036,0.284170802,0.185614245,-0.266251428,-0.152376345,0.075834501,0.149623146,-0.110945954,-0.599192673,-0.108952696,0.088838743,-0.028086987,0.03335579,-0.003643727,0.108433977,-0.207614448,-0.071042701,0.1071662,-0.015271188,0.137282719,0.032011837,0.101915533,0.015602189,0.186756877,-0.156647613,0.131355541,0.015213512,-0.190910254,-0.124008235,0.022685782,-0.027225478,0.04588847,-0.133744186,0.032599477,0.026779307,0.009045475,0.142533386,0.039995753,0.094209114,-0.034948221,0.020005131,0.03318893,0.050321157,-0.014251525,0.095464196,0.106444347
anguish,-0.248071154,-0.008306406,0.017881948,0.246885448,-0.17126115,0.15080234,-0.101569691,-0.28689762,-0.134543084,-0.181063701,0.192459409,-0.186573998,-0.168361561,0.061087549,0.027077203,0.011856193,0.068859309,-0.012908884,0.00385613,-0.30019908,-0.083792731,0.10424723,-0.066188238,0.202936734,-0.034243176,0.319817117,0.003301651,0.156769673,-0.093433595,-0.014448576,0.183029816,-0.150612627,0.05928312,0.033415338,-0.101035046,-0.0783622,0.014139862,0.078495862,0.116184051,-0.059074005,0.266352577,-0.056637919,0.166871884,0.065713956,-0.022700871,0.239102909,0.032462461,0.085301811,0.086927306,0.029228719
annoyance,-0.034693284,0.015576695,-0.09768115,0.207730903,0.023744302,0.093368167,0.178206121,-0.349014394,-0.187643893,0.068416563,0.141091988,-0.095580861,-0.11056806,-0.13390854,0.059164049,0.045280075,0.205636858,0.004897484,0.085148105,-0.155941804,0.018295831,0.040407153,-0.008772715,0.205543188,-0.11948128,0.33423535,-0.022620263,0.075928896,-0.07479653,0.099204849,0.100741037,-0.335671624,0.047767533,-0.140069944,-0.051258302,0.204056957,-0.080008745,0.038427594,0.051062635,0.05590017,0.343768874,0.059803087,0.145808793,-0.062096961,-0.03435399,0.083305929,-0.012799276,0.107936974,0.043706419,0.202926673
anticipation,-0.100986717,-0.038261436,0.058610416,0.013030484,-0.023361071,0.234681093,0.212245338,-0.181476572,-0.059908488,-0.255295322,0.051120095,-0.156592554,-0.38155806,0.104916143,-0.170080297,0.031545732,0.144891128,0.196025307,-0.044578094,-0.103514789,-0.095707578,0.01918635,0.0034163,0.246938837,-0.114575395,0.253229674,-0.007331173,0.031261706,-0.115251425,0.09258798,-0.061680721,-0.26123406,-0.177556535,0.001273542,0.038721512,0.014134432,-0.140327923,-0.067835413,-0.007098787,0.067189898,0.223160411,-0.054166926,0.090465996,0.080679988,-0.036486856,0.071978446,-0.112453411,0.036822524,0.066929345,0.315246062
anxious,-0.029511596,-0.06196437,0.037218552,0.132929739,-0.268939303,0.166325316,0.241376167,-0.129774121,0.008770845,-0.062380312,-0.062456106,-0.2713795,-0.339057998,-0.070556821,-0.061535486,-0.000238123,-0.140056224,-0.011326767,-0.161642725,-0.13513516,0.045038275,0.085344046,-0.014342998,0.126067609,-0.212833255,0.308999206,0.058718168,0.038013465,-0.103225885,-0.065521142,0.033576743,-0.196916514,0.061711107,0.113043981,-0.046605917,-0.021129889,-0.171336963,-0.16742895,0.021013425,0.067756141,0.085473451,0.185381037,0.279661381,0.139814053,0.059646182,0.097864846,0.016915557,0.067342046,-0.201371723,0.162062365
apathy,-0.02117171,0.007790123,-0.042106513,0.255155911,-0.011035659,0.238757077,0.082838863,-0.092068902,-0.062396345,-0.115833544,0.161121809,-0.247964952,-0.316180557,-0.216760623,0.225968498,-0.074222025,0.094063654,0.132596851,0.073478303,-0.001523203,-0.04041713,-0.00843731,0.089357516,0.044214547,0.110841737,0.40803767,0.123177187,0.049765376,-0.125351714,0.145156403,0.132449092,-0.174033521,0.114616991,-0.069597155,-0.050952377,-0.032447971,-0.060421294,0.071237285,-0.04668213,-0.118389782,0.316352943,-0.023279498,0.087724774,-0.112380898,-0.167933519,-0.035568158,0.02122318,0.109292726,0.055478741,-0.122098543
appeasement,0.196789118,-0.020605458,-0.14904721,0.104301978,0.159213876,0.180426381,-0.18305288,-0.034038722,0.102691264,-0.340607567,0.092097131,-0.195306203,-0.138790202,-0.054828167,0.03754219,-0.100809528,-0.056683463,0.01438515,0.223208349,-0.029111833,-0.150336221,-0.024281895,-0.070316138,0.09292342,0.060587956,0.305264409,0.15218711,-0.124119707,-0.093031389,-0.023561371,0.089281136,0.060988982,0.340982151,-0.179218897,0.159407779,0.006798931,-0.171315162,0.103030594,0.073685196,-0.166487427,0.246851247,-0.019540095,-0.008826976,-0.219616743,0.000437162,0.058798764,0.097731324,0.020410233,0.014893043,-0.103656371
apprehension,-0.172687962,0.128855626,-0.06876219,0.260517231,-0.054661748,0.024214512,-0.078031853,-0.231626609,-0.098353001,-0.155256398,0.173192202,-0.10139412,-0.023446917,0.100644291,0.084069674,-0.098650843,0.240844018,0.00019198,0.23662721,-0.133960733,-0.038946691,0.153686199,-0.037676946,0.11772576,-0.061305703,0.334340114,0.014700044,0.144155272,-0.254335715,0.026293654,0.131611966,-0.019536049,0.034661954,0.093347175,-0.086235556,-0.096586854,-0.237311723,0.175828361,-0.007059888,-0.032564001,0.379800128,0.066039814,0.079505384,-0.018721949,-0.145127175,-0.015070256,-0.053355426,0.019304569,0.161991796,0.055654553
arousal,-0.208656713,0.059492953,-0.132905012,0.107745977,0.013105334,0.078566321,0.074239561,-0.156405331,-0.248176435,-0.193590978,-0.07985767,-0.198526305,0.04573341,0.10992049,0.151247358,0.109259972,0.196763688,-0.164504091,0.227414665,-0.252518038,0.087817276,0.238880951,0.084019301,-0.01102155,0.088691163,0.319701566,0.054772851,0.139727266,-0.108473289,0.004868718,-0.067389476,-0.170903318,-0.228546451,-0.203721386,-0.029248305,0.04587813,-0.100955264,0.097068231,0.025162745,-0.079080263,0.165617323,0.002657098,-0.057045699,-0.015805848,-0.005139234,-0.051884015,-0.029276136,0.292872684,-0.125444505,-0.053906386
arrogance,0.023737051,-0.134673019,0.02768538,0.18601153,-0.035125595,0.374282757,0.151033306,-0.096295016,-0.146284668,0.100147144,0.01113965,-0.084456169,-0.370270976,-0.15895862,0.098763489,0.002638564,0.074267065,0.058459422,0.256365062,-0.074357126,-0.109179791,-0.155941597,0.016673861,0.109333303,-0.001912064,0.194477206,0.119325911,0.131320317,-0.104328811,0.036525625,0.11850104,-0.166615799,0.11815922,-0.147756336,0.054212256,0.123611967,-0.155466733,-0.012727374,-0.104111847,-0.080659305,0.313880897,-0.122754346,-0.083639485,-0.107137058,-0.154328697,-0.090310094,0.09166714,0.032960053,0.18536678,-0.078424171
assured,-0.116511752,0.132019618,-0.009101243,0.088660939,-0.032544203,0.124398856,-0.116156628,-0.162838592,-0.028544263,-0.144482538,-0.023946132,-0.04707308,-0.367265043,-0.083197314,0.066429718,0.254441298,0.060495794,0.168155849,0.107184957,-0.037575922,0.076925062,-0.055876787,-0.088428189,0.085613594,-0.011058982,0.449951266,0.139865931,-0.093411918,0.056169524,-0.035838695,0.131950032,0.022686163,0.095218729,0.029508856,0.140501794,-0.010665707,-0.040868014,0.015858431,-0.146409324,-0.010754968,0.414030989,0.053285344,0.293648869,-0.011389871,-0.013975076,-0.13409997,0.075737317,-0.008065386,0.068505272,0.065241974
astonishment,-0.119790257,0.049952551,0.189265112,0.19158781,-3.75E-05,-0.180977764,0.062753144,-0.19819529,-0.189233755,-0.068883542,0.182503084,-0.195894991,-0.002654415,-0.053892401,0.027155624,0.026978678,0.283382509,-0.07208425,0.171306205,-0.235248695,-0.097779509,0.051224771,-0.015267983,0.092135153,-0.060726103,0.253077693,0.091709586,0.07970637,-0.067651639,-0.115225496,0.225617453,-0.090421687,-0.096092921,-0.134456624,-0.194441345,0.031494163,0.141404557,0.149026678,0.031639751,-0.14505547,0.358394209,-0.026286572,-0.244611159,-0.029314814,-0.007216936,0.039369383,-0.034672473,0.138026903,0.022487831,0.157994932
astounded,-0.143163118,0.129530941,0.187425592,0.048074684,-0.091109926,-0.081231018,-0.135921813,-0.217133886,0.001331663,-0.169831748,-0.049019843,0.098871173,-0.035172953,-0.104129539,-0.141302271,-0.033122653,0.187124572,-0.130423474,0.107080791,0.019259134,0.14849937,-0.080250074,-0.041736438,0.061462678,-0.005008078,0.342277943,-0.092370839,0.014704269,-0.03118813,0.084824305,0.118319549,-0.064232898,0.127697459,0.044100387,0.006497808,0.042683701,-0.269149187,-0.162198907,0.172574602,-0.070188029,0.422669054,0.054737105,0.325690304,-0.080685815,-0.12187284,0.103260161,0.061456363,-0.018593313,-0.207442326,-0.005357723
attack,0.023442127,0.210151223,0.037207551,-0.064664023,-0.064270613,0.011381087,0.134506961,-0.010420463,0.125834333,-0.130807735,0.072428481,-0.193324642,-0.675803431,0.021050353,0.111859482,-0.011307298,-0.097311153,-0.064164921,0.084506745,-0.178811544,-0.092292733,0.114470469,-0.002941569,-0.081653057,0.174165004,0.001941056,-0.176022445,0.128081269,-0.002075481,0.251449452,-0.066382499,-0.020011047,0.028487949,0.01102193,0.151715208,0.064411536,-0.013641529,-0.172961288,-0.14857576,-0.18900105,-0.096929487,-0.078787625,-0.02700043,-0.0083808,0.002304089,0.119001531,-0.063104085,0.063906562,0.017339776,0.014326767
attentiveness,-0.078896697,0.174408039,0.092169726,0.159729583,-0.127233821,0.159095452,-0.048297366,-0.25903975,-0.124049248,-0.223496578,-0.066116661,0.048281463,-0.040791157,0.048313269,-0.034962713,0.056368131,0.125705147,-0.012223631,0.148299313,0.082373488,-0.051144,0.117045971,-0.125130651,0.187164221,-0.169959179,0.192018607,0.204492511,0.008033393,-0.232958855,-0.047822264,0.243196401,0.043166665,0.10753201,-0.161224464,-0.144196343,-0.12987968,0.110639056,-0.103562228,0.118004126,-0.096387993,0.377894686,-0.012821384,-0.223536336,0.067223906,-0.128128364,-0.129863777,0.056366143,-0.061596237,0.177994162,-0.10123244
attraction,-0.104029574,0.219539203,-0.279316298,0.089073417,0.121425937,0.019615325,0.173375362,-0.089588395,-0.186846005,-0.053044744,0.048449553,0.085139775,-0.399642954,0.041802372,0.310591325,0.095237311,0.232017523,-0.015629591,0.168996066,-0.013684756,0.160536557,0.053716196,0.004657384,0.054819438,-0.012798993,0.257291073,-0.206605326,0.190335973,0.005166024,-0.051145266,0.145649723,-0.240395824,-0.07790433,-0.18454841,-0.000473899,-0.031368119,0.033000204,-0.040693188,0.146931227,-0.153281305,0.046639206,-0.054985816,0.148902009,0.001734803,0.001664806,0.064227695,-0.014082477,0.052747641,0.123446236,0.086039006
aversion,-0.208818698,0.060885977,-0.287250823,0.246013151,0.110582456,0.147512818,-0.074138019,-0.268738106,-0.052350584,-0.1671532,-0.036270137,-0.145513656,-0.084883846,0.256729928,0.178567175,0.038842375,0.236426679,0.011251031,0.10819244,-0.045241278,0.030233037,0.104246934,0.061836701,0.107006676,-0.061974028,0.389480108,0.089191156,0.239888901,-0.206838022,0.112457496,0.135100582,0.006079619,-0.018261568,-0.135557458,-0.037094098,0.01809968,-0.106858785,0.081046617,-0.063645719,0.079087068,0.125728024,-0.089996631,0.117813243,-0.034141571,0.07243992,-0.042880313,-0.097462459,0.110772601,0.112291119,-0.132496654
awareness,-0.09239914,0.029545035,-0.155249937,-0.15230453,0.182793881,-0.004616401,0.094433307,-0.065926855,-0.041541658,-0.11492051,0.054725706,-0.039957323,-0.50371266,0.08162467,-0.042338787,0.192898564,-0.143557612,-0.05699802,0.148939058,0.073425158,-0.125235225,0.079430085,-0.078935601,0.162592784,-0.033433105,0.213554454,0.092620748,0.121236351,7.46E-06,0.205831235,-0.075103759,-0.240941288,0.175236041,-0.049605559,0.139269323,-0.197413422,-0.169447761,0.221823426,0.080319826,-0.102019261,0.034294732,-0.308085335,0.063399857,-0.010874524,0.050910403,0.021426559,0.064837004,0.008529609,-0.038328336,0.013538291
awe,0.068448336,0.181033095,0.156266732,0.084584724,-0.176735234,-0.041893862,0.098843937,-0.010154095,-0.042983171,0.127638688,-0.166100199,0.164819063,-0.533555842,-0.122678565,0.017232547,0.108362259,0.11771159,-0.044922004,-0.292971576,0.027563855,0.064143625,-0.013832853,0.068162878,0.189414151,-0.159182974,0.061560798,-0.14810034,0.035803323,0.23466957,-0.137787302,-0.130726205,0.10770228,0.033373502,-0.016889084,-0.129075114,0.067550855,-0.034252714,0.0875101,-0.075954748,0.06239662,-0.067452658,-0.049909531,0.175298808,0.158616624,-0.251203315,0.03991849,0.146780381,-0.025494853,0.050341144,0.087083055
awfulness,0.055840573,0.018970834,0.144943268,0.155960248,0.096234473,0.063333646,-0.049815582,-0.223728675,-0.093514576,-0.212131585,0.072935975,-0.157097567,0.014646224,0.067035657,0.100277425,-0.006059339,0.311325122,0.115586703,0.081350099,0.067117076,-0.112228178,0.044602234,0.063616068,0.066010289,-0.131010476,0.2680205,0.060687535,-0.038908007,-0.176442164,-0.050522907,0.166137598,0.010065653,0.161832579,-0.193858154,-0.091273015,-0.096524527,-0.146396084,-0.080632596,-0.03561309,-0.087515029,0.539424968,-0.106274428,0.022567255,-0.036032906,-0.140386359,0.057807345,0.121186789,0.128290579,0.060176123,0.081747016
bad,0.108677268,-0.027126971,-0.041036436,-0.01474306,-0.033302348,0.092745985,0.181314985,0.070866373,-0.024613212,0.102718128,-0.0387263,-0.028923542,-0.846767289,0.005054367,0.01623726,-0.006856345,0.047754208,-0.057955203,-0.148928042,-0.048597534,-0.034001515,0.114892289,0.043069066,0.081512456,0.011112255,0.077465215,-0.010215591,0.01991906,-0.096342732,-0.04611621,-0.071093422,-0.025589884,-0.073371121,-0.033406863,-0.058832766,0.093374875,-0.13472125,-0.07925638,-0.012159024,0.0132667,-0.221805421,0.030026353,0.027130575,0.059663478,-0.013301658,-0.075320861,0.081119625,0.102900128,-0.044620569,0.08649132
baffled,0.144780044,0.047151311,0.142836749,-0.021201896,-0.137066588,0.002712573,-0.094709197,-0.138580337,0.144146061,-0.066072017,-0.011180376,-0.146064088,-0.327902255,-0.164495526,-0.040655286,-0.088984977,0.149054832,0.038310009,0.039614727,-0.1611028,0.041229545,-0.093383806,-0.003116622,-0.066382117,-0.136262625,0.381147609,-0.159793488,0.01358905,-0.038273257,-0.082447605,-0.000555102,-0.051350297,0.090328744,0.020355896,-0.073335253,0.080049497,-0.127366194,-0.185382497,0.132803285,-0.044861163,0.423642822,-0.011934034,0.209829879,0.075919422,-0.072947054,0.126977995,0.132727482,0.168221322,-0.253202561,0.016132102
belligerence,-0.001943922,-0.042789021,0.070953578,0.2210555,-0.011823574,0.136830941,-0.064381409,-0.140134175,0.072312337,-0.259625774,-0.02315905,-0.253064157,0.027573564,-0.139751612,0.133372043,-0.015847082,0.074061574,0.15481932,0.019275902,-0.10453734,-0.021867042,0.010337646,-0.162080104,0.042134706,0.127707471,0.289402373,0.02483705,-0.024487203,-0.3345712,0.047435183,0.103247179,0.022353029,0.142685475,-0.165808115,-0.128374977,-0.144094362,-0.021066034,0.000794386,0.199349663,-0.139456115,0.410345073,-0.175934164,-0.025382401,-0.027235853,0.013657766,0.046786145,-0.106787866,-0.054458514,0.247542057,0.081211546
bemused,-0.035244565,-0.10611335,0.188321576,0.15178095,-0.172613929,-0.111081583,-0.087503748,-0.032702628,-0.165125577,-0.17066111,0.045170123,-0.136553326,0.06944399,-0.223319585,-0.011410791,-0.079646652,0.210978641,-0.175384969,0.009364149,-0.110507738,-0.028395516,-0.188991426,0.016384697,-0.092495983,-0.188733959,0.353078409,-0.197319817,0.12200646,-0.209649851,-0.057384515,0.150511072,0.063712085,0.15404142,-0.128358031,-0.018421084,0.04745023,-0.045377405,-0.0201304,0.101516043,-0.094123696,0.336801281,0.112718024,0.180687036,0.170298911,0.026495063,0.086445517,0.033804498,0.147092003,-0.188827782,0.008917074
bewilderment,-0.132634293,-0.111017336,-0.052590587,0.337994475,-0.113928181,0.083556981,0.083625727,-0.356646314,-0.0425356,-0.22906846,0.047834459,-0.197861456,0.089277361,-0.124574745,0.086245306,-0.141974685,0.111055328,-0.078368478,0.058432177,-0.150761492,-0.170471655,-0.197264452,-0.137113629,0.027597847,0.089188715,0.172146884,0.133157123,-0.008630139,-0.096486631,-0.284662156,-0.013780832,0.046354613,0.07576518,-0.044737277,-0.167631366,0.073416966,0.00311871,-0.015451176,0.050461274,-0.087142621,0.403194501,0.112390445,0.062989304,0.042061615,0.060753254,0.142388969,-0.053520465,0.049044748,0.089630136,0.045491672
bitterness,-0.079570158,-0.030232013,-0.010665088,0.204153935,-0.152907632,0.218757951,0.256259854,-0.283994258,-0.084376447,0.063806134,0.113497572,-0.1125775,-0.345149754,-0.157689361,0.038440867,0.095797052,0.201338931,-0.026865343,0.252405754,-0.098683848,0.07075296,0.062306058,-0.050129748,0.147561013,0.062528991,0.110049664,0.022690068,0.084939448,-0.080628146,0.117141964,0.205892059,-0.100429529,-0.1004522,0.030090318,-0.188063068,-0.014940871,-0.063065542,0.138277167,-0.107997923,0.058816586,0.249080648,-0.080869972,0.088319343,-0.177350938,-0.028195385,0.153225029,-0.041917114,-0.052173932,0.238973082,0.138469872
blank,0.116103855,-0.075807905,0.039066729,0.054599376,0.073211464,-0.102390761,0.261100785,-0.149857591,-0.067653138,0.19737042,0.238445813,0.073523242,-0.585170381,-0.204694633,-0.131531725,-0.056881485,0.105334757,0.036971176,-0.067006583,-0.076204016,-0.258059678,-0.018073889,0.087218447,-0.097190212,-0.189131319,0.045578276,-0.074795907,-0.041333504,-0.163494018,0.063390476,0.044765611,0.051765269,0.048034162,-0.1248464,-0.043170946,-0.013986794,-0.083047785,-0.1248694,0.239051479,-0.073875908,-0.070589467,0.15577625,0.015077759,-0.101567873,0.001289506,-0.112178527,-0.005948559,-0.057888372,0.104527203,0.009130222
blessedness,-0.038144994,-0.114586168,-0.018939098,0.043836684,0.251750558,0.057491404,0.085106771,-0.034587688,-0.200080686,-0.139284544,0.121789713,-0.082404997,-0.096198452,0.008039512,0.050236278,0.081618833,0.256606281,0.123603939,0.209436401,-0.029623467,-0.069154032,0.041166926,-0.040990839,0.035366738,0.03400429,0.149844408,0.080174566,-0.116830828,-0.33746385,-0.174802468,0.21395418,0.14861358,0.098178093,-0.081922982,-0.217084609,-0.25224858,0.309307771,0.116797033,0.009993362,-0.292997523,0.164288849,-0.002179206,0.109543686,-0.028083154,-0.067661742,-0.059858791,-0.106930845,0.116797033,0.14296102,-0.036960411
blues,-0.093768841,-0.088448527,0.001369924,-0.136797056,-0.007262843,0.170100136,0.251976643,0.064979624,-0.039759243,-0.126951521,0.099461714,0.110770222,-0.591481775,0.024913702,0.106551681,-0.100988295,-0.063939187,0.020402339,-0.010116549,-0.067601162,-0.094323135,0.097517142,-0.051885562,-0.236892574,0.132805684,-0.012430272,0.072982813,-0.027769225,-0.002349162,-0.053423501,0.177278699,-0.080190908,-0.009497057,0.188646271,0.185615827,0.022360087,0.019841911,-0.094520773,0.039706994,0.298909905,-0.091722042,-0.093832449,-0.047124085,0.127523989,-0.071796987,0.271467804,-0.087162746,-0.037005946,0.102476256,0.013513872
bombshell,-0.129532162,0.004486602,0.054997831,0.237595222,0.071468,-0.060063735,0.116183336,-0.010963449,0.120672809,-0.157342016,-0.148398948,-0.05734422,-0.198409805,0.154983667,0.012958478,0.044555084,-0.017671826,0.077646107,0.061242909,0.046255678,-0.173580177,-0.142553306,0.182934639,-0.132337783,0.116845874,0.411873814,0.023152953,0.224643441,-0.222966765,0.092917967,-0.151422227,0.188105784,0.120151389,-0.16693327,-0.039929277,0.041180206,0.054306591,0.155749054,0.026207325,-0.096842967,0.070867649,-0.357052979,0.088610274,0.214693411,0.081958584,-0.108878675,0.072883965,-0.085613306,-0.077770482,-0.00504964
boredom,0.092748247,0.173051085,-0.17650028,-0.162959427,-0.035641679,0.217285699,0.1912975,-0.33115372,-0.045017905,0.069852496,0.02907677,-0.11660954,-0.496885688,-0.024588358,-0.134338284,0.106686561,0.215618298,0.032037377,0.001638532,-0.097161044,-0.137287259,-0.02720579,0.136401209,0.084417055,0.075077667,0.13016978,-0.062006014,0.021947659,-0.048344953,0.161431622,-0.140055921,-0.261452454,0.00131812,0.004264864,-0.205400616,0.005089065,-0.088692195,0.057420659,-0.073732113,-0.028851865,0.190403695,-0.102403665,0.07737713,-0.015162497,0.097091246,0.009684114,-0.009964082,-0.018951958,-0.007870911,0.206156763
bummer,0.236706829,0.01749304,-0.040072613,-0.064266883,-0.01296333,-0.037711919,0.168604103,-0.106595473,0.140510248,0.026771228,0.164485977,-0.010764037,-0.373317493,0.003192742,0.075075539,0.14730322,0.177680369,0.125474197,-0.241760581,0.025621613,-0.071788323,-0.020122129,0.115928979,0.107633541,0.046335168,0.341765688,-0.081711434,0.011617256,0.029386886,-0.201574145,-0.087482273,0.028312395,0.219298701,-0.052192513,-0.180903843,0.164164996,-0.116921518,0.028742647,0.00709301,0.097539695,0.122990574,0.04357154,0.312809054,0.144582844,-0.072298251,0.022953596,0.058181892,0.083425612,-0.091365922,0.273335151
burdened,-0.382183509,0.084550458,0.025594543,0.177380908,-0.202721038,0.214834574,-0.075648888,0.041084836,-0.163894119,-0.173983914,0.052322381,-0.055561812,-0.206421593,-0.190535226,-0.029430978,0.033307888,-0.116943326,0.175443899,-0.001474295,-0.193339553,-0.062085486,0.046456423,0.004479551,-0.047429264,-0.050253828,0.139389506,0.073239191,0.023286033,0.060323386,-0.088342082,0.145680449,0.094458116,0.217537714,0.244482382,-0.105256221,-0.234493774,-0.047411918,0.082217374,-0.073208835,0.098976841,0.324608074,0.076618838,0.056885917,-0.057815393,0.113740033,0.19761832,0.034993375,0.040477713,-0.134802841,-0.16859209
burn,-0.195106401,-0.050561885,0.01372722,-0.141082581,0.033344444,0.110177274,0.146003899,0.023760069,0.045247025,0.100187059,0.017097124,-0.053525744,-0.746191592,0.006292565,-0.055864447,0.065436524,0.060988685,-0.021474658,-0.035394139,-0.095142759,-0.160032014,0.061749122,-0.012509291,-0.001329555,0.034871467,-0.002115081,-0.018464271,0.233091355,0.011388517,0.122325819,-0.022370375,0.104224959,0.047292621,0.153997711,-0.080874829,-0.054741214,-0.022481059,-0.079140787,0.105836019,0.056700722,0.056876996,-0.003805464,-0.165818304,-0.044195531,0.066307645,-0.12338961,0.057586191,0.175560506,0.074858974,0.222514927
calculation,0.010192285,0.005424404,-0.158140603,0.091473757,0.287571089,0.107177798,-0.003051245,-0.281240821,0.059863881,-0.06668896,0.096579436,-0.109765191,-0.224044499,0.042083844,0.098066634,-0.062067035,0.284972639,0.041710662,-0.043996746,-0.057539097,-0.178922679,0.113834254,0.185711823,0.018505392,-0.143440006,0.255311601,0.126469912,-0.079142173,-0.082453816,0.078998429,0.196434578,-0.040931127,0.198983271,-0.20220922,-0.094669298,0.096358291,0.047689863,0.140808384,0.158892495,-0.138384084,0.18758326,-0.131064194,0.074987417,-0.138378556,-0.090804794,-0.165681638,-0.237589614,0.096396992,0.067742162,-0.143697087
callousness,0.083819319,-0.036653998,0.033057119,0.152362958,0.01137357,-0.052357687,-0.001136312,-0.190071905,-0.089182486,-0.177221606,0.104428025,-0.017820824,0.045220194,0.020807639,0.081968635,0.065523466,0.237836037,0.009052277,0.236750945,-0.124351515,-0.235505099,0.018184932,-0.073557164,0.002396244,-0.129053579,0.328079501,-0.056103263,-0.036412866,-0.16112005,0.220173154,0.197585161,-0.05171065,-0.003729701,-0.185775746,-0.131631677,-0.031696736,-0.091603848,0.142384132,-0.004477209,0.005685278,0.419106643,-0.179723345,-0.064020413,-0.138678745,-0.273744536,0.019040346,-0.01739181,0.082260002,0.147224847,-0.11430236
calm,0.048516148,-0.020889948,0.007428258,0.068538925,-0.073413246,0.219106578,0.201741538,-0.008343869,0.005442848,0.140734672,-0.092640216,-0.024732747,-0.718129809,-0.202212967,-0.100544228,-0.004742624,-0.10225262,-0.074931336,-0.082766147,-0.127058892,0.045767584,-0.037279691,-0.105483425,0.184969029,-0.010112595,0.044924201,0.105396924,0.135587873,-0.012395351,0.134642852,0.021845782,0.085772051,0.068580013,0.050486204,-0.011203802,0.094999526,-0.058980584,0.009487194,-0.000532045,0.175633428,-0.145221902,-0.08857684,0.172445873,0.103615007,0.001283759,0.037785721,0.00254161,0.171219724,0.065243244,0.040910563
calmness,-0.073568644,-0.088079983,0.025752399,0.257878167,-0.062782961,0.097283653,0.286819889,-0.381656314,-0.210282864,-0.053154273,0.008306409,-0.066807142,-0.161424312,-0.025885638,0.064017538,0.060155269,-0.080814194,0.033817627,0.121199365,-0.099373326,-0.100671993,0.078594654,-0.129127981,0.004701006,0.198645458,0.124805275,0.189133144,-0.014751002,-0.055387305,0.075729154,0.071910735,-0.211328544,-0.031817342,-0.248045402,-0.159410534,0.030398928,-0.022827868,-0.036823113,-0.187328502,0.020782046,0.282839559,-0.164337036,0.064607841,-0.198291276,-0.120836751,-0.001539696,0.076196336,-0.054093698,0.275098155,-0.040201334
caution,-0.033677164,0.003782373,-0.02408732,0.067463937,0.002137809,0.005329736,0.164131708,-0.233862298,-0.044751913,-0.038030543,0.079380408,0.044615417,-0.401524277,-0.236695614,0.004216057,0.150966096,-0.154872763,-0.06634302,0.089576209,-0.044230748,-0.066826958,-0.128394703,0.181491455,-0.068648966,0.071097613,0.077769348,-0.054645769,0.267489827,-0.110160145,0.244637171,0.128781441,0.051816589,0.130597244,0.048966728,0.179518474,0.114811333,-0.178145247,0.295636855,0.196235037,-0.072733491,0.16274814,0.060070431,0.269702709,-0.096421665,-0.004836491,0.070526814,-0.088488381,0.146397633,0.021502178,0.108381567
celebration,-0.024965735,0.067220553,0.194548803,-0.087555858,0.22659095,0.066474539,0.282263296,-0.015931895,-0.062169954,-0.218830692,-0.065259051,-0.004027831,-0.563690543,0.160238603,0.022905623,0.179990817,-0.13876284,0.065169015,-0.129817107,0.07423694,-0.190878759,-0.057771046,-0.033540606,-0.074873625,0.169634517,0.169077151,0.050233734,-0.137403723,0.046848804,-0.040398358,0.113501272,-0.028633636,-0.040368346,0.023454414,0.181051957,0.095504763,-0.034224451,0.026764314,0.075004391,0.101511459,-0.019150044,-0.229184848,0.0632804,0.009887683,0.019460025,0.138861451,-0.008098322,-0.208941723,0.029561866,0.097301198
chagrin,-0.080073248,-0.125131891,-0.081906766,-0.086038898,0.084029677,0.260868004,-0.083258649,-0.218368431,0.004487467,-0.213655443,0.007371485,0.030932083,-0.148562468,-0.039713123,0.029379691,0.134522726,0.169878402,0.1153111,0.020209002,-0.004757224,0.163493131,0.172236963,-0.122219347,-0.025824279,-0.180563241,-0.020958326,-0.020357213,-0.103437678,0.016714776,0.169278943,0.158191019,-0.207619512,-0.166918315,0.062903916,-0.13451239,-0.048378406,-0.081139871,0.09247378,0.095863824,0.028833976,0.228393865,-0.257291922,-0.300783703,0.02915231,0.007635247,0.040796283,0.020995533,-0.080604493,0.43958946,-0.001439115
change,0.045883168,-0.050803449,-0.166826361,0.122772001,0.066507862,0.052414378,0.142923195,0.018377285,0.038585094,0.095751627,-0.024961679,-0.097638764,-0.80373174,0.061908394,-0.114775685,0.10261566,-0.041558193,0.105501264,-0.098390188,-0.04221526,0.052632257,-0.065598605,0.027042676,0.157757809,-0.141214478,0.028840603,0.079139673,0.118858764,-0.03458951,0.096803277,0.021460181,-0.04306104,-0.069942452,-0.113984803,0.170269529,0.088719467,-0.038133896,-0.04849428,0.128289304,-0.022983616,-0.006961992,0.048315859,0.097499802,-0.075825173,-0.036063192,-0.116125846,0.047190439,0.08641716,0.037684415,0.0016374
charge,-0.020632866,0.100948452,-0.181641462,-0.00907526,-0.191322547,0.018714385,0.126591647,-0.1226314,0.178816731,0.097163399,0.081928019,-0.015507255,-0.648022748,-0.034374772,0.095941367,0.073419219,0.045470386,-0.086930778,-0.111615814,-0.110259683,-0.200581868,-0.090320022,0.074535269,-0.081930182,-0.161671521,-0.022134992,0.102873422,-0.090821812,-0.112316589,0.198782346,0.049158109,-0.047300189,-0.128328446,0.011641526,0.08091795,0.013944785,-0.073066668,0.032841285,0.020556732,-0.170061362,0.004130899,0.137637514,-0.019521142,-0.060530572,0.240145408,-0.175793014,-0.140555249,0.032646625,0.099979478,0.074604481
charm,-0.27658019,-0.269838885,-0.007808091,0.239534126,0.089945604,-0.007121722,0.114461137,-0.155603841,0.056612443,-0.000948968,-0.116549905,0.071461982,-0.495371839,-0.161857698,-0.005571429,0.228665068,-0.004916382,-0.023953413,0.201973648,0.000245695,-0.152363866,0.096255465,0.071932836,-0.032013939,0.028666103,0.167400087,-0.197943385,0.073314285,0.114539959,-0.202400943,0.107661753,-0.068450175,0.091831095,-0.185404558,0.197862489,-0.075859387,0.005205739,0.024905492,0.102559104,0.007539061,-0.008793358,-0.101762593,0.160414021,0.054222909,0.03339124,-0.021215406,-0.020132648,-0.073332954,0.178246329,0.031586644
cheer,0.18466101,0.04596799,0.149173315,-0.061475546,-0.019276244,0.167915193,0.306889458,0.146948742,-0.014295662,-0.041655561,-0.130116989,0.059137694,-0.645672919,0.050688615,-0.054614331,0.169256967,-0.125015511,-0.131521263,-0.117173844,0.022687125,0.06877816,0.091937933,0.124421771,0.124449114,-0.114043036,0.174030326,0.108215008,0.063686447,0.019806313,-0.082623634,0.025009352,-0.128228349,0.099094065,-0.041675092,0.028772962,-0.122083919,0.120308558,0.03814976,0.038712251,0.202281812,-0.019433077,-0.034948641,0.0705086,0.096146848,0.099972957,0.121462836,0.095941773,-0.068147311,0.044907461,0.056754921
cheerful,-0.127291083,-0.251909687,-0.07106106,0.234330803,-0.18335815,0.197681987,0.142841164,-0.11265763,-0.273582842,-0.103222474,-0.197918273,-0.002180352,-0.343144706,-0.194023623,-0.165532794,0.083354057,0.013018355,-0.027806413,0.116880228,-0.028244358,-0.16665108,-0.091962211,-0.102796751,0.114513292,-0.05003973,0.38922053,-0.0131917,-0.018919605,-0.089982295,-0.046116563,0.129666167,-0.085894135,0.162110717,-0.026211481,-0.005454954,0.002844805,-0.061503688,-0.081331365,0.008560489,0.067482138,0.022821995,0.03942518,0.069062812,0.154704365,-0.064538744,0.240604611,0.099232088,-0.031083867,-0.173313946,-0.013916447
cheerfulness,-0.068404942,-0.010032933,-0.062993735,-0.014370744,0.028178167,0.258385138,-0.060581238,-0.032153323,-0.267473191,-0.225952583,-0.001677006,-0.188126164,-0.084380143,-0.147986107,0.234502984,-0.024098949,0.115817175,-0.15389681,0.206406331,-0.152491978,0.063796744,0.101817411,-0.141986952,0.036560335,-0.006792799,0.344825702,0.24567227,0.171639326,-0.045022283,0.002175409,0.169386391,0.02467996,0.079175325,-0.205365715,-0.196832657,-0.254534856,0.067919321,0.089853787,0.161978934,0.002247385,0.129749299,-0.207915226,0.054047899,-0.044455147,0.070255505,-0.041456437,0.00044221,-0.018108466,0.184137133,0.02145058
clownish,0.023441419,-0.070717867,-0.009157305,0.029574852,0.076793859,0.038157986,-0.013635789,-0.020876366,-0.143818107,-0.10007614,-0.046362106,0.043645448,0.093875379,-0.051498803,0.195806568,-0.023731918,0.216998386,-0.140917827,-0.056265903,-0.150753354,-0.144251265,-0.017439582,-0.030424691,-0.169261472,-0.288380116,0.272395618,0.013346232,0.144599676,-0.412795538,-0.015496253,0.268252361,0.129326123,0.171024711,-0.210675211,-0.17990211,-1.51E-05,-0.08463309,-0.009057019,0.103313059,0.003065304,0.247795029,-0.218650981,-0.014087074,-0.070767303,-0.118664298,0.191147757,0.153112186,-0.017719722,-0.075734504,-0.025276223
cockiness,-0.125133298,-0.10657687,0.073288782,0.15139355,0.03432834,0.322951191,0.193462491,0.048187869,-0.153423269,0.127420453,-0.206684559,-0.142726528,-0.227174386,-0.219608911,0.00999203,-0.178138903,0.080479486,-0.061369658,0.169309014,-0.037146129,0.056553673,0.095020258,0.266087544,0.072633809,0.154747227,0.146782463,0.140807139,0.242848227,-0.112715062,-0.014387011,0.029652457,-0.049010965,-0.091088663,-0.106956895,0.000916228,0.119343608,0.056077328,0.031680424,0.002999571,0.156172758,0.228137583,-0.179680018,-0.173343933,-0.016063499,-0.184110724,-0.203444715,-0.057327733,0.170580434,0.10466974,0.007719936
coldness,-0.235693614,0.023529721,0.006102122,0.027116136,-0.266967822,0.116935077,0.139663644,-0.276022529,-0.12817418,-0.141305592,0.187384455,-0.178367302,-0.123744885,0.108061881,0.013165211,-0.086094827,0.110367285,-0.019223102,0.010990203,-0.06815232,-0.138528676,-0.133859452,0.060601862,0.130946924,-0.012541396,0.167900144,0.106983244,0.238760531,-0.201102128,0.057317966,-0.078571492,-0.006648116,0.263796588,-0.246813796,-0.279903118,-0.085667128,-0.255305192,0.00345894,-0.066013823,0.099701924,0.148929072,-0.050433051,0.011585853,-0.034806378,0.103388484,0.16807331,0.060635244,-0.091287723,-0.012329215,0.172462965
comfortable,-0.09894081,-0.214412789,0.071363653,0.152748009,-0.083429648,0.128178118,0.127603044,-0.044145258,-0.09374756,0.049621647,-0.067487621,0.07194752,-0.514541452,-0.03460818,-0.10593666,0.131797389,-0.017654938,-0.125529614,-0.052122427,-0.097001035,0.129723958,-0.103379605,-0.013284905,0.07511658,-0.082323467,0.281821272,-0.028303473,0.056670257,-0.156704938,-0.094832638,0.020922482,0.028481095,0.071397067,-0.129789028,0.092701172,-0.031873502,-0.107790261,-0.009904633,0.08516718,0.106775529,0.005768851,0.340841065,0.243606132,-0.075417307,0.16860738,0.004834488,0.181033895,0.223944591,-0.119778877,-0.056921742
complacency,0.062575324,0.079264454,-0.069074125,0.10216001,0.015130511,0.364256131,-0.005133197,-0.070257886,-0.007717504,-0.18028349,0.241482514,-0.07793094,-0.179608413,-0.085594486,0.110194373,0.019102529,0.043523426,0.052703517,0.211584226,-0.265894615,-0.050645009,-0.11411885,-0.030219187,0.02886428,0.128507015,0.321279422,0.12041085,0.148476447,-0.184535997,-0.062696553,0.167766048,-0.139512665,0.207036967,-0.036171271,-0.097515293,0.031243687,-0.02174959,0.071184928,-0.106398256,-0.10781972,0.338465352,-0.146726953,0.127287598,-0.153781979,-0.011825726,0.028930836,-0.07309606,0.115842197,0.155201066,0.073633269
completion,-0.000471353,-0.144664255,0.09623645,-0.02771306,0.190036934,0.048337417,0.092098924,-0.081652293,-0.108750713,-0.226648725,0.130095916,-0.041565071,-0.313828265,0.177420984,0.043863194,0.156706239,0.07300439,0.210342671,-0.124607085,-0.046968033,-0.040945911,0.045591871,0.155725526,-0.058551297,0.004479193,0.280949511,0.206220964,-0.141258874,0.057378509,0.28196638,0.149716962,-0.020046097,0.170113087,-0.175473115,0.137128128,0.016201655,-0.071745733,0.147534084,-0.012696622,-0.04250285,0.197329012,-0.060345506,0.024018438,-0.146542072,0.0295728,-0.224737012,-0.208485191,-0.033565705,0.03174212,0.249132821
composed,-0.250863746,0.079996687,0.210759813,0.231718252,0.052206833,0.221338645,0.008480597,-0.090964007,-0.221418335,-0.169552176,-0.191413102,-0.086734467,-0.316647743,-0.12890436,-0.144523576,-0.113321003,0.15624795,0.020948478,0.085218367,-0.057972396,0.080863315,0.033529518,0.015005605,-0.058741404,-0.044094403,0.222972288,-0.045706131,-0.179977604,-0.000190648,0.13348852,0.225621976,0.108192959,-0.051403958,-0.066419524,0.139250098,-0.112097764,-0.053505778,-0.201854469,0.128258871,-0.130876684,0.195433457,0.109187091,0.114088018,-0.023305306,-0.207372993,0.040924738,-0.008118805,0.040663754,-0.241241193,-0.045730038
compression,-0.073792385,-0.274661227,-0.056436023,-0.049005834,0.03564717,0.048389058,0.056421584,-0.092660776,0.033526616,-0.204435415,-0.051565763,0.110778309,-0.230991845,0.242151569,-0.05510552,-0.122100994,0.054228832,-0.06248414,0.026574995,-0.080840957,-0.181911751,0.132260262,0.332213223,-0.174310349,-0.041200215,0.212241034,0.032928405,0.20036552,-0.089597525,0.160060558,0.083739185,0.064414916,0.205244031,-0.338422237,0.110815439,-0.265502415,-0.125877973,0.132336585,-0.019292295,0.050961364,0.086012386,0.025432206,-0.029792956,0.043386779,0.050858224,-0.241491474,0.063544417,0.040139939,0.071248958,-0.118136301
concern,0.103490889,0.097289972,-0.0435439,0.149925952,-0.009005078,0.081465526,-0.004276212,-0.00798917,0.063277263,0.040535778,-0.047424091,-0.185075427,-0.554060788,-0.10609273,0.046137534,0.198345226,-0.009210476,0.016998147,0.144947982,-0.260840706,-0.080929974,-0.051031375,-0.070264068,0.230451696,-0.253351179,0.220068956,0.108056422,-0.046968563,-0.09543298,-0.001089408,0.059669979,-0.216785876,-0.079335628,0.010413725,0.145196265,-0.010584855,-0.141777758,0.17143423,-0.009330513,-0.134257453,0.059827977,-0.032137249,0.254684931,-0.013504129,-0.161441355,0.044770952,0.020089577,0.053973835,0.07495682,0.046330415
concession,0.058012,0.059820682,-0.008271366,0.017742527,0.172640578,-0.104538601,0.077853832,-0.050280824,0.171663782,-0.29244832,0.065185008,-0.101216422,-0.150096457,0.051069774,0.289067104,0.249995279,0.04279653,-0.006400427,-0.104219264,-0.014413371,-0.204990225,-0.201437265,0.134754862,-0.047012315,0.128896771,0.273261262,0.061787691,0.008356433,-0.097247519,-0.121903559,0.244239161,0.089339232,0.112656202,-0.181909403,0.150211847,0.063585639,-0.004777175,0.034367642,0.064653674,-0.012127562,0.267542714,0.207056523,-0.116523132,-0.268430954,0.149653679,0.011052818,0.137760387,-0.056085244,0.119893614,-0.051110027
condescension,-0.044029194,-0.025279618,-0.032650211,0.182376733,-0.184244623,0.110412487,0.045510885,-0.089325525,-0.07873156,-0.218611273,-0.021513043,-0.075879242,-0.014764155,-0.106535354,-0.06444725,-0.122584062,0.210294115,-0.113189081,0.214123289,-0.170614075,-0.143092989,-0.016080008,-0.065265083,0.154499738,0.009097634,-0.011675574,0.03790302,-0.064081245,-0.229301157,-0.082449671,0.248724687,0.062763625,0.448899382,-0.164922059,-0.056286591,-0.033483189,0.008011228,0.050695542,0.064601225,-0.072850231,0.384330971,-0.148073187,0.007145436,-0.07591458,0.095269958,0.158823651,-0.048837749,-0.090703725,0.158535895,-0.116356921
confidence,-0.019020536,-0.045058672,0.066597055,0.133692285,0.054326148,0.32187078,0.198981858,-0.148097967,-0.203100336,0.126649507,-0.055906996,0.036841498,-0.54934028,-0.060491276,0.070902574,0.123252212,-0.08212318,0.068519611,0.082103396,-0.130278803,-0.09836689,-0.046553194,0.086538404,0.21077977,-0.093430111,0.215419803,0.113723959,0.085644569,-0.086680483,0.019982714,0.021092365,-0.218351296,-0.031348995,-0.021500616,0.181662667,0.076610893,0.047571124,0.176984867,-0.053171535,-0.038542843,0.173137956,-0.135872021,0.027913932,-0.000920795,-0.066721149,-0.209520847,0.020385569,0.093696284,0.032473034,0.058408657
confusion,-0.070867715,0.081251733,-0.085437972,0.187662856,0.103975366,0.198018903,0.126169893,-0.234462027,-0.115212481,-0.079491927,0.235790621,-0.210169719,-0.528477734,-0.105767804,-0.01534527,0.121027997,0.172647403,0.20877586,0.053115823,-0.191590369,0.046922707,-0.084330809,0.01840873,0.253621763,-0.058516445,-0.022161661,-0.04443567,0.15255532,-0.149042702,0.089074126,-0.070932979,-0.166314435,0.051915426,0.035722885,-0.01915321,0.038165635,-0.151914331,0.063945037,0.011732192,-0.058954648,0.118757732,-0.109077637,0.119109693,0.018451851,-0.126883138,0.083333198,-0.01067188,0.097290436,0.091022732,0.057542142
contempt,-0.030550599,0.003384914,0.18417289,0.283589417,-0.045275222,-0.016556222,-0.024058505,-0.095506536,0.032696213,-0.066915536,0.180736224,-0.305763833,-0.262041188,-0.181143246,0.159134586,0.105157195,3.45E-05,0.024811772,0.059789887,-0.024093498,-0.148076846,-0.048352751,0.028769647,0.047013814,0.109932798,0.314806721,0.113638357,0.252261608,-0.19470758,0.131422091,0.123659204,0.043713436,-0.022016027,0.043735536,0.013263947,-0.173398776,-0.101026197,0.110595821,-0.115513237,-0.304990306,0.1733601,0.050004781,0.180165288,0.009368691,0.146148555,-0.008119078,0.129037052,-0.14910453,0.109325028,-0.110113288
content,0.143111202,-0.019715382,-0.271710373,0.049006235,0.210003388,0.182616376,0.019081978,-0.205774645,-0.02987707,-0.174443831,-0.079522154,-0.027599356,-0.586325249,-0.072108241,-0.060358506,0.069952127,0.110223194,0.060353061,-0.059275004,0.037194792,-0.088044978,-0.202525954,-0.071701701,-0.008586527,-0.255702855,0.059639801,0.03172828,0.000345087,-0.080576618,0.077516677,0.016393731,-0.061442008,-0.172024554,-0.086299033,0.230729675,-0.065128093,-0.01923806,-0.140604809,0.028951465,-0.161519847,0.002039779,-0.021051156,0.061696095,0.055581659,0.031178361,0.001804276,-0.059313117,0.15164673,-0.119731514,-0.186826971
coolness,-0.055572147,-0.051030327,-0.031924425,0.120239141,0.096695088,0.126812311,0.174805419,-0.34801938,-0.126181892,0.071413879,0.075597061,0.020715012,-0.171064932,-0.022175904,-0.040237552,0.013220029,0.235322854,0.097025707,-0.010933709,-0.084209987,-0.038194994,0.055905569,0.092764074,0.228962625,-0.191664228,0.417757745,-0.037954034,0.039682783,-0.135853922,-0.034126689,0.022529779,-0.252559914,0.121390706,-0.136170533,-0.046177501,-0.061584945,-0.000942519,0.113007533,-0.133222973,0.046580969,0.371330879,-0.197719053,0.020674946,0.032907879,-0.154147284,0.005984779,0.039458634,0.031251978,0.17334845,0.02110279
criticism,0.180586081,0.036882189,0.119506744,0.225759753,0.095027223,0.139922471,0.108693655,-0.228188551,-0.100860287,-0.034791053,0.146440733,-0.190656708,-0.469350439,-0.169224045,0.062238447,0.056002557,-0.018146874,-0.003858432,0.187424234,-0.219065748,-0.093672625,-0.054124681,0.002415963,0.048844514,0.061936328,0.30705538,0.199773587,0.217446549,-0.15753027,-0.010135987,0.136490559,-0.03975133,-0.061894861,-0.04518157,0.092304204,0.134946397,-0.085969582,0.025385878,0.031029378,-0.126589751,0.198865256,-0.033501618,0.166433889,-0.015660614,0.065281356,0.016413147,-0.124628941,-0.032579464,0.050923802,-0.072214291
cruelty,-0.022839521,0.057856092,-0.156406961,-0.124127156,0.07202334,0.012411741,0.090147593,-0.046417814,0.091063747,-0.09534238,0.115655656,-0.12006684,-0.406343487,0.026812121,0.204399779,0.094155279,0.050376768,-0.125025766,0.190043453,-0.002803236,-0.031242797,-0.059023701,0.092597817,0.101158983,0.065128795,0.292642942,0.012823036,0.256854462,-0.035121831,0.00415583,-0.017567348,0.012732395,0.066027405,-0.003989168,-0.059341431,-0.158426398,-0.21734289,-0.0307048,-0.136245727,-0.3353708,0.191866015,-0.295021043,0.052684696,-0.176078929,0.147241523,0.195608601,0.0877461,0.052904963,0.023326837,-0.053419569
crush,0.039925848,0.061771122,0.018902033,0.064159667,-0.189957653,-0.003367829,0.381493554,0.030862465,-0.052145729,0.2011305,-0.096398288,-0.080688937,-0.543167832,-0.077424657,-0.127953643,0.224515529,0.043409544,-0.094754599,0.1151756,-0.024826625,0.038226343,0.140595031,-0.013583719,-0.013043072,-0.146386435,-0.220415932,-0.080500317,-0.263625307,-0.086520759,-0.056691855,-0.052773179,-0.147065852,-0.132748055,-0.178528821,-0.093692169,-0.006485641,0.126660248,0.009123433,-0.004290335,-0.029642209,-0.200995771,-0.14858636,0.058699311,0.019766605,0.014942938,-0.066199843,-0.052247737,0.000332722,-0.006764144,0.065466534
curiosity,-0.182661615,0.107036598,-0.224282219,0.052566275,-0.155076859,0.115662037,0.09490896,-0.336423329,-0.039806036,-0.033400945,0.045626386,-0.018403503,-0.469061561,0.092809306,-0.066498076,-0.006265877,-0.015188264,0.186609132,0.284025608,-0.167125421,0.068137845,-0.048683267,-0.042180373,-0.138512686,-0.115651632,-0.07133831,-0.108572321,0.032449962,0.019956706,0.079597506,-0.052947085,-0.197134457,0.086499938,-0.205940936,0.049342921,0.215438283,-0.026088571,0.032268922,-0.050427083,-0.043526732,0.116494407,-0.219059094,0.023624754,0.115433135,-0.108842842,0.123931637,-0.034507998,0.06754062,-0.071402819,0.185866242
cuteness,-0.088500291,0.115469937,0.047457587,-0.024039616,-0.055686782,-0.008639642,0.210285891,-0.223144008,-0.155785701,-0.055387097,0.05340067,-0.023869524,-0.379932035,-0.044647026,0.031270535,0.160159486,0.084233826,-0.091952745,-0.073716494,-0.124581988,-0.078003208,0.031088294,0.233936726,0.301244411,-0.032400429,0.311935884,-0.153434792,0.133082519,0.030203412,0.087526313,-0.203988452,-0.189435493,0.015109806,-0.124531366,-0.062245434,-0.138802863,-0.082038834,-0.000837964,-0.111420136,-0.043215421,0.09378528,-0.402084443,-0.004648564,0.091985144,-0.048405241,0.11002903,0.059773031,0.019610147,0.028251408,0.048295896
cynicism,0.182093455,-0.011518758,0.041578276,0.22768652,-0.016825262,0.180757617,-0.057545304,-0.224086302,-0.055593671,-0.122969874,0.031778895,-0.019958058,-0.242657124,-0.039541789,-0.020345475,-0.021672343,0.214558452,-0.042979573,0.240552754,-0.088410204,-0.092706222,-0.02048221,0.048647796,-0.009549669,0.040707921,0.222120122,-0.010021213,0.064304502,-0.034979089,0.08189587,0.206402807,-0.103206252,0.223523844,-0.160421839,-0.152035877,0.063637794,-0.057251953,0.136844654,0.081561305,-0.024845141,0.472828643,-0.220655791,0.053949935,-0.186370078,-0.177988964,0.100350322,-0.061038849,0.03058852,-0.008372144,-0.125450024
danger,-0.068552539,0.094111588,-0.209351331,0.199903444,-0.043532699,-0.013737598,0.105583465,-0.135510893,-0.075887871,-0.018417259,0.173445712,-0.040375588,-0.674637003,-0.088339182,0.038078087,0.046952902,0.070988098,0.142929582,0.035191884,-0.086711134,0.168090085,0.005090971,-0.010599243,0.006498907,0.049904227,0.070131094,-0.094554417,0.057802213,-0.080068698,0.195074002,0.044905469,-0.17824129,-0.138368443,0.010430968,0.099800639,0.009190005,-0.177673426,-0.046963321,0.052920674,-0.107625688,0.017683987,-0.144229415,0.060870758,0.043032562,-0.091642165,0.209627448,-0.068784373,0.194222208,0.082967926,-0.015636554
darkness,-0.226783294,-0.081772746,0.027952452,0.203850599,-0.098290646,0.141852831,0.198532757,-0.1029527,-0.130783931,-0.017741441,0.190856067,-0.00822477,-0.622541207,3.10E-05,-0.134531856,-0.026553438,0.010643036,0.296177551,0.118325952,-0.065628446,-0.049506006,-0.112847145,-0.114057371,0.015268923,0.120589413,0.067536192,-0.12889407,0.079439732,0.003021591,0.187294941,0.109874241,-0.037888629,0.132274357,0.030651118,-0.028157137,-0.059851553,-0.06338287,-0.084062041,-0.012155322,-0.088245171,0.161623835,0.005628447,0.097336773,0.034067175,0.004169816,0.166955588,0.004681926,-0.086063187,0.053907732,0.132041851
dazzle,-0.125070405,-0.004859289,-0.060055744,0.233575104,0.099614632,-0.237263369,-0.002573914,-0.101859076,-0.065493686,-0.007347293,0.104011313,0.245989263,-0.212016747,0.055110321,-0.124314761,0.012479603,-0.133821038,0.099567404,0.173532854,0.159393756,-0.120178956,-0.186965784,0.172822188,0.007855329,-0.126493985,0.270997497,0.085192168,0.355062945,-0.088489116,-0.06225296,0.3107363,-0.133708591,0.041940517,-0.227727855,-0.102927323,-0.07917175,-0.022961697,-0.071680525,0.03825675,0.270795092,0.124402469,-0.008635037,0.045138513,-0.070747214,-0.096619041,0.071491614,0.069499051,0.000657276,0.076383062,0.008777845
deadpan,-0.072510532,-0.050992077,0.102597327,0.288191127,-0.011422464,-0.161737481,0.14792617,-0.279510257,-0.074777204,-0.22155511,-0.029028097,-0.116156021,0.111900557,-0.301579877,0.123130572,-0.048422264,0.370866086,-0.00138949,0.044589361,-0.061489501,-0.091482138,-0.14059336,0.042331875,0.046846847,-0.151635061,0.266075576,-0.081241926,0.08659513,-0.112318525,-0.085522652,0.083834705,0.162881151,0.108841583,-0.137653806,-0.08293217,0.071343896,0.053015317,-0.077505477,0.222416308,-0.111128924,0.157369488,-0.012234746,-0.080575933,-0.06784399,-0.022283887,0.05346314,0.123886129,0.132486621,-0.0236703,-0.243385893
deception,-0.074054417,0.046443818,-0.141776108,0.119698626,0.102634171,0.193645359,0.204574125,-0.151951086,-0.002550962,-0.023481954,0.042090641,-0.125960328,-0.392015062,0.04818738,0.093678082,-0.189537335,0.184247079,0.280252965,0.109464077,0.114575624,0.003582207,-0.137473336,0.011091208,-0.0125218,0.120999997,0.123089522,-0.022943535,0.190605009,-0.1326436,-0.01306778,0.068702301,-0.074093367,-0.033093311,0.001931482,-0.090960783,0.027260054,-0.112536504,-0.187033112,0.00201937,-0.294022752,0.286232856,-0.192948851,0.254294282,-0.058990133,-0.032394512,-0.037957414,-0.051069642,-0.03738921,0.189672512,-0.025699783
defeat,0.131677349,0.047503209,0.114492448,0.024356122,-0.042436955,0.153006168,0.0659443,0.076774692,-0.143032097,-0.005342201,0.237431168,-0.0815882,-0.531145671,0.024167505,0.126482835,0.023950596,0.108694359,0.086243269,0.226812027,-0.177865898,0.026247952,0.000683133,0.034141576,-0.028873501,0.11997366,0.235639306,0.177085023,0.016126194,-0.049298844,0.098503379,0.226774304,-0.12430808,0.056106034,0.0681266,0.172876976,0.097826244,-0.0490593,-0.040516833,-0.139631331,0.06211726,0.139878419,-0.079866126,0.197085977,-0.031917781,0.156084398,0.015371537,-0.044698473,-0.036708654,0.211779247,0.222794484
defiance,-0.084040933,0.066879385,-0.064125738,-0.032503976,-0.060368603,0.195092815,0.086233388,-0.160855325,0.09096072,-0.080661889,0.084421402,0.052364478,-0.317668163,0.073385412,0.158280023,-0.258338717,0.153241181,0.184900991,0.011878968,0.25786313,-0.043979884,-0.162060937,-0.025360663,-0.1979178,-0.001623106,0.174573625,-0.074488773,0.10917807,-0.07296214,0.067597521,0.142676022,-0.17116129,0.023634521,-0.18170267,-0.109280321,-0.089010814,0.033945004,-0.095602446,-0.190049217,-0.128708039,0.260787989,-0.110086441,0.277362187,-0.070565183,0.057512704,0.112892402,-0.01955042,-0.258719186,0.15457758,0.003193803
deflation,-0.145538562,0.10627604,-0.018966102,0.044561718,-0.006957548,0.178175466,-0.250959894,-0.039621716,0.174968684,-0.126535891,0.043566361,-0.343398302,-0.165633963,0.136372619,0.123088925,-0.140263168,0.073390298,0.159441108,0.221640127,-0.215204925,-0.070910559,-0.018837139,0.208107594,0.048841755,0.110826555,0.351058227,0.000539116,0.041313823,-0.218004908,0.016962621,0.16517956,-0.094312277,0.187105553,-0.135450831,-0.014195095,-0.046113177,-0.00306159,0.009745414,0.004627546,-0.07365212,0.072102824,-0.25377286,0.049006205,0.073539601,-0.036968872,0.032472453,-0.09926959,0.069279039,0.149877022,0.211664915
dejection,-0.015055715,0.087157426,-0.076909552,0.200994994,0.150976173,-0.121932293,-0.05262323,-0.28910651,-0.1198608,-0.294048869,0.21041556,-0.237125787,-0.049932867,-0.034605108,-0.03903604,-0.028564686,0.022470542,0.002796731,0.087918119,0.002154869,-0.216539788,0.090608482,0.061164915,-0.056710346,-0.166488733,0.088923782,-0.015561339,-0.170908921,-0.159128916,0.059516746,0.269380052,-0.100304101,0.159451244,0.027088425,-0.233279343,-0.06151088,-0.004127729,0.15872923,0.21563727,0.020910691,0.395818487,-0.085010723,0.001666972,0.000294694,-0.060273142,-0.015199688,-0.165250995,-0.011000187,0.095688367,0.082165643
delicacy,0.000782311,0.034504999,-0.028360915,0.165574685,0.15876491,-0.065405403,-0.103971119,-0.189729417,0.012065285,-0.194837982,-0.219826061,-0.086835732,-0.113875126,-0.039253597,0.250842344,0.091946762,0.273525159,-0.116579805,0.142909129,-0.043632366,-0.043400607,-0.023560048,0.015638075,-0.06753315,0.129269854,0.433685555,-0.100004092,-0.129469561,-0.002557487,-0.158530685,0.258411501,-0.019162294,0.042014983,-0.150431441,-0.023530955,-0.102403046,-0.110687205,-0.038373405,-0.035074535,-0.074868082,0.249116478,-0.222294049,0.091399416,0.021865987,-0.082289307,0.164245768,0.160505569,0.188329,-0.027786448,0.023978694
delight,-0.105259293,0.06353421,0.0778209,0.164646343,0.088234472,0.095272768,0.169633896,-0.180086291,-0.131197309,-0.134118134,-0.225309969,0.035915406,-0.471145637,-0.082618908,-0.031519326,0.009427708,0.181417675,-0.035360472,0.196416873,-0.169572237,-0.182879229,-0.180778245,-0.021819403,0.005885495,0.257576058,0.263011211,0.104704359,-0.000884309,0.150948841,-0.073607514,0.123631484,-0.040519301,-0.028128064,-0.027502336,0.064541312,-0.060063019,-0.038847649,-0.128698965,0.015827031,0.192737868,0.125871772,-0.201299377,-0.030343231,0.054429185,0.018170085,0.158475845,0.055390613,-0.107842133,0.1655758,0.064523042
depression,-0.026815529,0.105459273,-0.17259933,0.013485935,-0.06415938,0.174227875,0.132906854,-0.217696814,-0.136711486,-0.050925033,0.143746799,-0.217485543,-0.530606274,0.12966737,0.017762581,0.102057816,0.048292953,0.011705627,0.005183174,-0.146715152,0.038563939,0.096136955,0.030576147,0.049344024,0.060323056,0.213594642,0.062500905,0.184597743,-0.137148112,0.212327018,-0.083374447,-0.302486774,-0.06263647,-0.059875867,-0.17580008,-0.165016474,-0.078187752,0.070222848,0.056111728,0.007723527,-0.007727929,-0.166123884,-0.026840177,-0.006742351,0.073187679,-0.061451594,-0.031778629,0.128973698,-0.177273693,0.078069792
derision,-0.083575351,0.062517643,0.04494042,0.198279713,0.039205587,0.021666151,-0.078601393,-0.380539938,-0.109455357,-0.236397969,0.091736756,-0.123929961,0.054230283,-0.156547303,0.114323924,0.006138147,0.243960442,-0.141946744,0.125243498,-0.09999584,-0.072290764,-0.086276969,-0.017963058,0.0265432,-0.036467982,0.301316479,0.084428764,-0.012039807,-0.096520495,0.002792614,0.260830772,0.129425735,0.11933644,-0.126605874,-0.026201321,-0.166006821,-0.064419828,0.135510159,-0.08332087,-0.124847637,0.382185071,-0.020673159,-0.135798057,-0.092674996,-0.141658845,0.087030132,-0.039915051,0.100684739,0.155503672,-0.096949772
desolate,-0.154252138,-0.06326056,0.034714312,0.113029167,0.094808438,-0.115321041,0.011161844,-0.17221797,-0.070050484,-0.225891332,0.197584599,-0.150703358,-0.23446114,0.123058039,0.050203689,-0.144223266,0.249557185,0.176221608,-0.015601884,0.10769611,0.055437864,-0.145172537,-0.146963407,-0.12230873,-0.18265995,0.269443533,-0.151549352,-0.08731535,0.08087481,-0.00856739,0.334793807,0.146106426,0.121256182,-0.007767761,-0.190752925,-0.083302922,-0.041589934,-0.119003861,0.182095222,-0.123666715,0.153832437,0.01070281,-0.028968146,-0.016545002,0.099787716,0.272871456,0.084320312,0.062928755,-0.015018478,0.097517816
despair,-0.100341089,0.036840338,0.064545194,0.187253632,-0.09852801,0.186937134,0.116480214,-0.264275619,-0.165112354,-0.005556344,0.224611669,-0.152617475,-0.413368665,-0.067981455,-0.010114816,-0.019577872,0.093416571,0.168100997,0.10095826,-0.223714172,-0.012803012,-0.014922191,-0.018174205,0.090676605,0.192114133,0.22072779,0.023165374,0.148111903,0.052685571,0.110114088,0.167906576,-0.157161478,0.229302618,0.08664804,-0.106759212,-0.01977184,-0.130485239,0.01491473,-0.017189671,-0.033291042,0.306030715,-0.037043801,0.152027432,-0.061172233,-0.077107894,0.128945704,-0.005526051,0.025982204,0.151880487,0.0587352
despondent,-0.088681564,0.014440188,-0.039514827,0.208589311,-0.280262297,0.04110365,-0.174775405,-0.132801745,-0.05105052,-0.101354962,0.053340803,-0.153523359,0.013998986,-0.145264457,-0.030559422,-0.100348626,-0.04973435,-0.033685015,0.077730836,-0.163328945,0.037254288,0.070837677,-0.116060863,-0.143960681,-0.237693758,0.365800918,0.080727538,-0.095195488,-0.261449253,0.027096732,0.313178927,-0.020671792,0.171634941,0.012164281,-0.182479086,-0.026152361,-0.067642682,-0.170918608,0.03758395,-0.00606008,0.249130304,0.126642271,0.172730509,-0.015722152,0.032919108,0.276296438,-0.023345773,0.088185832,-0.049424518,0.035018535
detachment,-0.162394998,0.086169875,-0.159420714,0.103710888,-0.003156398,0.096199003,0.106408604,-0.205117818,-0.016205749,-0.058475512,0.237708383,-0.180458679,-0.078507987,-0.005626296,0.083544817,-0.063446716,0.167295888,0.055508259,0.109762584,-0.15809881,-0.045896328,0.066662412,0.081597117,0.091724685,-0.004441973,0.377328659,0.042990013,0.132996692,-0.15830272,-0.071755493,0.166695875,-0.2285699,0.116953368,-0.204763904,-0.090285591,-0.122055825,-0.05856692,-0.084346397,0.080523656,-0.105426551,0.260068253,-0.028493599,0.304108289,0.035724228,0.088358986,0.188104161,0.108878971,0.063357651,0.139207767,-0.219246256
deterioration,-0.099083721,0.083183587,0.068989353,0.047122171,0.051807995,0.003184345,-0.085023847,-0.226469535,-0.171211353,-0.308189552,0.153838051,-0.04334328,-0.073593602,0.120895719,0.112584558,-0.003729465,0.179906401,0.200672306,0.229454259,-0.033755693,-0.10644716,0.121174038,0.05233584,0.118446038,-0.211711467,0.323569038,0.119552114,0.066424506,-0.083965758,0.228720075,0.13135425,0.053072424,0.14327875,-0.098503091,0.005104502,-0.146779323,-0.108121868,0.088644384,0.213405369,-0.207956569,0.24962274,-0.049293533,0.061618716,-0.066369322,-0.078217045,0.079659022,-0.134907607,0.213916419,0.074615702,0.023972325
determination,-0.121399135,-0.105311691,-0.030650106,0.023340605,-0.014266429,0.406347888,0.047268224,-0.156990696,-0.257322767,0.024476467,0.005292573,0.074229049,-0.403567298,0.016845473,0.000278586,0.14022537,-0.003619311,0.16971417,-0.026050318,-0.04280474,-0.206109012,0.106416658,0.074534369,0.220757091,0.054457778,0.24325625,0.058739524,0.165961281,-0.037036377,0.009661917,0.198857668,-0.213560268,0.029099881,0.051895272,0.150144627,0.141566596,0.06844433,0.061401985,-0.00548467,0.006827895,0.282511647,-0.072727894,0.132107135,-0.104190368,-0.08284888,-0.045972433,0.047388171,0.07025444,0.118067878,-0.08934783
devastation,-0.049178299,0.121052623,0.134562952,-0.089561034,0.025278711,0.024250708,0.096388373,-0.181343879,-0.09489026,-0.131006884,0.258327004,-0.108133347,-0.267690212,0.021911857,0.053025017,0.160489285,-0.008095078,0.117500456,0.119620833,-0.215587862,-0.210360071,-0.048682829,-0.050368206,-0.009222955,-0.057977764,0.187262207,-0.159326686,0.215821942,-0.098052293,0.089873141,-0.107844648,-0.172534661,0.094498176,0.109346663,0.034686784,-0.064578825,-0.160678499,0.110407826,-0.065675101,0.003203778,0.367369363,-0.255537549,0.122400535,-0.037166083,-0.254191588,0.077800455,0.0369242,-0.033676338,0.165065552,0.170548881
disappointment,0.044450979,0.062681233,0.026319277,0.109445294,0.001139033,0.207868182,0.180163375,-0.139691206,-0.175937218,0.007300218,0.207385082,-0.215984259,-0.462964201,-0.038858616,0.066984686,0.276564974,0.160277055,0.10941824,0.081595556,-0.142556954,-0.05175738,-0.042193937,0.082697024,0.129495868,0.031101965,0.337744733,0.041813254,-0.006962048,-0.062530506,-0.028298054,0.043106029,-0.311464104,-0.034072063,0.065711235,-0.161411373,0.086871006,-0.052700391,-0.049689713,0.033378331,0.060159452,0.127012735,-0.026721216,0.203423664,-0.098322404,0.057255056,-0.029016906,-0.013051424,0.046837492,0.047160203,0.17311978
disapproval,0.006668621,0.094543131,0.082165292,0.287591052,0.029122484,0.138697786,0.01919557,-0.156680842,-0.143308933,-0.196562668,0.153604655,-0.176175885,0.028708984,-0.033808812,0.103773778,-0.003495742,0.147723772,-0.025221387,0.266978724,-0.274183641,-0.070439028,-0.177815265,0.125518009,0.080830816,-0.033040288,0.27155228,0.130768201,0.028635891,-0.155419459,0.052339024,0.054057762,-0.132860759,0.028625449,-0.217275238,-0.058324326,0.027731621,-0.031315284,0.076990282,-0.158048732,-0.147986908,0.36093502,0.049392317,-0.076079748,-0.09666075,-0.049110385,-0.248768035,0.080062292,-0.114447497,0.090867579,0.126898429
disbelief,0.113905516,0.046521729,0.23679802,0.022457125,-0.042574405,-0.001753166,0.045669372,-0.170061775,-0.130991964,0.02227093,0.307945004,-0.175624853,-0.157495716,-0.203343007,0.030864841,0.016332153,0.139318996,0.1197934,0.105584691,-0.193029901,-0.118146613,-0.059844979,0.008996297,0.152605007,-0.038149183,0.322509551,0.073898526,0.073205468,-0.071271115,0.134804813,-0.076288022,-0.13415727,0.0530675,-0.01145903,-0.036401024,0.018980667,-0.232577611,0.078665105,0.011512612,-0.035060423,0.476595839,0.090567071,0.061913807,-0.077537594,-0.057292046,0.1920079,0.150056211,0.092323505,0.124460675,-0.013295114
discomfort,-0.057917954,0.009902901,-0.063960903,-0.144631975,0.151978205,0.157685151,-0.102820066,-0.164951623,0.071307133,-0.172888402,0.147306417,-0.172990221,-0.277337569,-0.131790922,0.092152844,0.232961522,0.217400208,-0.083863093,0.131965711,-0.155465501,0.086566384,0.129377815,0.096571782,0.186226671,-0.149259642,0.186481218,-0.085368315,0.219063249,-0.06379969,-0.086335594,0.050317177,-0.188144259,-0.104411834,-0.022440874,0.056129336,-0.073516602,-0.367786645,0.062691561,0.181831491,0.005588837,0.185683637,0.039207044,0.151217958,-0.000305236,-0.091871146,0.191300644,0.06623316,0.017083506,-0.02213372,0.122082495
discontent,0.004760856,-0.153871946,-0.157913262,0.202658063,0.002278071,0.176178153,0.026342877,-0.135428216,-0.141473932,-0.348877057,0.085341446,-0.06408273,-0.121683096,0.067339009,0.06342079,0.05416757,-0.061716005,0.074267311,0.233629873,-0.097781267,0.03724514,0.008657707,-0.147247904,0.063032917,-0.042108655,0.398534147,-0.017645919,0.004263356,-0.096241386,-0.01193094,0.21743906,-0.146706739,0.085661964,-0.155783442,-0.163048521,-0.245730595,-0.167805196,0.038608504,0.083158206,-0.082440524,0.177829518,-0.201812638,0.233165354,0.065274222,0.043769311,0.185210726,0.088939146,-0.007389105,0.008189007,0.062510333
discouragement,0.001321201,-0.069390259,-0.173827318,0.125796418,-0.105804222,0.229335732,0.059328569,-0.004154438,-0.036896026,-0.177826073,0.356616273,0.107819405,-0.123721174,-4.40E-05,-0.083943832,0.230347275,0.130601246,0.131187625,0.256315476,-0.082241595,0.047910779,0.11518154,-0.057510953,0.052491172,-0.085416891,0.131363065,0.057983533,0.117463834,0.03165655,0.031138134,0.289174814,-0.179106307,0.083264202,0.065108588,-0.240668173,0.094732569,0.044537916,0.090471445,-0.027412811,-0.023989371,0.312819628,0.013725214,0.182409627,-0.169559871,0.132140688,0.075317268,-0.067667475,0.101040487,0.132550047,0.204347462
disdain,0.154520118,0.026062849,0.248645828,0.391920679,0.079503717,0.13039293,-0.05028446,-0.282637916,-0.154412206,-0.064546748,0.086668583,-0.208741095,-0.170974357,-0.095243042,0.023531427,0.07908556,-0.064566982,-0.055079772,0.177159028,-0.061426311,-0.066642028,-0.017742881,-0.003540618,0.087495904,-0.02640232,0.348014233,0.09239688,0.21830699,-0.027476938,0.110629408,0.113176567,-0.012832013,0.235179386,-0.073813639,-0.036737084,0.028612255,-0.056626502,0.015407948,-0.06057426,-0.043504027,0.279872686,-0.052979996,0.063175374,-0.070583042,-0.016757515,-0.004028692,0.234010345,-0.034394507,0.149715813,-0.17498956
disgruntled,0.100410565,0.094282929,-0.091168415,0.256222035,-0.156123441,-0.07448055,-0.06317159,-0.037038794,-0.043447204,-0.313115203,0.006839451,-0.023357292,-0.100002403,-0.213040007,0.158455427,-0.009732205,0.144663695,-0.228435791,0.195522818,0.031155535,0.084765204,-0.073768216,0.008229023,-0.218447509,-0.229813664,0.494682504,0.065597167,-0.062578845,-0.166670671,-0.031215329,0.131215132,-0.003536195,0.015877,0.019377058,-0.023071838,0.126538162,-0.104442794,-0.061689726,-0.08187427,-0.034569021,0.192223721,0.004561021,0.015024538,0.021337278,-0.006116717,0.19126181,0.125467061,0.119446015,-0.08578431,0.121645412
disgust,0.143617788,0.08723242,0.170317126,0.089226352,0.024922046,0.039422222,0.083877651,-0.176740615,-0.177731271,0.154197406,0.201902438,-0.087632048,-0.375271458,-0.197916678,0.078404854,0.104874932,-0.028956183,-0.190866403,0.081517744,-0.070612114,-0.0007008,-0.131403903,0.069678247,0.176031802,0.017589298,0.253027443,0.039699859,0.221625118,-0.169063557,0.052736135,-0.089665943,-0.063210588,0.03910883,-0.026272367,-0.198791652,-0.099471545,-0.193485017,-0.012441883,-0.033833744,-0.004672489,0.341492399,0.009949889,0.03486857,-0.080987711,-0.04359728,0.02444039,0.318503289,0.086023021,0.080089601,0.017884602
disheartened,-0.159292776,0.081786883,-0.114346722,0.174713024,-0.194372581,-0.008058682,-0.080647601,-0.090175192,-0.044395517,-0.026898164,0.085831681,-0.13674507,-0.008553123,-0.112358189,-0.00801509,0.003145008,-0.035685917,-0.088535738,-0.076576753,-0.094016795,-0.081594108,0.168938463,0.0686973,0.024645651,-0.17443515,0.282093802,0.010832381,0.20060737,-0.159900624,0.053655655,0.281051776,-0.164445595,0.092669108,0.086118238,-0.099115775,0.072073464,-0.205227018,0.047321874,0.00981519,0.135503323,0.359203725,0.062754278,0.379401662,0.103811839,0.01725734,0.169423005,-0.082778544,0.041861657,-0.238259242,0.072382599
disinterest,-0.037607625,0.025428305,0.272888626,0.251371415,-0.009198298,-0.087939728,-0.108911782,-0.168879135,-0.260787776,-0.069381649,0.159475163,-0.173405596,0.017050015,-0.07886822,0.127680489,0.071056357,0.007113276,0.004309844,0.185322662,-0.023813482,-0.110522475,-0.219921595,0.095014389,0.144813724,-0.257628339,0.381713678,0.181306254,0.109012966,-0.179697625,-0.004207007,0.07039969,-0.173000858,0.042443835,-0.195346131,-0.006847099,-0.119501058,-0.015456668,0.014695512,-0.00608078,0.047777708,0.304255847,0.035354719,0.06911733,-0.069584019,-0.1322689,0.080679218,0.084356968,0.11416925,-0.036668054,0.017420268
dislike,0.224734065,0.119812932,0.02736483,0.195670907,-0.098798372,0.112640441,0.182505375,-0.104272535,-0.04339417,0.071700963,-0.074239474,-0.107158295,-0.604433054,-0.166731482,-0.18370079,0.046844709,0.081114609,-0.123073881,0.149933803,-0.043839208,0.156004676,0.048620869,-0.041350589,-0.107321941,-0.058924589,0.175151276,0.054671785,0.216691455,-0.152055216,-0.108956407,-0.063903823,-0.08991957,0.073493088,0.058230091,-0.074121729,0.04572513,-0.079516065,-0.153041084,0.060499185,0.048924213,0.000211363,0.095050475,0.102819676,-0.174582506,-0.030529986,-0.11030549,0.095367789,0.124472856,-0.104992977,-0.089945514
dismay,-0.031143934,0.058287553,0.002085738,0.34515906,-0.205410526,-0.002237509,-0.020281753,-0.202085896,-0.110552037,-0.045400036,0.229560901,-0.177201735,-0.079029374,-0.195468912,0.066070846,0.02188231,-0.040792895,-0.076247014,0.146765764,-0.140869655,-0.047112921,0.030298252,-0.149406102,0.063865185,-0.006869182,0.236382311,0.305822978,0.056004425,0.100453337,-0.106121348,0.16293057,0.016701481,0.182803038,-0.179495622,0.016206122,-0.20461864,-0.062911909,-0.17394166,0.121489964,-0.041126434,0.357015833,0.00613389,0.06449353,-0.116121062,0.094531406,0.124203465,-0.03903267,-0.047295829,0.170466399,0.073780977
dismissive,-0.035892027,-0.067302931,0.090950029,0.255501028,-0.069176484,0.046315508,-0.031594408,-0.226593482,-0.203471975,-0.105152334,-0.04756832,-0.09662053,0.046721029,-0.33588032,-0.009154359,-0.059675054,0.117922854,-0.202778738,0.102225332,-0.186489924,-0.095111719,-0.004362638,0.054962852,0.067803602,-0.061482908,0.354253376,0.040300654,0.040486424,-0.24657503,0.011966048,0.28687795,0.125856571,0.115326612,-0.213440095,0.014234928,0.145147148,-0.184002425,0.038103137,0.070959418,-0.104962034,0.316578415,0.046163721,0.028982308,0.023737717,-0.036931883,0.044596008,0.042586525,0.120840795,-0.096489132,-0.07599785
displeasure,-0.139507357,0.254745479,0.105212801,0.209773672,-0.07181844,-0.064093826,0.014635452,-0.327898101,-0.275402566,-0.142116973,-0.0111734,-0.074208218,-0.094249384,0.013473917,0.070683247,0.052537228,0.119356273,-0.058173391,0.079800793,-0.196697167,-0.026469499,-0.022355138,-0.229691653,0.116367629,-0.019631814,0.248586255,-0.009435362,0.016555803,-0.168539093,-0.072303597,0.110200825,-0.142276165,-0.052383721,-0.267632469,0.068350323,-0.043408311,0.029871286,-0.010036881,-0.100128125,0.095551349,0.281789207,0.253229362,0.206116041,-0.081807752,0.04156623,0.075565143,0.101983473,-0.085529818,0.216709905,0.020564225
disregard,0.226084872,0.103020306,-0.031697613,0.1378395,-0.075536519,-0.013312344,0.089149793,-0.337024477,0.021887808,0.079468608,-0.068013287,-0.025907685,-0.341883444,-0.147334901,0.001976967,0.031101471,0.142330982,-0.010432488,0.138866416,-0.042105602,-0.053936574,-0.131190065,0.046019316,-0.068243986,-0.096019719,0.195281471,0.255769484,0.071775924,-0.065638926,0.071577891,0.011634163,0.009649337,0.177705486,-0.03250608,0.012685783,0.093865849,-0.086948967,-0.014371517,0.007784963,-0.10960441,0.362095113,-0.192590665,0.313362533,-0.285597008,-0.056429347,-0.132423181,0.054889993,0.029186467,0.032896023,0.090625857
dissatisfaction,-0.075455425,0.005313592,-0.108076083,0.160098207,0.041475656,0.057961067,-0.039054182,-0.146099555,-0.17785964,-0.213085756,-0.078547552,-0.189229094,-0.077388252,0.039420173,0.101367571,0.120306109,0.125661444,-0.023152378,0.344070883,-0.118250626,0.104515092,-0.063852529,-0.040306464,0.169382503,-0.152814002,0.337344566,0.157724213,-0.068677672,-0.179046637,0.169418113,0.141246716,-0.23720158,-0.085871324,-0.277599047,-0.156839901,-0.074569134,0.030329753,0.160667966,0.066645929,-0.043165148,0.126003695,-0.09388949,0.273464341,-0.099642469,-0.023755768,0.048856799,0.067277015,0.036047123,0.050277239,0.107856488
distaste,-0.142248914,0.025786261,-0.027576504,0.28267831,-0.00052113,0.143296037,-0.049061677,-0.248967689,-0.194715431,-0.076631426,0.011444722,-0.247684118,-0.105883328,-0.013452947,0.114550808,-0.019171818,0.074311991,-0.02414239,0.140427144,-0.098362054,-0.127114038,0.077297982,0.010690793,-0.003915792,-0.087685897,0.294275484,0.345685871,0.156442504,-0.020205205,-0.054301799,0.127125298,0.005272323,0.21227558,-0.267433092,-0.048881527,0.004851897,0.011152428,0.114710692,0.040551828,0.221172752,0.247886787,0.003213656,0.165294639,-0.122761157,-0.112195343,-0.076482802,0.13279778,0.066148931,0.133043235,-0.151504135
distress,-0.239456456,-0.038952256,-0.201655855,0.101200844,-0.10883467,-0.011116869,0.048615189,-0.201511075,-0.096094078,-0.160404676,0.047244171,-0.086475018,-0.384455281,-0.045859991,0.013953011,0.028765047,-0.011897801,0.07991607,0.159189406,-0.354972918,-0.134489152,0.10035191,0.034543064,0.063968392,0.009762304,0.204533895,-0.004697874,0.116029771,-0.019195782,0.194478303,0.093575792,-0.205417927,0.031963357,0.135542094,-0.161512458,-0.089355252,-0.170927511,0.188294465,0.131931382,-0.088734455,0.299276698,-0.057095755,0.113158312,-0.051151023,-0.087282273,0.1646998,0.084864895,-0.04460743,0.087595962,-0.023362141
distrust,0.020127691,0.12595648,-0.03046267,0.314885812,0.045081907,0.129717437,-0.17121943,-0.230226574,-0.172182838,-0.086545105,0.054690127,-0.193035133,-0.158725295,-0.067108826,0.080728015,-0.027507787,0.094717911,-0.107317654,0.496769548,-0.052884005,0.069656363,-0.03058121,-0.043454673,-0.009706285,-0.060942582,0.248503314,0.098646979,0.123714993,-0.022800664,0.000365556,0.15942576,-0.099228904,0.175894223,0.045396577,-0.214596513,-0.081471585,-0.082822943,0.119766528,0.005228268,-0.134678882,0.274452836,-0.02366924,0.087297296,-0.176234757,0.008518297,-0.030764409,0.069494717,0.05639495,-0.012182913,0.123230056
disturbance,-0.159229396,0.176073947,-0.024935594,0.069183697,-0.029177609,-0.017376094,0.198206981,-0.067200797,0.005618593,-0.288160609,-0.042002463,-0.131255451,-0.136631515,-0.024740223,0.224312554,-0.070364904,0.215381641,-0.097366488,-0.031888097,-0.282815984,-0.023071712,-0.169137163,0.115324876,0.019677875,0.071173335,0.215451256,0.040677535,0.097945863,-0.184708435,0.165047851,-0.029640211,-0.109427824,-0.015300673,0.078669284,-0.034400969,-0.05303305,-0.317309025,-0.094959161,-0.044611897,-0.290002034,-0.014465968,0.052552483,0.170987571,-0.092356463,-0.190023867,0.307989616,0.034605323,-0.1132005,0.02200391,-0.087281315
dizziness,-0.238804701,-0.015794546,-0.155255751,-0.098673684,-0.124668434,0.091208312,0.016476129,-0.1947492,-0.123125228,-0.260339845,0.209248369,-0.258007598,-0.089442779,-0.000507536,0.057281741,-0.068648723,0.268361033,-0.02910732,0.01315017,-0.064673004,-0.160964308,0.087302343,0.009545431,0.212317345,-0.015298017,0.192342844,-0.031348021,0.118499967,-0.097570771,0.138487545,-0.06555795,-0.141329836,0.070654019,-0.047806713,-0.256416438,0.100192914,-0.292097645,0.039927204,0.152622709,0.19601123,0.309665789,-0.09466309,0.054027493,-0.063879604,-0.127188133,-0.075141961,-0.070858908,0.060878197,0.030707198,0.036742706
doubt,0.041116191,0.098988645,0.091180635,0.061820393,0.012667939,0.147379507,0.173357845,0.023536419,0.01387439,0.168337096,0.061387182,0.009699424,-0.782762695,-0.024137192,-0.055929136,0.141988894,0.078468354,0.131681749,0.019127683,-0.138927811,0.041620923,0.06002829,0.09775236,0.103843875,-0.016730107,0.165964655,0.144179469,0.034023388,0.024666445,-0.078825957,0.07131016,-0.004444088,0.009417633,0.10862554,0.062464079,0.135129044,-0.013069476,-0.046872581,-0.001823184,0.024131062,0.114242975,-0.006890911,0.230889043,0.00896174,-0.054087991,-0.072086669,0.100840008,0.029100725,0.002341381,0.041653618
dread,-0.092896056,-0.067202312,0.038853173,0.047147941,0.018455257,0.086073242,0.283170815,-0.09387914,0.000333874,-0.14157205,-0.230517072,0.06122901,-0.508131328,0.100600439,-0.206599824,-0.135855206,-0.029823764,-0.002007948,-0.05210343,-0.048334052,-0.132526613,0.320116592,-0.002258661,-0.045082931,0.177991557,-0.01392025,0.053930683,0.157833001,-0.20182332,0.114339567,0.071228146,0.069392878,0.131898829,-0.040830026,-0.213160838,0.078083017,-0.174540079,-0.009011243,-0.087782953,0.230185816,-0.022072364,0.047612768,0.086319013,0.035233395,-0.099844427,-0.010662984,-0.004442309,0.197709329,0.074944095,-0.022043779
dreary,-0.111382343,-0.293515798,-0.001335868,0.052485777,0.015764364,0.03240704,0.177087155,-0.195499762,-0.115387089,-0.143991661,-0.011245406,-0.267840706,-0.210528651,0.084598272,-0.075339625,-0.056337928,0.073238774,0.108060728,-0.048321338,0.107448571,-0.06604549,-0.072376432,-0.104517317,-0.046816675,0.045798188,0.339436417,0.063726393,0.05980859,-0.221866856,0.125822142,0.060387034,0.208488129,0.282088874,-0.015513114,-0.187302186,0.019124128,-0.230259612,0.010272875,0.084321471,0.113476096,0.056919921,0.011825802,0.2455724,0.078034889,0.026152396,0.265356593,0.070071529,0.066272609,-0.094495692,0.152728644
dubious,0.052323107,0.059618354,0.118434765,0.232381082,0.198130845,0.055200379,-0.004862445,-0.240383497,0.016930709,-0.155576856,0.068177268,-0.097348536,-0.148592666,-0.056604994,0.172361757,-0.069948832,0.250594899,-0.062643864,0.094517436,-0.068383829,-0.007956971,-0.044979257,0.105377682,-0.0640582,-0.146242731,0.406706384,0.060959785,0.053727721,-0.161511231,-0.125657109,0.293656784,0.065222231,0.073905082,-0.067010806,0.154393384,0.197435828,-0.191669132,0.009492813,-0.011962796,-0.158876972,0.296548638,-0.060269628,0.200381144,-0.116852751,0.091632873,0.015583445,0.063421506,-0.042153017,-0.029217441,-0.089569693
dullness,-0.105689006,-0.172997232,-0.064755745,0.077522128,-0.146472941,0.037500752,-0.057856881,-0.353902772,-0.118184611,-0.174940462,0.011603232,-0.032154879,-0.146624258,-0.016798983,0.044065126,-0.00033686,0.237906285,0.048407528,0.197622095,-0.04491728,-0.085788819,-0.015300347,-0.30169838,0.020268524,0.191284697,0.186412685,0.01277375,0.03745695,-0.299926377,0.061590033,0.183651149,0.077729194,0.196913294,-0.221400778,-0.135285432,-0.123574287,-0.135546255,0.107805454,-0.00547728,0.104201718,0.207224757,-0.067208675,-0.075720261,-0.002104303,-0.106357987,0.19625825,-0.01968018,0.068602385,0.22735391,-0.016008152
eagerness,-0.202483742,-0.008941266,-0.131123154,0.139711856,0.074961369,0.273613141,-0.047601982,-0.149602926,-0.0110108,-0.278525924,0.007939829,0.094647182,-0.125274052,-0.12077741,0.036171572,0.202522274,0.172244115,0.181033181,0.14830441,0.05287311,-0.06163713,-0.010173893,-0.369942229,0.270684737,-0.212733157,0.140790741,0.026843064,0.028185891,-0.217067966,-0.08932789,0.320101559,-0.06308014,0.08069873,-0.042244158,0.030147151,0.152303994,0.037473942,-0.173771895,0.046349704,0.005218725,0.081771836,0.058234787,-0.063713985,-0.11745213,0.06980969,-0.138650309,0.002571409,0.004086087,0.054352724,-0.084690607
easygoing,0.028385458,-0.026998001,-0.130797511,0.136554424,-0.035721851,0.279938828,0.127007888,-0.289031662,-0.119658318,-0.014647371,-0.267174973,-0.185770569,-0.154175321,-0.19874339,0.081071188,0.004599506,0.077786096,-0.219112846,0.229335225,-0.140948353,0.048099778,-0.153162496,-0.208909292,-0.083349103,-0.124622667,0.133724914,-0.021992235,0.093616665,-0.288391587,0.027941171,0.182863874,0.091613605,0.18353407,0.012651089,0.102272742,-0.05305848,-0.104503593,-0.004296412,0.107466765,0.148085192,0.177050484,0.038696319,0.191006008,0.026192259,0.020636782,0.108656552,0.218058604,-0.01907801,0.00590959,0.007051559
ecstasy,-0.266946705,0.082001645,-0.077136148,0.197986839,-0.065508595,0.179585522,0.155960469,-0.279684097,-0.017429388,-0.0473063,-0.037659598,0.095827803,-0.384954897,0.144578766,0.033140634,-0.144515548,0.041412914,0.005579633,0.051228199,0.034681296,-0.034545493,0.138601089,0.224262393,-0.022735074,0.200796558,0.128076351,0.071207641,0.136156634,0.03091159,0.117319811,0.145690947,-0.084893314,-0.100618373,-0.03985352,-0.216582495,-0.102449374,-0.098408061,0.142035971,-0.112754017,-0.039610011,0.271699813,-0.266946705,-0.167328123,-0.099274391,0.01126229,0.044229658,-0.090667286,0.10724931,-0.091013818,0.083692159
elated,-0.103518663,0.050988471,0.131262354,0.033029244,-0.246505378,0.019126807,-0.087346375,-0.12204602,0.021927398,-0.191391894,-0.113310411,-0.054987233,-0.027818956,-0.145237385,-0.020363826,0.01056358,0.148330539,-0.097822793,0.005487312,-0.01142403,0.091408263,-0.010080912,-0.082835325,0.083835622,-0.168460314,0.487645083,0.045513541,-0.075930358,-0.067937688,-0.011829976,0.135911795,-0.108117118,0.041228286,0.043583355,-0.027634435,0.04219702,-0.128368289,-0.166928305,0.011490312,0.166670947,0.441587691,0.042952099,0.305406398,0.059136526,0.028578891,0.126799861,0.054304992,-0.044061653,-0.221094906,0.060403894
embarrassment,0.154720294,0.053729919,0.172070513,0.013978563,0.0091875,-0.035832863,0.175859616,-0.098286332,0.032254744,0.02911151,0.228917831,-0.179868316,-0.383948142,-0.172012384,0.088757598,0.190432595,0.206930265,0.102714847,0.029626053,-0.073728205,-0.031318233,-0.098637255,0.075377326,0.06056107,0.045945034,0.474994272,0.064072449,-0.071121043,-0.126711068,-0.007942693,-0.07970896,-0.176729388,0.038702679,0.057385543,-0.05190426,-0.040924471,-0.090630621,-0.037847978,-0.03312021,-0.164091866,0.277379604,-0.021966036,0.051884884,-0.064996043,0.084895296,0.069170516,0.175939273,0.170671128,0.137107421,0.035223593
embittered,-0.174924294,0.032476387,-0.055113816,0.162381934,-0.017058462,0.04708424,-0.120740068,0.002371879,0.005757533,-0.174540126,-0.059126232,0.040377907,0.099997392,-0.177627695,0.010602313,0.00782611,0.245155814,-0.055941436,0.220275036,0.0112867,-0.106127473,0.032979125,-0.257819115,-0.148162992,-0.272308398,0.246080662,-0.120898953,-0.079015203,-0.320305628,-0.065488711,0.081436408,0.094154251,0.314566829,-0.061516608,0.044065441,-0.038430984,0.046536445,-0.068253769,0.037510879,-0.131840614,0.397233995,0.13711936,0.00472123,-0.06040442,-0.083843383,0.077765473,0.079370914,0.115200467,0.060655788,0.074405193
empathy,-0.078582538,0.08740109,-0.085604484,0.109597188,0.028482111,0.273054602,0.094361884,-0.245831381,-0.227717712,-0.019590387,0.073616567,-0.0864817,-0.351624488,0.002719792,0.011146127,-0.043787001,-0.028931262,-0.034040624,0.152180126,-0.123906776,-0.18598036,0.132451198,0.02361314,0.067868271,-0.051635555,0.195935497,0.081629599,0.289628926,0.098680487,-0.047728148,0.093183125,-0.348587971,0.191916329,-0.11043223,0.039919659,0.024393356,-0.116526352,0.108369929,0.029361436,-0.062623952,0.307594987,-0.027824199,0.109226058,-0.129292377,-0.166894583,-0.03190241,0.010061416,0.062758909,0.048723451,-0.138016038
emptiness,-0.222328553,-0.100864794,0.048173843,0.182985684,-0.075045351,0.088959317,-0.04360493,-0.265726257,-0.024346949,-0.027270018,0.283958075,-0.148813479,-0.361308805,-0.020451517,-0.146450316,0.079990856,0.159296276,0.225755736,0.111395412,-0.189945656,-0.158792161,0.138318726,-0.155044178,0.161675379,0.005977845,0.256819566,-0.078376892,0.030683253,-0.001738857,0.08970453,0.032980661,-0.076854585,0.240699849,0.010625264,-0.176609529,-0.084910458,-0.074947716,-0.010629847,0.050726298,0.086149823,0.234841757,0.130197099,0.017511512,-0.042094578,-0.056175918,0.175764689,0.117169817,0.045723009,0.091276651,0.059848184
enamored,-0.002697059,-0.081876396,-0.085664529,0.166396133,-0.10859313,0.049343987,-0.268624938,-0.033921227,-0.12629401,-0.095070168,-0.090400923,0.029635217,-0.021071384,-0.039273418,-0.100084981,0.162350872,-0.058500688,-0.147245838,0.150785031,0.016056735,0.163005975,-0.01101015,-0.198528929,0.086743811,-0.063381204,0.265562332,-0.115042618,0.186884476,-0.049311232,0.003838248,0.328927159,0.012897993,0.223275441,-0.17153869,-0.013544088,-0.071681358,0.005126508,-0.058808586,0.01602398,0.074775081,0.271965963,0.010365857,0.226419935,0.080942875,0.153348121,0.211483589,-0.007439348,0.176828646,-0.329221955,0.096519584
enchantment,-0.207871006,-0.012837624,-0.071294202,0.285423604,0.177906893,0.029990939,0.027987072,-0.255631174,0.041834409,-0.285182174,0.06913743,0.007871951,-0.089068796,-0.069494209,0.077158262,0.030543545,0.246609749,0.132263259,0.134851923,-0.023107509,-0.047298769,-0.044170912,0.044779852,-0.080565104,0.198954201,0.337465125,-0.082107572,0.032539364,0.021469005,-0.071082281,0.298487635,0.022813233,0.177686923,-0.046676416,-0.001693817,-0.048379837,0.096314371,0.019493842,0.06276905,-0.130492774,0.237143021,-0.021849928,-0.199372679,0.068340712,0.070687945,0.192330978,0.026513009,0.037394784,0.183907763,0.227928452
encouragement,0.089688247,0.061785654,-0.183430201,0.096596647,0.110094403,0.157971508,0.117401084,-0.30684303,-0.194506994,-0.151430111,-0.039371412,-0.042161463,-0.432457873,-0.215947429,-0.115376316,0.279901733,-0.054758396,-0.025364856,-0.059596152,-0.066856957,-0.187830056,0.143687616,-0.125719105,0.120053509,0.038645748,0.241658436,0.120708274,0.112146279,0.082562983,-0.008165173,0.115061445,-0.197148993,0.013535083,0.049545297,0.073465082,0.084302073,-0.010389707,0.116348038,0.017388814,0.037943023,0.299336167,-0.086768912,0.027548102,0.02635326,-0.103865792,0.024305555,-0.03991983,-0.104948032,0.092096699,-0.073000073
enjoyment,-0.030355482,0.078005213,0.046216089,0.146259146,0.165847223,0.156651793,0.201348725,-0.437562616,-0.229998927,-0.026643104,-0.063668794,-0.099653207,-0.30199542,0.069873697,-0.100068209,-0.006982088,0.185588724,0.095903101,0.027241712,-0.036859689,-0.047121547,0.007421487,0.057222435,0.230703173,-0.075817023,0.366760825,0.164260156,0.016688598,-0.075874872,-0.079511795,0.060831692,-0.07421235,0.007856106,0.044367446,-0.062142091,-0.104970258,-0.059232049,-0.017470814,-0.081471106,-0.080779436,0.303127243,-0.002443102,0.179419033,-0.096051496,0.099746268,0.182751622,0.073045315,-0.005854793,0.037538783,0.032126156
enmity,0.051725177,0.004346248,0.0973945,0.263943465,0.001507978,0.438575549,0.04165071,-0.085462372,-0.114975433,-0.206098582,-0.090426776,-0.081675218,-0.018809264,-0.143676392,0.007686446,0.030245351,0.083145783,-0.03635907,0.247222523,-0.097747675,0.103514205,0.118501198,-0.014998366,0.015603752,0.159970332,0.175655693,-0.014449648,-0.069834875,0.011165519,0.055679939,0.293055463,-0.013481509,0.134174587,-0.149119677,-0.002781303,-0.269350834,-0.072536565,0.021673374,0.093607346,-0.025741871,0.277831026,-0.016643124,0.186969266,-0.245466624,0.059199718,0.105096509,-0.105940538,-0.025598206,0.198743762,-0.052309812
enraged,-0.078867233,0.155422307,-0.056260225,0.159185097,-0.271172331,0.093515569,-0.060993982,-0.092931126,-0.051831496,-0.099979371,-0.020482988,0.024602497,-0.048126918,-0.152774849,-0.003334586,-0.027813442,0.097059483,-0.042003071,0.147826874,-0.101818853,0.037490518,0.038608178,-0.200540856,-0.211875795,-0.117822352,0.360166032,-0.006759516,-0.011164495,-0.173200091,0.024819044,0.108843814,-0.035709247,0.115414725,-0.034577616,-0.144173522,0.014303025,-0.059645805,-0.191562319,-0.058425692,-0.119645535,0.49079258,0.071418493,0.183203151,0.05900315,0.132186615,0.211498584,0.034607886,0.030118617,-0.157967313,0.147112037
entertainment,-0.038289692,0.196789396,-0.055219849,-0.007833303,0.159529156,0.048672624,0.192974743,0.002453841,-0.032679288,-0.13975485,-0.051563087,0.021549004,-0.551419564,0.089341211,0.132887631,-0.138874869,0.004074438,0.091736949,0.083383446,0.021189012,-0.17216888,-0.319866715,-0.017164258,0.020300821,-0.077356209,0.222205685,0.069762691,-0.014542631,-0.093050604,-0.120892103,0.019725254,-0.192164234,-0.170722596,-0.041085421,0.185522274,-0.093235863,0.097945234,-0.055834573,0.097193672,-0.097642083,-0.208178622,0.087299151,0.000458053,0.013988537,-0.100404128,0.118327948,0.080975078,-0.164061689,-0.185469643,-0.025462603
enthusiasm,-0.096682023,-0.064636256,-0.002588236,0.055920694,-0.016291316,0.319261065,0.134941201,-0.195778686,-0.275969007,-0.122189332,0.138686392,0.003409785,-0.371090087,-0.037816255,0.018631301,0.071653356,0.101155893,0.098023291,0.271021854,-0.060451715,-0.08859691,0.051786159,0.161961231,0.292650023,-0.090666856,0.254626594,0.055743882,0.101941722,-0.004659969,0.018817043,0.160853926,-0.139668679,0.013245869,0.001434871,0.038807472,0.20145809,0.072003407,0.201297352,-0.068554688,0.05337925,0.245839592,-0.049823372,0.087746785,-0.101041591,-0.004237764,0.09855194,-0.101816704,0.001061709,-0.083585461,0.120633747
envy,-0.003408814,0.17861999,-0.103031879,0.196589224,-0.05567603,0.078372018,0.229398951,0.039145007,0.012555966,0.239365505,0.051329855,0.106255239,-0.446224065,0.005868492,0.170547922,-0.040705172,0.193725417,-0.110281811,0.062825035,-0.008654501,0.11299633,-0.021041204,-0.171834743,0.273533543,0.022723322,0.274458709,-0.122859855,0.238839843,-0.011354302,0.112834426,-0.087243092,-0.033484677,-0.006402354,-0.035526349,0.000943711,-0.179309659,-0.031888767,-0.031876151,-0.020570841,0.123101659,-0.294560028,-0.028082973,0.041584079,0.033127227,-0.019846899,-0.108195984,-0.111902953,1.75E-05,0.216362531,-0.020477904
evaluation,0.135807828,0.109902495,-0.071319183,-0.055640751,0.279071197,0.016896408,0.111085772,-0.226646648,0.021897758,-0.107549284,0.049975697,-0.091299231,-0.323132729,0.139148587,0.1187882,0.102949625,0.080060315,0.143761591,-0.083374383,-0.078005148,-0.322776856,0.117188995,0.075391706,-0.023016089,-0.13053201,0.247754369,0.159402212,0.063403232,0.003010464,0.225467819,0.128903891,-0.189789322,-0.026681582,-0.220841469,0.014426871,-0.082317885,-0.020279871,0.232006986,0.107277931,-0.129346508,0.20441348,0.093899328,0.126383865,0.128559139,0.073105221,-0.086946459,-0.050763066,0.020171329,-0.080456224,-0.167542808
exacerbated,-0.397850767,0.043286553,0.040950072,0.227060507,0.003024282,0.095943367,-0.054826172,-0.081844977,0.026327596,0.027916078,-0.029371511,-0.13003814,0.074035614,-0.01327397,-0.016777231,0.033786487,0.250620022,0.050025028,0.162213428,-0.070339431,0.195453113,0.081160258,-0.085987363,0.105712778,-0.209682931,0.168113042,-0.100754246,0.047587949,-0.162163129,0.117627208,0.204068886,-0.138978424,-0.013645859,-0.138111979,-0.021932091,-0.142069393,0.052212234,0.266147884,-0.0058756,-0.160770976,0.301941473,-0.009173446,0.295645955,-0.092698255,0.071360019,0.075411542,-0.130528152,-0.031972469,-0.025251841,0.198990286
excitement,-0.044047189,0.095571957,0.130208852,0.000434296,-0.059795306,0.214995014,0.247882335,-0.29937593,-0.07551225,-0.016057702,0.16074847,-0.132620848,-0.555869756,0.071157797,-0.097317635,0.177003145,0.081485741,0.022606136,-0.083533405,-0.083015157,0.00068247,0.047974964,0.075557061,0.240829486,-0.097726778,0.200616553,-0.067960635,0.058246406,-0.084160758,-0.006704493,-0.036813147,-0.211527039,-0.020488333,0.020558472,0.047858066,-0.025253877,-0.040074603,-0.046755327,0.0294135,0.131670078,0.1553244,-0.069006873,0.074039334,0.053274342,-0.006430367,0.200577587,0.012223446,-0.037689883,-0.043719874,0.249129248
exhilaration,-0.105903198,-0.116475137,0.086069083,0.145603561,0.065151424,0.120368438,-0.131863253,-0.081233625,-0.232466985,0.038549982,0.055481795,-0.007376193,-0.073290211,-0.185037859,0.121315736,0.03854227,0.064950911,0.078680936,0.233096803,-0.135025195,-0.106355638,0.074759357,0.14296861,-0.029535878,-0.167338697,0.168996789,-0.117919862,0.11509725,-0.030526877,-0.067836504,0.344793038,0.036742791,0.120799028,0.047941978,-0.023913791,0.057818547,-0.183623983,0.058501064,-0.164189609,-0.097188578,0.252531177,-0.21276269,0.382312176,0.088107635,0.117878731,0.104980322,-0.197274317,0.099890367,0.074171955,0.148726943
expectation,-0.04002745,0.122477119,0.129573837,0.234670194,-0.02324271,0.218007222,0.426913897,-0.114773699,-0.21653319,-0.045987667,0.107529579,-0.093013566,-0.284253218,0.074494168,-0.005626103,0.13786687,0.057841877,0.060347732,0.134564183,-0.055263389,0.013825781,-0.101733855,0.09957835,0.261971834,0.132156597,0.232619367,0.154527706,0.037735224,-0.037166973,-0.012697826,0.196757659,-0.29209336,0.076051515,-0.095630507,-0.143446829,-0.101674039,-0.051003649,0.118853991,0.053509504,-0.069202606,0.040542294,-0.079871181,0.048459342,-0.119892222,0.08084746,-0.118943715,-0.093870214,0.039493381,-0.002003573,0.166493002
eye-opener,0.067083451,0.134107113,-0.222595087,0.136763745,0.151420064,0.034008081,-0.044387481,-0.11440658,-0.061509107,-0.059910743,-0.087788441,-0.091007092,0.06727079,-0.019971576,0.102341126,0.030380871,0.011550471,0.076376681,-0.042633666,-0.127562191,-0.205575103,0.048050564,-0.212391068,-0.102315217,0.022753766,0.451049513,0.137921662,-0.120208123,-0.096976044,-0.034611952,0.040556988,0.181107381,0.167684711,-0.128704164,-0.076589929,-0.007401501,0.004969277,0.031393301,-0.062635136,-0.023128445,0.167882016,-0.217891672,0.412405778,0.081127927,-0.061154358,0.280909459,0.056600416,-0.04747061,-0.063954484,0.1521754
failure,0.092119704,0.089151088,-0.042864182,0.026494944,0.06234094,0.197296333,0.100936512,-0.042271171,-0.03690558,-0.016258828,0.183334755,-0.092534634,-0.579298648,-0.031561359,0.044605818,0.184492284,0.071001036,0.219503078,0.11796109,-0.121912715,-0.065927498,0.057552332,0.034773946,0.171216319,0.12109176,0.282134291,0.000364034,0.015710515,0.064821613,0.046107044,0.122190522,-0.297093125,0.030455473,-0.030720815,0.011143085,0.216938707,-0.035179972,0.0264433,0.009379367,-0.128357479,0.156492552,0.06192601,0.081459754,-0.093036823,0.080848935,-0.140979886,-0.11428371,0.155726803,0.033589705,0.09791091
fairness,0.096722186,-0.035206556,0.056390699,0.060897063,0.005801355,0.164042464,-0.010200235,-0.097886408,0.106534581,0.069072492,-0.001909842,-0.26857082,-0.415333401,0.030940092,0.111466651,0.121998748,0.002361137,0.111551321,0.124157851,0.059424734,-0.115817785,-0.034178747,-0.099203508,0.180522679,-0.027809628,0.210637231,0.229688143,0.014237617,-0.045009544,-0.287833408,0.190706685,-0.054048143,0.002138594,-0.123090059,0.124682339,-0.002667598,-0.128182062,0.281600703,-0.125444375,-0.154799244,0.269370487,-0.081236852,0.198947968,-0.08535279,-0.1630076,-0.153331618,-0.016857235,0.056084944,-0.003439513,0.02251418
fear,-9.18E-05,0.109510368,0.011876436,0.138331433,-0.09387499,0.170616473,0.118672969,-0.011429148,-0.104551848,0.086964959,0.163564872,-0.057523856,-0.722453035,0.047997475,-0.065048549,0.02437327,0.065496555,0.130903508,0.219271619,-0.213107069,-0.026819378,0.028475205,-0.016987099,0.135433736,0.071910196,0.166512746,-0.041997791,0.074702163,-0.006996765,0.076522856,0.051208776,-0.206494514,0.028202817,0.097269077,-0.036059035,0.033672064,-0.102005387,-0.078825602,-0.016640702,-0.109578465,0.0516299,-0.049427507,0.076788075,-0.118352197,0.054373484,0.03052886,0.059658152,0.11056766,0.149922221,0.061032632
