abnormality,-0.009557001,0.007071449,-0.007886718,-0.007713131,0.01779476,0.000656941,0.014547906,0.005740052,0.01171498,0.016293168,0.002952247,-0.00384199,0.003077101,0.017897021,0.013484051,-0.019262128,-0.005030353,-0.000695293,0.00041012,-0.011460988,0.01308288,0.018976003,-0.012737007,0.004194644,0.013422268
acceptance,0.006723858,0.00711266,0.014563342,0.000532588,0.004586459,-0.009768291,0.007496842,-0.002022177,-0.008688391,-0.007436308,-0.018112358,0.016347889,0.01694471,0.004594117,0.019754628,0.008031658,0.010891921,0.004341275,-0.004209603,0.013252521,0.014151713,-0.012949888,-0.018646432,0.016629374,0.012799961
acknowledgment,-0.014794702,0.015208858,-0.016192134,-0.009969519,0.016177054,-0.007955741,-0.001433608,-0.006679509,0.004010622,0.014772806,-0.000887338,-0.000874195,-0.012451525,0.011104943,0.012182955,-0.005471733,0.017430997,-0.015546984,0.015595515,0.00901833,-0.009059398,-0.017034868,0.004574454,-0.005191726,-0.015258887
admiration,0.014660336,-0.009194554,-0.005017417,0.009115342,0.004968141,-0.009006493,-0.013650597,-0.007637539,-0.003273893,0.01738259,0.01861257,0.003575819,-0.008707949,0.009447395,-0.018872296,0.014785001,-0.003759641,0.010609999,0.000648369,-0.015443436,-0.017308367,-0.019378241,0.005755799,-0.014600574,0.011375901
aggravation,-0.001165322,0.005238727,0.012086485,-0.011704709,-0.006465285,0.008648461,-0.016680587,-0.019208636,-0.000153102,-0.016462088,0.004802881,-0.008289282,0.005961786,-0.002134455,0.012331585,-0.001662131,-0.013422763,0.007111825,-0.010721575,0.002774447,-0.019104818,0.000969673,-0.019632224,0.008796994,-0.014118678
aghast,0.009455115,-0.008653764,-0.01608851,-5.39E-05,0.015485993,-0.005020324,-0.010366214,-0.013313801,0.003271973,-0.010062385,-0.003737703,-0.006984041,-0.014266614,-0.007822841,0.000651088,-0.010096026,0.015819957,-0.001958934,-0.011370893,0.005252114,-0.00361857,-0.007504928,-0.002957992,-0.007085255,-0.000454453
agitation,0.01836658,-0.008308269,0.003951089,-0.003061602,0.007655177,0.019361384,0.009663635,0.015436016,0.007085029,0.013001506,0.010292747,0.011846352,0.002535446,-0.007670668,-0.009941884,0.005423111,0.012480038,0.007992112,0.006891658,-0.010967554,0.008460403,0.013924295,0.010703952,0.019323776,-0.019046403
agony,-0.005764874,-0.01055501,0.002957183,-0.009075299,0.010327039,-0.017203394,0.012019266,0.010053852,0.010071134,-0.015980763,0.007834495,0.010135653,0.007325162,0.019501293,0.003308923,0.010362171,-0.004613888,-0.000227516,-0.00384486,-0.008494589,0.002978774,-0.018502625,-0.002911511,-0.003851165,-0.013357895
agreement,-8.49E-05,0.020345833,0.020256622,0.000824252,-0.005524836,-0.024257813,0.030084694,-0.009195939,-0.008027,-0.008619228,0.042746104,-0.00468623,0.014212059,0.007002086,0.012015821,-0.012223424,0.001620902,0.004096899,-0.007023688,-0.003907274,0.003358324,0.024523463,-0.031020975,0.018871449,0.003767959
alarm,-0.01857112,0.035029024,0.015188844,-0.019374222,-0.029739201,-0.016624559,0.046539057,-0.032346904,0.000450776,-0.02262536,0.043449398,-0.005423467,0.023526488,0.010093724,-0.012046718,-0.009105057,0.005895595,-0.017396763,-0.030669302,-0.001145596,-0.025310855,0.012598323,2.92E-06,0.007193441,-0.007678295
alertness,0.017656073,0.012910594,-0.016954748,-0.012605362,-0.012254288,-0.011131475,-0.004829766,0.002490118,0.014061461,-0.000708429,-0.007208691,-0.006528364,0.006314332,-0.007819642,-0.015843892,0.008152466,-0.0168082,0.010051993,0.004080022,0.013886388,0.002930574,0.004855431,-0.008273125,0.018080417,0.003446658
amazement,0.013006026,0.004383388,0.010417195,-0.013840553,-0.009789572,-0.010482352,0.009158096,0.014869314,0.019107182,0.005814089,-0.014744207,0.008475196,-0.000875612,-0.00156892,0.019542864,-0.002646332,0.018937234,-0.009665323,-0.005543642,0.000904738,0.001225526,0.004589124,-0.009777382,-0.005819468,0.014362449
ambivalence,0.0124341,-0.01516547,-0.019620141,0.015848946,0.00687195,-0.007836211,0.010061828,-0.009448479,-0.005676155,-0.002959484,0.015537965,-0.003504419,0.000720297,-0.00639903,0.013131834,0.013117191,-0.003206368,-0.013973006,-0.012517072,-0.010106516,-0.003529348,0.01911433,0.010558357,0.01662747,0.003775821
ambush,-0.000405471,-0.01929827,0.008291438,-0.019251563,-0.002683631,-0.008092124,0.008440767,-0.010300272,0.009230077,-0.015281904,0.010323293,0.009922141,0.002473417,-0.009341595,0.009401014,-0.002464428,-0.006802525,0.015637303,-0.010151927,-0.010587615,-0.017429106,0.01524237,0.006203974,-0.015452934,2.31E-05
amiss,0.01833134,0.003312667,0.00305873,0.006968955,-0.013025504,-0.018658599,-0.010196615,-0.013362206,-0.018057218,0.004209247,-0.01630685,-0.00690737,-0.009757979,-0.011597123,0.000359421,0.000803855,0.001450273,0.01719607,0.003601847,0.019638207,-0.006604004,0.0007121,-0.00192615,-0.004934167,0.013321765
amusement,-0.012547304,0.003602504,0.013848129,0.011290851,-0.006527815,-0.00751097,-0.0002139,0.016340224,0.01715594,-0.016884662,0.015288206,-0.018745685,-0.019858025,-0.004337012,0.013484746,-0.011631074,-0.01173857,-0.003178651,-0.012751818,-0.01754038,0.014270533,-0.014085368,0.007865462,-0.017955355,0.019524843
anger,-0.014958807,0.019726029,0.003940561,0.017451592,-0.010580405,0.003319133,0.008875341,-0.011450789,0.008425389,-0.01829518,0.020350592,0.006600841,0.000410909,0.003515182,-0.000677438,0.007824643,-0.011462265,0.000640213,0.006819891,0.005336884,0.003224219,0.014726218,-0.025139477,-0.018958965,0.002296448
anguish,-0.011165372,-0.00547563,0.013857775,0.017439391,0.000493394,-0.006585864,0.005883921,0.012786311,-0.009170396,-0.014827513,-0.013322766,-0.002618098,-0.019180806,-0.004659904,0.017426636,0.013922758,0.013825907,-0.011067487,0.005817819,-0.00453927,-0.008242253,-0.018046975,-0.012931389,0.017089773,-0.0022376
annoyance,0.014022356,0.001414493,-0.012771525,0.004249831,0.003515385,-0.014817885,0.003675856,-0.010767664,0.000894202,-0.014715058,-0.011385831,0.009570531,0.018833391,-0.013982135,0.012890125,-0.008038678,0.013719882,0.002470994,-0.004037149,-0.017165832,-0.016341273,-0.010698886,0.005409643,-0.002929833,0.008134808
anticipation,0.012052003,-0.010183627,0.015553533,0.019621016,-0.000628453,0.007096818,-0.013962538,-0.014083901,0.010789381,-0.013680894,0.018978672,-0.013176455,-0.00992343,0.004591771,0.010826113,0.002109486,-0.004592948,-0.01669908,0.017448425,0.001891976,-0.003763738,-0.011341298,-0.000392225,0.019101761,0.003407872
anxious,-0.003797373,0.00647997,0.015653072,-0.006911911,-0.020898929,0.007524548,0.011324201,-0.025479717,0.003053399,-0.011033549,0.02289537,0.014698966,-0.002492688,0.004204393,0.012903185,-0.017898995,0.000636417,-0.012215812,0.011867209,-0.003211311,-0.007212587,0.011460358,0.007158141,0.003006049,0.000707655
apathy,0.019151652,0.017477471,-0.011024039,-0.001412779,0.017391983,0.006863896,0.002384844,0.000341282,-0.01851737,-0.003783775,0.019545427,-0.008077263,-0.007252461,-0.016287621,0.018970028,-0.01855639,-0.014147203,-0.009069488,-0.003765811,0.00489218,0.001538306,0.007460902,0.004710265,0.014917093,-0.016062139
appeasement,0.000330405,-0.008529955,0.00180502,0.001580057,-0.01264111,0.004047551,0.017076304,0.011019208,-0.011323182,-0.008041899,-0.016408838,0.019171175,0.008067317,-0.004924268,-0.010811472,0.019242475,-0.002932401,0.008519571,0.013087096,-0.014071262,-0.011660587,-0.002235394,-0.019999493,0.01089714,0.005100827
apprehension,0.018037684,-0.01072571,0.015260399,0.014417118,-0.019663448,0.009043343,-0.014251859,-0.006151086,0.009969113,-0.002609483,0.002022064,-0.00579141,0.015201088,-0.01731844,-0.002576555,-0.013702502,0.007562032,-0.005223731,0.011104812,0.01577748,-0.008074805,-0.00055535,-0.014593162,0.002885011,0.014971162
arousal,0.009063854,0.010156129,-0.011072617,0.013908714,0.012218975,-0.013504081,-0.011757822,-0.003085094,0.00773693,0.016964214,0.012242951,-0.001094001,-0.01123117,0.015569009,0.000664721,0.014805661,0.013216656,-5.02E-05,-0.000515091,0.018112231,0.01501461,-0.012252433,0.006787373,0.015134431,-0.00261403
arrogance,-0.015452798,-0.009858455,-0.004721883,0.013807227,0.013625262,0.009842044,-0.008557906,-0.017755516,-0.007641341,0.00157349,0.006329415,-0.018363137,-0.010573326,-0.015113591,0.000153846,0.016886817,-0.002315762,0.013208784,0.015698647,-0.003258997,0.004778434,0.013934473,-0.008954808,-0.011413085,-0.003221646
assured,0.008817384,0.018499982,-0.01026619,0.01719162,0.006666134,0.003306748,0.026072608,0.01124006,0.008042573,0.012626388,-0.005597307,-0.012713743,-0.009497984,0.008506923,-0.007613439,0.003214913,-0.008095666,5.75E-05,-0.012218547,0.007676433,-0.017055944,0.006121449,-0.003393428,-0.01852574,-0.01770078
astonishment,-0.007394419,0.006141577,-0.015319197,0.005266587,-0.013335046,0.017197745,0.007403349,-0.019707523,0.015777722,0.004761339,-0.01632793,0.000241323,0.017861009,0.012387863,0.001192182,-0.001993262,0.001706248,0.019283175,-0.015836373,-0.007149211,0.013770802,0.016776577,-0.01486388,0.008503526,-0.014615055
astounded,0.01934974,-0.013019474,-0.012971283,0.006611977,-0.014889012,-0.013924732,-0.001330177,-0.012754395,-0.017826255,-0.004887448,0.01089114,0.000210873,0.019077636,-0.017912751,0.019277178,-0.007607664,-0.008841704,0.01480886,0.016761636,0.011640584,-0.001180428,-0.001911691,-0.003798696,0.015901845,-0.002974375
attack,-0.01603048,0.00594851,-0.008718341,-0.004656409,0.014171842,-0.00503635,0.000395838,-0.026797896,-0.024049813,-0.009329933,0.020613337,-0.015117134,0.014119891,0.016756129,-0.015748398,-0.0181145,-0.01791699,0.009649599,-0.012384674,0.002740138,-0.011386829,0.021338882,-0.005358661,-0.002117902,0.009858356
attraction,0.013828861,-0.016824668,0.001567018,-0.002390066,-0.009674982,-0.008336061,-0.007308396,0.010913648,0.011719956,-0.013511369,0.003536347,-0.015022796,-0.00504107,-0.00630467,0.004056982,0.001588342,-0.01125624,-0.013008514,0.016531462,-0.007135667,-0.016349297,-0.01908283,-0.004630421,-0.007266933,-0.013478779
aversion,-0.003168375,-0.01031951,0.00314525,0.014596944,-0.001888389,-0.000130748,-0.017714273,0.005226658,-0.003151422,0.019110436,0.000566536,-0.0169198,0.012233533,-0.007016028,-0.00670129,-0.011259515,0.017824499,0.016856624,-0.000268638,0.008934668,0.000489687,0.019754177,0.000252903,-0.017956214,-0.010368101
awareness,0.001038633,0.022021951,0.001775612,0.005542248,-0.015401997,0.004012557,-0.007820005,0.003456421,0.005247386,-0.013927793,0.01143195,-0.006996,-0.008329204,0.00528515,0.014953418,0.005414763,0.000944667,0.001360235,-0.008388501,0.009206442,-0.010515343,0.00833313,-0.010469059,0.001328416,-0.008916
awe,-0.022814872,0.018129874,0.024556475,-0.000592739,-0.016574953,-0.011247133,0.03631054,-0.040906496,-0.020039158,-0.017565602,0.017353844,-0.031748235,0.002838699,0.027085222,-0.004653914,-0.015462656,-0.015052535,0.015193422,-0.0306801,-0.025367077,-0.027728096,0.008129017,-0.019533837,-0.020097455,0.000636033
awfulness,0.010834083,-0.004753167,-0.003300367,0.009649941,0.004292382,0.013771767,-0.017498067,0.019692319,-0.015751258,-0.01825771,0.011944781,-0.019766169,0.007823451,0.010015568,-0.01698048,0.005872144,-0.016528212,-0.013283428,0.009790082,-0.014397209,-0.01154382,-0.001899126,0.018594414,0.001271479,0.016909478
bad,-0.093126595,0.16630174,0.12404174,0.019557621,-0.07677306,-0.10527278,0.34463993,-0.20722468,-0.11244834,-0.07942744,0.3080056,-0.118979394,0.034631234,0.16295955,0.025488954,0.04858212,-0.09645754,0.00586095,-0.11254143,-0.053688634,-0.18238503,0.14364006,-0.1399173,-0.001645349,-0.09018671
baffled,0.013264255,-0.018172616,0.007572051,0.005538151,0.004558573,-0.003315419,0.010772469,-0.01546682,-0.002001664,-0.001315703,0.018969903,0.003427081,-0.012653062,0.011926982,0.001217162,0.014230794,0.003308135,-0.001324744,-0.019364927,0.017670296,-0.00236678,-0.008891939,0.008610347,0.006131011,0.014966729
belligerence,0.013692721,-0.016488796,0.009983944,0.019772075,0.005507043,-0.013896858,-0.000139885,0.014406323,0.012914698,0.006056423,0.011826068,-0.018452723,0.009551168,-0.008274654,-0.006690909,0.006043228,0.014798793,0.002748913,-0.002775156,-0.007226639,-0.011857249,-0.019106122,0.018943196,-0.002608794,0.008284155
bemused,0.005560473,0.000133628,-0.01167001,-0.012552517,0.0149153,0.007489452,0.009940123,-0.010518901,0.004685883,0.013078867,-0.013974708,-0.011901386,-0.019935684,0.000998018,0.014524428,-0.002528546,-0.011225617,0.012052624,0.011707926,-0.018896239,-0.002329928,-0.008006236,-0.003833772,0.009375041,9.90E-05
bewilderment,-0.01249851,-0.014283467,0.014102031,-0.001558006,0.016137056,-0.003875877,0.003406909,0.006136554,0.001274122,-0.017312426,-0.00885961,-0.001039965,0.017565805,-0.003486835,-0.003163871,-0.016273625,0.004960585,-0.008347858,0.00900858,-0.006912048,-0.008755553,-0.013428465,-0.011418792,0.013092333,-0.006829523
bitterness,0.008240037,0.008217771,0.016818007,0.000129247,-0.00858817,0.001505419,0.018467389,0.018063521,0.003569937,0.002598949,-0.007656496,-0.010509725,-0.016490133,-0.00568796,0.019641275,-0.015027771,-0.018276474,0.011898368,0.015548601,0.011230066,-0.006675164,-0.004073968,0.005564233,-0.00475495,-0.018226238
blank,0.009168061,0.002172828,-0.001774273,-0.015753306,0.002804298,-0.010203272,-0.001648774,-0.011139544,0.008680694,0.000564838,-0.002588809,0.007885503,0.014790792,-0.002161044,-0.005654873,0.002612927,0.002244977,0.019343775,-0.014068112,0.004583531,0.001227302,0.002877924,-0.02393625,-0.014511609,-0.000318283
blessedness,-0.011570873,-0.012321816,-0.007749747,0.012011768,0.004315772,-0.000204111,0.005856718,-0.016977333,-0.007348327,-0.005408912,-0.011974501,0.004487436,-0.019873139,0.002022077,0.001648071,0.01998778,-0.018678216,0.002917831,0.000753131,-0.008164906,0.014152155,0.003721543,0.011211307,-0.001733748,0.002452955
blues,0.007579728,0.007009283,-0.014080721,0.016964417,0.013737435,0.012207177,0.021834927,-0.002572662,0.013798474,0.013669568,0.019140858,0.002560372,-0.00426933,0.01611813,-0.011982109,-0.001275559,-0.012760161,-0.004517998,-0.005407744,-0.012950517,-0.017074136,0.01950933,0.0063736,-0.003638512,-0.00819165
bombshell,-0.019399809,-0.007517933,0.017339949,0.01940367,0.004524244,-0.022283493,0.026206024,0.003092649,-0.009432121,-0.003847671,-0.000294556,0.006166854,-0.011895155,-0.007927589,-0.001966077,0.002137248,-0.003521951,0.014009592,0.010921019,0.015290284,-0.008212355,0.02186448,-0.021391716,0.006890042,0.016471177
boredom,-0.020241521,0.006859911,0.00129914,0.00426277,-0.012368886,-0.010917963,0.002571686,-0.018850993,-0.010895352,-0.011597123,0.023573158,-0.01308362,0.00684332,-0.014762915,0.016470075,-0.009342513,0.004117948,0.005655364,0.004420872,0.000780416,-0.001368307,0.01037693,-0.014828078,0.004022965,0.007646475
bummer,-0.018047327,0.015307169,0.008614853,-0.006573306,-0.002596606,0.009651743,0.015837314,-0.026343504,0.010052311,-0.00680692,0.005530768,0.002874743,-0.017064096,0.016441057,0.011943473,0.01706477,-0.004179536,-0.011389965,0.003523405,-0.010386498,-0.006190172,0.005645804,-0.000323446,0.018929645,0.004749899
burdened,-0.005585029,-0.007300573,0.011142249,0.003268898,0.011381972,-0.018345522,0.017418895,0.001059034,-0.009293738,-0.014508079,0.01971351,-0.009557461,-0.017173855,0.002596774,-0.007760305,0.008835216,-0.014125536,0.003491984,0.003169191,0.011568076,0.00950113,0.014410518,0.01953664,-0.003283073,0.011933369
burn,-0.009860767,0.022538941,0.028935114,-0.013776749,-0.016787367,-0.017448884,0.038331516,-0.007413897,-0.00067622,0.003659681,0.036551073,-0.010611717,-0.006722431,0.009866696,0.011251104,-0.015637632,0.004643921,-0.012082633,0.002839916,0.004380908,-0.035680905,-0.003241186,-0.003334459,0.014562721,-0.003108058
calculation,0.017193595,-0.004762162,0.000987086,-0.008945994,0.010249762,-0.003004992,-0.015444763,-0.017823389,-0.011703505,-0.007470557,-0.011222085,0.003029579,-0.015938962,0.011777905,0.004452879,-0.013985314,-0.002753361,0.002026091,-0.015042165,0.01998352,-0.001116888,-0.019431006,-0.009975106,-0.002312798,0.019613137
callousness,0.01779474,0.01561815,-0.00231842,0.001025682,-0.010139478,-0.015533553,-0.015510276,-0.002840488,0.002468382,-0.010724377,-0.003782834,0.019571291,0.008816575,0.007257578,-0.009231611,0.015872449,-0.010991422,0.012011024,-0.004818273,0.009883772,-0.014017121,-0.001967122,-0.01850231,-0.007457211,0.01401032
calm,-0.005286588,0.029886078,-0.00589241,-0.010694738,-0.017584365,-0.015579687,0.05438005,-0.01641817,0.000960051,0.004088226,0.056432888,0.004405186,0.01576952,0.025455825,0.009756959,0.0106496,-0.016300496,-0.020940935,-0.004455121,-0.006740049,-0.00779436,0.020990696,-0.021172117,-0.016384898,0.000778895
calmness,-0.010577957,-0.017666219,-0.011545644,0.010894497,0.003693117,-0.016773138,0.01360828,-0.019041296,-0.007900182,-0.01871314,-0.015054464,0.012091046,0.017662976,-0.018657425,0.012809991,-0.014785565,-0.008836214,0.003548041,0.011749625,0.0121411,-0.010495837,0.018671775,0.010779879,-0.018109825,-0.00367492
caution,-0.019817028,-0.010489535,0.01932426,-0.016351577,0.011800599,-0.013755002,0.00213949,0.017708566,0.003017232,-0.018031882,0.001911586,-0.00364153,-0.006391284,-0.00462978,-0.007984123,-0.010096532,-0.012423629,-0.010357867,0.008658066,-0.006900921,0.014543579,0.008603327,-0.017818632,-0.002706138,0.01454505
celebration,-0.017542215,-0.012775387,-0.005797056,0.009786205,0.00091148,0.002362052,-0.00240286,0.013825274,-0.019891944,-0.009776064,0.003438271,-0.016439581,-0.01735402,-0.004598414,-0.014035231,0.016283013,0.006622423,-0.01887617,0.01356894,-0.002140891,0.0170706,0.012629938,0.002571636,-0.019480206,-0.009096541
chagrin,-0.011718127,0.002995891,-0.012642769,0.010023478,0.012935055,0.000452702,0.00927948,0.016359584,-0.008007186,-0.01883096,0.018247124,-0.001147856,-0.014898256,0.001321835,-0.013213204,-0.00216026,0.015216175,0.009512054,0.019827703,0.019012287,-0.001739448,0.01994989,0.007538289,-0.011199687,0.006667565
change,-0.07518215,0.13231294,0.07892065,-0.006157645,-0.08308022,-0.06947691,0.24596527,-0.1612446,-0.093020715,-0.0774855,0.24621116,-0.07525217,0.04306762,0.14683828,0.009356942,0.004885338,-0.084785916,-0.022214476,-0.09869388,-0.031143675,-0.124166794,0.11359964,-0.09419635,-0.030071413,-0.07898074
charge,-0.00093307,-0.012471699,7.29E-05,0.007674607,0.011611152,0.002702931,0.014428202,-0.01572047,-0.017104255,-0.005729749,0.024409996,0.004336287,-0.011257665,-0.008213265,-0.010186989,-0.005757069,-0.008410805,-0.01187991,-0.024263281,0.01121277,-0.018567601,0.00928839,0.008570461,-0.008719675,-0.018680109
charm,-0.001869885,0.013236623,0.007269354,0.016659958,-0.018744888,0.017763551,0.020222742,-0.003773362,0.012575587,0.016484493,-0.001665129,0.01181765,0.020750936,-0.015131841,-0.01196412,-0.014349098,-0.012704738,0.00748984,0.01474733,-0.019712014,-0.013685216,0.00756304,0.012578517,-0.012472762,0.006640269
cheer,0.00133479,0.027020948,0.014325623,-0.010832661,-0.002809694,-0.020373214,0.023349028,-0.03437612,-0.021400157,0.001727602,0.022654153,-0.023134641,-0.008039504,0.031090941,0.009020897,0.012663256,-0.008664032,-0.014121448,-0.005941758,-0.007437991,-0.004578538,0.022896526,-0.005703802,-0.000310071,-0.023975203
cheerful,-0.006768293,-0.008824775,-0.011112288,-0.004918987,0.004894787,0.004393916,-0.014963858,0.016671509,0.009510256,0.012310904,0.003651761,-0.016054608,-0.004085453,-0.003384955,-0.001688597,-0.000201411,0.009927514,-0.018098019,-0.009147184,-0.011225922,-0.010606605,-0.011052205,-0.003451569,-0.015036292,-0.018089509
cheerfulness,-0.019196732,0.018791307,-0.011128565,0.001145591,-0.002947805,0.000760111,-0.013704095,0.017816594,-0.003926844,0.013065815,0.003677674,0.008724026,-0.016455151,0.007240328,0.0162588,0.018481495,0.006880647,0.002326872,-0.005349581,0.008880357,-0.008514684,-0.003118817,0.01561134,0.008992178,-0.006137999
clownish,0.006701881,0.007883461,-0.01128354,-0.00785774,0.009683538,0.016417837,0.008638566,0.007536964,0.015031536,0.00096262,0.016214456,0.011146218,0.009612213,-0.018790662,-0.007271585,-0.019417452,0.014719163,0.012140102,0.005351598,0.000631235,-0.013832729,-0.013373653,-0.01162134,-0.008391028,-0.004632316
cockiness,0.016266096,-0.000211569,-0.013501408,0.005854186,-0.005010012,0.007989011,-0.010975087,-0.014109168,-0.005076719,-0.010605959,0.001945153,-0.01039068,-0.005109722,-0.01596472,0.003566602,0.017375212,0.002261327,0.010652849,-0.014266527,-0.005048917,-0.009305812,0.016354049,0.001063472,-0.016903112,-0.005127833
coldness,0.009476312,0.00433811,0.004334376,0.003388925,0.012260568,-0.007222224,0.017544521,-0.017107448,-0.006660452,-0.01240517,-0.007672324,-0.017835375,0.008541686,-0.013923563,0.005278596,-0.012062755,0.016885255,-0.015176489,0.003941976,0.009375505,0.008922142,-0.003229027,0.01191067,-0.001698445,-0.019178342
comfortable,-0.005669479,0.002819968,0.002227631,-0.005068373,-0.014973109,0.015568053,0.010176518,-0.00341946,-0.017356064,0.000551263,0.005703417,0.014755259,0.000331517,0.002881726,-0.013856862,-0.002782059,0.004922857,0.019278707,-0.015803916,-0.021540662,0.001297572,-0.014718664,-0.000240576,-0.00313794,0.015946457
complacency,0.018602857,-0.002346523,-0.018844852,0.01478319,-0.008177399,-0.016190581,-0.009555577,-0.009090324,0.003992795,0.010644013,-0.010198992,-0.017911859,0.01872696,0.018996969,-0.010845678,-0.011672843,-0.008588636,0.002702216,-0.007606022,0.019397346,0.014753227,-0.005366084,0.002824515,0.015116467,0.012471647
completion,0.012130163,-0.005547173,-0.012412675,-0.019188115,0.003791173,-0.014135819,0.019024428,0.007314059,-0.013570645,0.013076692,0.018078636,0.002479326,0.014661718,0.019818425,-0.015889777,0.019608509,0.009257862,-0.007519545,0.013555287,-0.006600482,0.010286981,0.015100591,-0.011874046,0.015385011,0.018147463
composed,-0.002072022,-0.013504228,0.004412788,-0.014213578,-0.00591765,-0.002499691,-0.004064918,-0.01731982,-0.0071117,-0.008492372,-0.012034424,-0.004683641,0.009274221,0.015469043,0.00478387,0.010483952,0.003222433,-0.019483078,0.013274159,-0.010413096,0.014154092,-0.005863502,-0.016104238,0.011927458,-0.004803717
compression,-0.001179754,0.007990171,-0.000539311,-0.002803547,0.012847903,0.018011475,-0.00577621,0.007771154,-0.012368067,0.010376885,-0.006726909,-0.003535534,-0.010317442,0.013048291,-0.012625675,0.003616218,0.019606652,0.019847773,-7.40E-05,-0.011811337,-0.018044781,-0.012657897,0.001881061,-0.001693221,-0.001643747
concern,-0.013521293,-0.017302368,0.014739901,0.003017438,0.010866301,-0.006322211,-0.012621554,0.006221618,-0.011952298,0.001070911,-0.000969726,-0.018229822,-0.004972806,0.01943092,0.00296778,-0.005635044,-0.008182328,0.013926479,0.004290565,-0.01834532,0.007106892,-0.013232929,-0.014167116,-0.000461706,0.019286674
concession,0.019844592,-0.004228017,0.003404682,-0.006965288,0.000239314,0.017275792,0.011197018,0.00212344,-0.003233612,-0.01499845,0.004075078,0.009516979,-0.005589978,-0.012509601,-0.007922277,0.009339001,0.004862122,0.002352087,-0.006623989,0.019430762,-0.008035452,-0.007583372,-0.005054367,0.013278835,-0.015760966
condescension,-0.013084886,0.004985498,-0.004805183,-0.01445415,-0.016161142,0.011916284,-0.010514231,0.007488509,-0.005143155,0.014952416,0.006172908,-0.010853113,0.005942527,0.008340785,-0.016666163,0.009754257,-0.005840643,-0.016456129,0.019245956,0.016323041,0.015807565,0.016038468,0.011445317,0.005407391,0.013067584
confidence,-0.003644306,0.027964491,0.012554159,-0.018003166,-0.00532153,-0.01227294,0.018082045,-0.008621944,-0.026875453,0.010663356,0.0382057,-0.00501925,0.02358545,0.022656668,0.017703673,-0.001427807,0.008258702,-0.007082685,-0.029714027,0.014454117,-0.028675431,0.025467012,-0.013049963,-0.011556409,-0.00503472
confusion,0.003715124,-0.008325103,0.002686958,-0.006936232,-0.003730514,0.00017326,0.016685352,0.014712561,0.000560582,0.000756223,0.011886471,0.013962209,0.011549621,-0.012113111,0.004828858,0.012656331,-0.015828677,-0.00162629,-0.008740286,0.005262528,0.009181688,-0.008412555,-0.002642125,-0.004556293,0.006282357
contempt,-0.011255343,-0.006607155,0.001168386,0.01754631,-0.013084141,0.004473791,-0.003581694,0.001499494,0.00067608,0.001659928,-0.008834106,0.001901038,0.007108841,0.019002566,0.0184067,0.014369763,0.016621312,-0.005718621,-0.012324442,-0.011965319,-0.00482284,0.005291146,-0.013564035,0.019660847,-0.01328998
content,-0.012534852,0.020189438,0.009669521,0.005892094,-0.009791246,-0.016738694,0.003539283,0.00438385,-0.019705929,-0.022844851,0.015807517,0.007670851,0.019641804,0.001654297,-0.005714183,0.017657772,-0.014822766,0.012024864,0.001871818,0.003258297,-0.011935647,0.022043992,-0.0262347,-0.002877209,0.013891558
coolness,0.012325585,0.005412053,-0.014491692,0.010437963,-0.01822181,0.012030702,-0.001831693,-0.01683153,-0.003355655,-0.007249438,0.01509493,-0.00027433,0.006847285,0.000114423,0.017353246,0.003296382,-0.012206528,-0.011502715,0.014693314,0.003651677,0.00604351,-0.014674299,-0.016134031,-0.017889135,-0.003040963
criticism,-0.017025683,0.018258896,-0.005199261,-0.014003662,0.011893207,0.001387169,0.00182393,-0.010799975,0.004590239,0.008598633,-0.00149398,-0.004504141,-0.001446975,-0.002428367,0.005402268,-0.019390173,-0.015895706,-0.013503722,0.000764509,-0.004751778,-0.012061433,-0.013960832,-0.013553538,-0.018507373,-0.010508276
cruelty,-0.019303015,0.002339438,-0.015938321,-0.011485196,-0.001318021,-0.01013874,0.006199235,0.005094557,-0.006058028,0.016052358,0.013908112,0.012108241,-0.01471239,-0.000840322,0.015846105,0.006330526,0.016686877,-0.002485086,0.007938833,-0.001897272,-0.004088332,-0.018321294,-0.011274635,0.015815357,-0.009506422
crush,-0.03520748,0.04382825,0.033703912,0.00204857,-0.0392529,-0.015187444,0.09458083,-0.041111864,-0.009591745,-0.020812498,0.052960213,-0.04043069,0.031900298,0.022933321,0.02002561,0.02298065,-0.020921852,0.014755785,-0.036788106,0.004219331,-0.025314864,0.04057052,-0.038923033,0.000840935,-0.008871603
curiosity,0.005563967,0.001007885,-0.014413441,-0.005397498,0.014117355,-0.014979287,0.009961943,-0.010027408,0.010470061,0.004323374,-0.016397651,-0.007889501,0.009026893,-0.014559958,0.004678223,0.012993668,-0.016822217,0.009958749,-0.001937401,-0.006832089,0.006110236,-0.01019482,0.001904236,0.012885276,-0.012817253
cuteness,-0.004915311,-0.002937966,0.009704304,0.016336259,0.010426624,-0.008823238,0.019733038,-0.014006008,0.002278535,0.017764881,-0.017762998,-0.003061106,0.01668265,-0.015177825,0.018579856,-0.01221536,0.01932628,-0.000343316,-0.009275003,-0.007285563,-0.013127172,0.018817648,-0.013425212,-0.003009754,0.002482557
cynicism,-0.019246057,0.015276487,-0.019357638,0.003448211,0.003468139,-0.01617548,-0.0155853,-0.006026968,-0.003377968,-0.002215367,0.008307275,-0.004120934,-0.000746145,0.001684359,0.00790957,0.006497182,-0.007039791,0.011032121,-0.012322078,-0.008850225,0.01710466,0.002808768,-0.019528486,0.01224919,0.013358008
danger,-0.002943859,0.01895784,0.018675838,-0.005572984,-0.004128726,0.003914345,0.0115297,0.009290679,-0.010065676,-0.01714921,0.002355964,-0.002096239,-0.006407558,0.016886393,0.011911639,0.011847714,-0.000169305,0.00284096,-0.001298867,-0.009241492,-0.000290274,-0.014072264,-0.004360566,-0.005158965,0.007622143
darkness,0.007773196,-0.016009273,0.001263354,-0.019343853,0.013979862,-0.003421657,-0.008979328,0.016859874,-0.01907435,0.016853476,-0.012541529,0.002286111,-0.011301962,-0.008796383,-0.019671464,0.008057431,-0.005930536,0.017394567,0.007612628,0.015038281,-0.019522939,-0.018737396,0.001259039,0.010585981,0.01808867
dazzle,0.010546549,0.003041785,0.011131833,0.006441999,-0.013326495,-0.016010232,0.02383038,0.008223929,-0.01225572,0.000740512,0.022444084,-0.020581601,0.011694574,0.009412157,-0.017728593,0.011230008,-0.021632152,-0.002385062,-0.009754729,0.008580477,0.012130963,0.012089215,-0.007744312,0.011082724,-0.003757178
deadpan,0.006464076,-0.002397763,0.015182672,0.004352362,0.019923735,0.011843109,-0.013443613,-0.007179163,-0.003307901,-0.016133422,0.008071717,-0.017185936,-0.00667297,-0.013279898,0.008244287,0.018537084,0.00357793,-0.015044839,-0.01918476,0.016059602,0.0069384,-0.002452054,0.002714518,-0.006817957,-0.007454316
deception,-0.017010573,0.003016805,-0.018129343,0.018169815,-0.002459492,-0.019726425,-0.015029712,0.018645748,-0.014810494,-0.003323052,-0.010686564,0.011444835,-0.015801664,0.002108139,0.01844794,0.019918377,0.003222473,0.001378358,0.01755196,-0.011364589,0.004619146,-0.017072367,-0.00383008,0.002651822,0.006241902
defeat,0.01401736,0.000749285,-0.01333398,0.011165712,0.006226464,0.008606413,0.01692734,-0.022348879,-0.017572088,-0.006691438,0.004661899,-0.010694426,0.001734777,0.025160013,-0.012899747,0.010530694,-0.016918864,-0.006416372,-0.012508604,-0.017562715,1.03E-05,-0.001080928,-0.02272657,0.010634467,-0.011654316
defiance,-0.016094498,0.008758434,-0.006675019,0.011376018,0.016295735,0.019815942,-0.006091901,0.015181839,0.01607271,0.013296022,0.01649563,-0.012401474,0.007471363,0.004236514,0.006850818,0.017717514,-0.000146596,-0.012420367,0.013628681,0.019476367,-0.000720581,0.014708485,0.006369535,0.015291671,0.012375181
deflation,-0.005465703,-0.001450225,-0.00647192,-0.007164599,0.014862725,-0.013746118,0.014214129,0.015032223,-0.004614321,-0.011733725,-0.00593261,0.004187679,0.003023427,0.011272042,-0.018749038,-0.004255082,-0.018527316,0.005220739,0.016211372,0.014543057,-0.019286728,-0.005470894,-0.005883986,-0.012974962,-0.004095499
delicacy,0.019747542,0.00037722,0.015034256,-0.011950409,-0.004195962,-0.01956605,-0.00565269,-0.014610598,0.005209421,0.016234674,0.014252272,-0.000694079,0.003869491,0.006237172,0.000544507,0.016635275,0.016958864,-0.010470309,0.019029899,-0.006479985,0.010811996,0.016615348,0.013577267,-0.017519012,-0.00989249
delight,-0.004286698,-0.01895722,-0.005192396,-0.002797039,-0.01701385,0.014226933,0.013625858,0.000516041,0.001062791,-0.011853689,0.000900805,0.017999949,0.000984954,0.001244134,0.013228703,0.019386804,0.009358319,-0.002428793,-0.009208893,0.015274214,0.009761517,0.012926164,0.013402629,0.006781448,0.00171266
depression,0.004973233,-0.01291141,0.024066338,0.01522208,-0.022868017,-0.01851476,0.019962166,-0.013550647,-0.022000311,0.008236446,0.018110963,-0.007608666,-0.006647099,-0.007787911,0.002124019,-0.005592691,-0.005390149,-0.002232913,-0.000656332,0.014457733,-0.011855811,-0.001570925,0.001179093,-0.006230907,-0.005762333
derision,0.008873583,0.010774908,-0.018478142,-0.006307901,-0.014871494,-0.006157595,0.009457626,0.012770016,0.015665758,-0.011418109,0.011071104,-0.014240111,-0.012953043,0.018427132,-0.012470391,0.009717681,-0.011747601,0.010523349,0.01813825,-0.00103019,0.002278406,-0.013971681,0.00830724,0.010768421,0.004226962
desolate,-0.019059109,0.005464636,0.012714377,0.001490388,0.0188213,-0.003217676,0.019543761,0.011857271,0.016180761,0.005242617,-0.004850508,0.012040147,0.009193338,-0.015182758,0.0159398,-0.012967031,-0.006542644,0.017605495,0.007086967,-0.018322142,5.16E-05,0.00296354,0.003536183,-0.009379596,-0.006067945
despair,-0.019785786,0.010302994,-0.000712446,0.015637748,0.007286451,0.011555229,0.014766884,-0.007949861,-0.016725965,0.007334469,0.006428448,0.009681935,-0.010454336,-0.017402995,-0.018505758,-0.011829167,-0.014656495,0.01885236,0.002512373,0.018745178,-0.006894183,-0.016511895,-0.01662608,-0.000896271,-0.003005838
despondent,-0.019756485,-0.006187778,0.016416652,-0.019512221,-0.001150964,-0.002348835,-0.004149496,0.008570435,0.011650512,-0.012365506,-0.000268878,0.002684453,-0.001019505,-0.008599682,0.000345549,-0.012817072,0.010575141,0.012956272,-0.011176198,-0.01634805,-0.011332955,-0.009480407,-0.018667212,0.014531697,0.003020475
detachment,-0.008826335,-0.014183003,-0.000336376,-0.017935647,-0.011945455,-0.003748799,0.016179657,0.010355996,0.013951139,-0.008481679,0.010150809,-0.01205423,-0.019700395,-0.000848853,0.001283484,-0.01626151,0.000982757,0.007211666,-0.007784525,0.00045774,0.015696907,-0.019811604,0.012021638,-0.012713395,0.005101369
deterioration,-0.009194304,-0.001022492,0.004633998,-0.010223368,0.01467116,0.014302961,0.006140176,0.009905247,0.018593725,-0.00095034,-0.018978855,0.004105289,0.013843023,0.019361023,0.000118766,-0.014283993,-0.013972175,0.01214698,-0.011344465,-0.004218914,0.001207396,0.015791897,0.003147188,-0.018834984,0.003012344
determination,-0.006917585,-0.005494501,0.01561612,-0.006852009,-0.017088892,0.007046867,-0.004391257,-0.018793402,0.005835298,-0.01974541,-0.01207308,0.001224439,-0.014609573,-0.010410691,-0.017860062,0.010512328,-0.015146892,0.016928801,-0.008008323,0.002073029,0.001393918,0.017241003,-0.000847476,0.009242686,0.011915474
devastation,0.008221024,-0.01991163,0.010413009,-0.016405245,-0.012889213,-0.008935857,-0.001339256,-0.011483065,0.001273183,-0.007825423,0.007903725,-0.002021781,0.009550738,-0.018426098,-0.002505608,-0.00430627,-0.019155577,-0.011611436,0.011834374,0.016161544,0.004198452,-0.01246207,0.013658896,-0.001267667,0.017048823
disappointment,-0.010179362,0.018367898,-0.000243667,-0.015751375,0.015225627,0.013538606,0.008229168,-0.009572477,0.013207823,-0.009008151,-0.012179956,0.009642185,-0.019175861,-0.007654732,-0.004444016,0.014943332,-0.010673911,-0.002032961,-0.016056538,-0.011566473,0.002577961,0.014764341,-0.016762113,0.006322745,0.010772206
disapproval,-0.008159548,0.012039679,0.019111248,0.016349588,-0.00262093,-0.009601592,0.01091273,-0.007699362,-0.013044815,0.010633378,0.003582679,-0.014815182,-0.010815302,0.007732549,0.015766602,0.008321327,0.015832482,-0.019418322,-0.015918205,0.004306968,0.002091015,-0.002127496,-0.014545285,-0.008928345,0.009874771
disbelief,-0.013993025,-0.014261033,-0.006338798,-0.004117906,-0.014511994,-0.006936667,-0.001974002,0.010641314,0.002392659,0.010519118,-0.008380201,-0.001032088,0.005252526,-0.00984542,0.009873576,-0.011803312,0.015149945,0.0186378,-0.017489897,-0.007464076,-0.002190474,0.005375864,0.01024136,0.009391379,-0.019853057
discomfort,0.012637847,-0.01816283,-0.019045625,0.009674709,0.006730274,-0.014658341,-0.009521776,-0.013988839,0.008685549,-0.003157171,-0.006581123,0.014302453,-0.001943996,-0.012369783,0.017178973,0.002846766,-0.012494849,-0.017621396,-0.019229934,-0.013017035,-0.008527608,-0.007024508,0.000216373,0.002542651,0.013668928
discontent,0.008590096,0.008215023,0.006602049,0.019231653,-0.00495538,-0.002904709,0.008646077,0.018283276,-0.003431994,0.001052574,0.004176692,0.00942177,-0.01611312,0.006250129,0.018252727,-0.019762224,-0.014579272,0.000954188,0.008593726,-0.019407377,0.004023482,-0.002576688,0.015615564,0.008392256,0.002714497
discouragement,0.012390958,0.014402919,-0.006953808,0.019702734,0.009369805,-0.010750423,0.010345306,0.001281498,0.011704009,-0.000313546,-0.000184521,0.000215136,-0.001309029,-0.007547414,-0.014612163,-0.016203012,-0.01938263,0.006922575,0.002443492,0.007631399,-0.000305087,-0.007485911,-0.013964352,-0.014904938,0.019011158
disdain,-0.010292993,-0.009233104,-0.019903366,-0.003277155,-0.002776942,-0.00594796,-0.014478592,-0.000439117,-0.005937899,0.004406436,0.009381115,0.015044219,-0.000560785,0.005832654,0.019502066,0.009264722,0.010281763,0.009161686,0.00559945,0.00522823,-0.006924977,0.016309977,0.017235992,0.005530224,0.016551243
disgruntled,0.014444392,0.019834463,0.003136088,-0.001114841,-0.008168029,0.006970511,-0.00933668,0.018253101,-0.00589784,-0.001331728,0.00784081,0.016164081,0.009184439,-0.011812953,0.011758414,-0.009113791,0.005873287,-0.014788833,-0.005574083,0.014163917,0.00824052,0.011783065,0.014106154,0.011289296,-0.004894724
disgust,-0.006046523,0.009762935,-0.009613027,-0.008666959,0.010600946,-0.003994635,0.001965253,0.009326738,0.004996691,0.009283817,-0.003116502,-0.009948511,0.004725498,0.01698394,-0.013344833,0.006699997,0.006997317,0.015742783,-0.014514749,-0.014437119,-0.011563217,0.022014633,0.002612002,0.013116327,0.007806563
disheartened,-0.017293075,0.008345204,-0.004155816,-0.009131642,-0.006644939,0.008191211,0.012149116,0.005631548,0.017902909,0.003437443,0.014207711,-0.019496331,0.015088879,0.006237797,-0.000263634,-0.006108826,0.003533053,-0.003955935,0.005012554,-0.004217765,-0.012462177,-0.010031731,-0.010044226,-0.001163859,-0.012820262
disinterest,0.01663791,-0.006263711,-0.012093114,0.011074731,-0.006690125,0.006826982,-0.003242129,0.004080595,0.00370771,0.014213365,0.000702179,-0.001266285,0.007669162,0.006967507,-0.011067351,0.014369075,-0.017257987,-0.010286409,-0.006865946,-0.01186748,-0.00302459,0.014025341,0.001355616,0.015283844,0.015951483
dislike,-0.012339874,-0.00840003,0.008827928,0.018484348,-0.017001737,-0.006410118,-0.000735913,0.012971439,0.017442346,0.018083146,-0.008049131,-0.004449015,-0.006834084,0.010059087,0.017867437,0.001779149,-0.0159791,-0.009010678,0.013289372,-0.018640194,-0.003855748,0.004916954,0.003884011,-0.01062768,-0.009214561
dismay,0.004050111,0.001295162,-0.004164264,0.019994143,0.001819216,0.00724459,-0.010972465,0.002556135,-0.001202118,-0.011956932,-0.017540837,-0.018895064,0.007046572,-0.007239276,0.007371878,0.002410755,-0.006431848,-0.001030366,0.006828088,0.0181202,0.002483835,0.012553332,-0.01785136,0.007133235,0.016463945
dismissive,0.012065489,0.004110295,0.003801546,0.014258292,-0.007956729,0.01605626,-0.019117737,-0.019445103,-0.011730323,-0.015317638,0.007530784,-0.003781036,0.015713632,0.017181672,0.011147766,0.014598642,-0.003832157,0.016733196,-0.015104938,0.018720591,-0.015133054,-0.017797697,-0.004553864,-0.004009303,-0.017617881
displeasure,0.012397481,0.0131645,-7.11E-05,0.005916104,0.0192257,0.016597876,-0.002396364,0.007995353,-0.000712735,-0.012847654,0.009369916,-0.005902266,-0.018834632,0.003364691,-0.01698761,0.002086012,-0.002446862,0.008575492,-0.005224876,0.014027831,-0.006442545,-0.015681904,-0.016079672,-0.001123023,0.01846933
disregard,0.009659916,-0.014825396,-7.29E-05,-0.012793422,0.007590755,0.012578722,-0.018145103,0.003615257,0.011059818,0.000239402,0.001995982,0.001420197,-0.002860314,-0.008540523,0.001786738,-0.007541136,-0.015169513,-0.014644619,0.001528254,0.011660417,0.001267496,-0.007784929,-0.01672712,-0.017243095,0.008690946
dissatisfaction,-0.011830008,-0.003119309,0.019977476,0.001093303,0.019255118,-0.012175405,-0.008991757,-0.008809083,0.016899731,0.014838142,0.009965725,-0.004559266,0.006685249,0.017320523,-0.010893051,-0.017713133,-0.008418539,0.01914898,-0.012042627,-0.010476409,0.011700443,0.011796493,-0.000254167,0.00041016,-0.006351219
distaste,0.010235253,-0.019117795,0.011393584,-0.001089855,0.003768646,0.001756176,-0.002578859,0.013159334,0.006007161,-0.013659634,-9.90E-05,-0.016215805,0.009890174,0.002913893,0.015345973,-0.016963897,-0.016168611,-0.010154577,0.004365026,-0.007555423,-0.009957224,-0.011638572,-0.01793993,3.62E-05,0.012879455
distress,-0.000179713,-0.012773874,0.017889274,-0.014219129,-0.001775843,0.014408849,-0.004520049,-0.017998194,0.007578117,-0.013229151,-0.015762277,0.004648252,-0.019376783,-0.002189941,-0.014784171,0.015530637,-0.015419724,0.003196872,-0.012146675,0.019491496,-0.005160337,0.008830136,-0.01057921,0.019184016,0.007805734
distrust,-0.015906762,-0.010659376,-0.001197506,-0.009354887,-0.01311433,0.00849735,0.005406154,0.015046022,-0.016169237,0.007103358,0.001612495,-0.004993609,-0.00200488,-0.013409063,-0.005711171,-0.009328425,0.001424501,-0.015088865,-0.015332555,0.018108925,0.001919907,-0.013238153,-0.00347341,-0.004796173,0.00028073
disturbance,-0.017989092,0.0196394,-0.007935007,0.011231177,0.008293558,-0.001837943,0.019284094,0.00043825,-0.014429793,0.017377717,0.011950244,0.008121151,-0.000516412,-0.015041786,-0.008815993,0.013118936,-0.009709642,0.010058513,-0.002482301,0.019316997,-0.002970386,-0.003007928,-0.006582742,-0.00517996,-0.011865358
dizziness,0.009606994,0.010585872,-0.019433307,-0.018667638,0.003762981,0.013705862,-0.007983978,0.000591453,-0.01794879,0.01861487,0.003483761,-0.004312562,-0.011788664,0.003260229,0.009061779,-0.019569319,0.017323358,0.001888683,-0.004972653,0.008193367,0.01308919,-0.017869858,0.009948578,-0.011124545,0.00775145
doubt,-0.006361523,0.017420284,0.017243458,-0.019764405,-0.004946576,-0.006902474,0.009516127,-0.012185145,0.005946256,-0.005295129,0.010691012,-0.016165672,-0.011396133,0.026585545,0.014019541,0.016237533,-0.000295715,0.012231358,0.010007205,-0.009487583,0.010006632,0.006290814,0.010811534,-0.011417068,-0.015657743
dread,0.002207639,0.011049873,0.000574181,0.013053869,0.004806243,0.007306079,-0.016885256,0.011072467,0.00029347,0.002041563,0.016011748,0.007387101,0.010425752,0.013904759,-0.013607071,0.008876166,0.016192948,0.016648907,0.010212163,-0.019746447,0.016649054,-0.017812096,0.012157272,0.002026416,0.009702733
dreary,-0.011345606,-0.006211308,-0.014101623,-0.01285892,-0.002534094,0.017926127,0.000382911,0.016080242,-0.016450588,0.000326142,-0.015786765,-0.011890773,-0.016279552,-0.003822758,0.009587887,-0.012102251,0.000966803,-0.004289754,-0.005885851,0.002911371,0.01738224,-0.016097566,0.00509215,0.00157722,0.002537812
dubious,-0.007096989,-0.002971972,-0.007607966,-0.004784162,-0.018008918,0.005456508,-0.008249234,-0.017014727,-0.002241637,0.017002009,0.005603207,-0.002038591,-0.008716453,-0.019959608,0.010904531,-0.004203699,-0.002142683,0.011364019,0.013503549,-0.006024913,0.019580001,0.017485267,0.000554327,-0.003881683,-0.01877975
dullness,-0.008335234,0.005807307,-0.004237456,0.013672465,-0.00201625,0.001318119,0.011229395,0.015113849,-0.005329935,-0.008816899,0.019643122,-0.018769925,-0.011981942,-0.013324278,-0.016993146,0.017144347,-0.014350039,-0.004534373,-0.01236899,-0.009252216,3.57E-05,-0.015921645,-0.007733231,0.013918886,0.012379354
eagerness,0.015928967,-0.015738104,-0.010314888,0.016508695,0.003231494,0.00858444,-0.01831334,-0.018125394,0.009703716,0.000129889,-0.000505159,-0.003410933,-0.019159827,-0.000545571,0.003309903,-0.00501026,0.014081177,0.01906302,0.009186429,-0.010969449,-0.008428646,0.008129128,0.017101085,-0.00904782,-0.013624631
easygoing,0.015111705,0.015082064,-0.012908475,0.008440089,0.009093865,0.003495978,0.002433552,0.006385008,-0.016258372,-0.01226144,-0.017669106,0.002025737,0.009598658,0.012802984,0.003227935,-0.014156406,-0.012551019,0.010374336,-0.019689878,-0.016907329,0.004234005,0.0134294,0.011546632,0.002207589,0.003913476
ecstasy,0.007211504,0.016585914,0.012343057,-0.015842654,-0.019991525,0.002018731,0.012248111,-0.003114266,-0.004425892,-0.016638856,0.0020713,0.013869309,-0.001353809,-0.011186895,-0.012616048,0.009429091,-0.013079182,-0.00903126,-0.009264815,0.001623822,-0.01754328,-0.019780606,-0.014710534,-0.001583911,-0.00119365
elated,0.011477982,-0.01773468,-0.019245137,-0.004653772,0.00351945,-0.00546012,0.013110545,-0.01861024,-0.012484152,0.001513759,-0.005453004,0.015171189,0.005410636,0.018407866,0.010089262,0.015179151,-0.009124044,-0.017216982,0.015520044,-0.001350568,-0.01277718,-0.017907564,0.006491286,-0.006249096,-0.012278196
embarrassment,0.000246864,0.020810997,-0.015282435,-0.010685412,-0.008092647,-0.02050419,0.017488545,-0.02101097,-0.018073749,-0.019110428,0.020539101,-0.016934821,0.014839015,-0.011125993,-0.01771565,-0.01537455,0.012432683,0.008814479,-0.004682612,-0.006158898,-0.024039613,0.015417373,-0.013932052,-0.002703192,0.01572745
empathy,0.010374354,0.006834623,0.015513275,-0.010360138,0.004365368,0.0025187,0.013983379,-0.010444517,0.017044462,0.01734584,0.010888157,-0.010388012,-0.004328606,0.002544207,-0.001378413,-0.017200429,-0.021055322,0.005385834,-0.014872075,0.004805094,0.000514863,0.007515056,0.009259194,0.013712584,-0.005254942
emptiness,-0.003368013,0.010187343,0.003534233,-0.002490089,0.011024794,-0.013546896,-0.008091366,0.014659201,0.011365345,-0.010441694,-0.009225085,-0.007457553,-0.006470019,-0.004411282,-0.007735182,-0.01517027,0.017307904,-0.002622267,-0.016100816,-0.013578877,-0.010150612,0.017868143,-0.01447992,-0.007851762,-0.004916185
enamored,0.003406692,-0.019121345,-0.000444716,-0.003661024,0.000547031,0.003302708,0.007587065,-0.007559743,-0.014537661,-0.003970137,0.005982188,0.01045969,0.015316315,0.013916404,-0.010617267,-0.004632994,0.019698253,0.008469719,0.004256436,0.001194227,-0.008284335,-0.016389947,0.00509531,0.002337013,-0.010384717
enchantment,-0.003062544,0.016152713,-0.008832181,-0.003847071,0.007837473,-0.017783746,0.004206914,-0.010995367,-0.008913472,-0.008431634,-0.019002521,0.004456373,-0.003089067,0.008730033,-0.018238641,-0.003305423,-0.000111343,0.017834023,-0.018079123,-0.005095111,-0.00578728,0.007290076,0.004040363,-0.018051319,-0.015907021
encouragement,0.016026964,0.012115778,0.009938314,0.005332772,0.018753104,-0.004216113,-0.009075956,-0.011646037,0.002235329,0.007492362,0.015516394,-0.009687784,-0.000257461,0.013330311,-0.007040048,-0.005488042,0.013120609,-0.003602156,0.005488538,-0.003321302,0.01114253,0.006754739,0.019833446,0.008561048,0.014247656
enjoyment,0.010828553,0.009625339,-0.012461088,0.009722567,0.016478859,-0.003046111,-0.015378837,0.004661838,0.012725649,-0.017226005,-0.006682531,0.014891997,-0.002949251,-0.012607837,0.009612531,0.000461255,0.009846849,-0.009689276,0.006904852,0.011947811,0.002359171,0.016273776,0.008762131,0.008076665,-8.49E-05
enmity,-0.010083539,0.01641618,-0.001790161,-0.011272622,-0.018447882,-0.012499848,-0.008465099,-0.00594373,-0.001467409,-0.012151313,0.00900554,0.004533764,-0.013129667,0.005702722,-0.011568492,-0.017571503,0.000763825,0.019701865,0.015829673,0.002081202,-0.008819989,0.01816556,0.015548883,0.010202603,-0.004582293
enraged,0.018337466,-0.01692975,-0.013536065,-0.012978795,-0.019240705,-0.013698931,0.016174706,0.010118634,0.012173274,0.000543176,0.015597633,0.002836614,-0.01998439,0.01243188,-0.015350645,-0.002652047,-0.01357861,-0.006489256,-0.005785441,-0.008979969,0.000905923,-0.015007591,0.002762528,0.018963134,-0.015245118
entertainment,-0.004703499,-0.012883028,0.013591974,-0.010632481,-0.013884306,-0.016381914,-0.003852736,-0.008747998,-0.014114071,0.002384066,0.003583257,-0.020581089,0.022103906,-0.003510284,-0.002131483,-0.010979224,-0.011186536,0.018668523,0.012909748,0.008798105,-0.019707875,0.008931429,-0.010633478,-0.010331431,-0.00169594
enthusiasm,-0.0103754,0.01101303,0.01880457,-0.00333239,0.01648699,0.003021074,0.01093366,-0.010340824,0.015486389,-0.016637353,-0.009737237,0.01784819,0.000548308,0.002811736,-0.015762603,-0.003543453,0.011454437,-0.008062496,0.015507109,0.015250746,-0.01105975,0.007722947,-0.007131779,-0.004470348,-0.001671362
envy,0.004039137,-0.003415974,0.01318834,1.45E-05,0.016995173,-0.017812325,-0.009917065,-0.015154626,0.018065983,0.014573832,0.013742646,-0.009567847,0.00730004,-0.017617488,-0.002850245,-0.006767847,0.001451641,0.018179247,0.013324193,-0.016547495,0.01706761,0.016760204,-0.01594012,0.013135356,0.017981397
evaluation,0.004182268,0.014390122,0.003776887,-0.01423705,0.00425118,0.010169254,0.007772657,-0.002481852,-0.011970758,0.003273052,-0.017085815,-0.01992576,-0.010841141,-0.013635733,-0.004895218,0.017159572,-0.005159539,0.013314792,0.009680016,0.014930475,-0.014195759,-0.016375454,-0.004853503,-0.011372031,-0.017220944
exacerbated,0.015130893,-0.015636528,0.010654523,0.000520732,0.010890354,-0.005406386,0.003979341,0.019909782,0.003300645,0.000139457,-0.0060629,-0.012031075,0.01342392,-0.002110695,0.003812588,0.016630953,0.001738793,0.00360936,0.016670603,0.018294265,0.009131805,0.008532621,0.007720021,0.014701222,-0.003155775
excitement,0.0036542,0.01986855,0.00153919,0.017857121,-0.018002916,-0.003377216,0.008910514,-0.008966999,0.006934109,-0.006299947,0.02230205,0.006771373,0.005047164,-0.002158504,-0.003217475,0.003408499,-0.014846494,0.002826971,-0.002129024,-0.002720458,-0.016879188,0.013448278,-0.008396921,0.014820282,0.003233916
exhilaration,-0.006101246,-0.014792664,0.004282663,-0.010267486,-0.002746293,-0.01754231,-0.004562257,0.015559656,-0.009377318,-0.003363089,-0.006252706,0.018409034,0.00990299,-0.015952006,0.006879622,0.015452706,0.006221999,-0.001567341,-0.015566304,-0.010849303,-0.010979896,-0.003354966,0.007122898,0.008373411,-0.007519803
expectation,0.003803479,-0.008916675,-0.011475586,0.000670868,-0.008354093,-0.001632941,-0.012845584,-0.003998906,0.017089425,0.009591553,-0.00864026,-0.002227654,0.018379718,0.012174069,0.012003401,0.006074463,-0.014799373,-0.008675381,-0.017266367,-0.008852216,-0.000981254,-0.012229394,0.008414741,-0.010737894,-0.011354947
failure,-0.019443452,0.022259625,-0.004430859,-0.019730682,-0.021312596,0.009735542,0.010635181,-0.015687497,-0.007986806,-0.004929042,0.002013942,0.001922883,0.001563679,0.006174534,0.019145252,0.014026647,-0.023275437,-0.000561341,0.001576681,0.01519014,-0.010281426,0.009573399,-0.012369482,-0.003301842,0.000284868
fairness,0.01035573,-0.013844371,-0.004738412,0.014191936,-0.005423801,-0.01565195,0.010386308,0.015061606,0.005020397,-0.011426084,-0.00946516,-0.001101034,-0.019386716,0.01640976,-0.014779086,0.004432226,0.018129459,0.011812951,-0.00443018,0.013282118,-0.01628685,-0.012552227,0.015806941,-0.007542071,0.000273408
fear,-0.024525452,0.024833828,-0.006209361,0.010771959,-0.028766073,-0.023363322,0.023832902,-0.022301883,-0.020978287,-0.014457477,0.047508936,0.000348713,0.026216196,0.03225561,-0.009298442,-0.007501106,0.003978212,0.004579804,-0.022893758,0.002012515,-0.013800329,0.03502936,-0.008644292,0.010221288,-0.018009862
flabbergasted,-0.013086391,0.001150512,-0.015952226,-0.013101465,0.000613156,-0.003345597,-0.007807505,0.01882475,0.014923525,0.004187224,0.014749278,0.018021848,-0.010467242,-0.004639287,0.002495248,0.01846584,0.004829324,0.012912744,-0.003358773,-0.004917062,-0.001368969,0.00957997,0.001234701,-0.015564276,-0.013420749
fluster,0.014304959,0.013821961,0.007939309,-0.003080262,0.012329666,0.009620557,-0.013105295,-0.002354568,0.004333416,0.014946305,0.002032212,0.010361231,0.018909054,-0.010572365,-0.015110756,0.019241082,-0.000222359,0.01872038,-0.001260878,0.009598585,-0.011497411,0.011815062,-0.01492759,-0.001914546,0.006016976
focus,-0.005512334,0.008370013,0.012878452,-0.010304058,-0.008255209,0.014764937,0.008050445,-0.012325881,0.007522246,0.0173777,0.018056799,-0.001384527,-0.017056696,-0.005046581,-0.004067738,0.011316918,0.01579368,0.012521175,-0.015423196,-0.010694108,0.018820606,-0.008506221,0.009224773,-3.91E-05,0.004409429
fool,-0.027713832,0.018445179,0.026062923,0.004093748,-0.002605445,-0.011808951,0.043806795,-0.043010812,-0.024358075,-0.004219205,0.03993926,-0.033292238,0.02056397,0.022134408,-0.0094887,0.012671663,-0.01048306,-0.008315641,-0.034441125,0.010092766,-0.013892298,0.034924537,-0.03263273,-0.004094958,-0.014397176
forgiveness,0.002712229,0.009721144,-0.018813571,0.015350781,-0.008293492,0.009719303,-0.017140241,0.014552736,-0.001668664,-0.017158672,0.011897653,-0.006060978,-0.018350346,-0.014443965,0.007920257,-0.005805175,-0.003218436,0.011863143,-0.011463267,-0.006467747,-0.013558939,-0.014619259,0.012277577,-0.00638448,-0.017490894
forlorn,0.005917389,0.015580038,-0.016429057,-0.014077635,0.016930707,-0.009789025,-0.018118389,-0.00078076,-0.017432347,-0.005370451,0.016156843,0.010551905,0.01446173,0.000522395,-0.01287246,0.002875566,-0.010219555,-0.006482951,0.016337687,-0.01592037,0.007959338,-0.002821896,0.007029771,0.000915304,0.010745687
frazzle,0.017657941,0.01996939,-0.008242711,0.002352193,0.015608816,0.019983677,-0.01013028,-0.01782709,0.014936185,-0.002074739,0.010529053,0.00604205,0.014584458,0.005474498,0.009879016,-0.007963758,-0.006194223,-0.006418283,-0.016880868,-0.018375825,0.015330912,-0.010849004,0.015508561,-0.00668256,-0.007719842
fright,-0.004065945,0.014312475,0.010176033,0.006111965,0.005825756,0.015851894,-0.01112761,-0.017624665,-0.010511976,0.010283097,-0.007424943,-0.01201437,0.007671586,0.019987613,-0.003428866,0.003044638,-0.005142848,-0.019659389,-0.010573105,0.017237294,0.001222046,0.008950803,-0.019763058,0.002540299,-0.014500723
frustration,-0.00669475,-0.015344718,0.014922891,0.01248025,0.003354955,0.006006835,0.014885234,0.002750382,-0.006498161,-0.010705572,0.009284826,0.019887455,0.003513763,-0.011018351,-0.00989024,-0.003116506,0.014689264,-0.005997887,-0.019631805,-0.008848459,0.010255793,-0.013605611,-0.011964747,0.001841882,-0.000980522
funky,0.002543002,0.015572283,0.003361279,0.004860521,-0.016278012,-0.002266761,0.016476208,0.019636974,-0.01731837,-0.019146593,0.004145672,0.001823861,0.007214984,0.002069173,-0.019778842,-0.01664068,-0.016065322,0.000133974,0.008443482,0.000134351,0.005094015,-0.006959545,0.004786001,-0.013837842,-0.011000887
furious,-0.000803537,-0.004785951,-0.007067788,-0.005249147,-0.002245565,0.01664085,0.000117703,0.004046414,0.018661061,0.005054356,0.011395398,-0.009786023,-0.00568285,0.02193954,0.007385681,0.013278256,0.006303302,0.00271631,-0.006247225,0.012549922,-0.011915558,0.01625844,-0.019043656,0.010213125,-0.01072165
fury,0.012720956,0.005386324,0.008082341,-0.010061094,-0.018686805,0.010134599,0.007904775,-0.014218424,0.009959282,-0.013736908,0.008705718,0.004955213,0.00397429,-0.001302376,0.019382877,0.007775316,-0.004235326,0.01564678,0.009096551,0.012976899,0.013896558,0.013956432,-0.016040325,-0.020327857,-0.007497667
gladness,-0.00340646,-0.011194056,0.019433675,-0.013653533,0.014087508,0.019157683,-0.00186309,0.013025559,-0.010579531,0.010257336,-0.016773308,-0.019256111,-0.003801422,-0.005295983,0.003091556,0.006232217,0.004102326,-0.004524498,0.012011664,0.011785847,-0.000764639,0.006452818,-0.017075287,-0.017429285,0.011443396
glee,-0.013302601,0.016286949,0.021138,0.013870903,-0.011037414,-0.000746471,0.013248055,0.007727853,-0.008628063,0.009457199,0.00240096,0.017226635,0.014128503,0.021928065,0.013587457,0.001450407,0.009294718,0.007438301,0.013220231,-0.003795007,0.006241083,-0.011696397,0.007057155,-0.00677638,0.01245872
gloom,0.018244363,-0.013410532,-0.018680634,0.01629164,-0.000240838,-0.008340719,0.000631937,0.015969694,-0.017854182,0.016747547,-0.009382562,-0.00027813,-0.008016375,-0.000237887,0.013964945,0.008049023,0.015529637,0.008130147,0.012001953,-0.013126322,0.013356024,0.018344086,0.018669672,0.013943748,0.01974526
glum,0.004827044,-0.00718103,-0.010062324,-0.015730873,0.01535962,0.011969573,0.004465966,-0.019352064,-0.000150366,0.017134918,-0.016160924,-0.007533771,-0.004780049,0.006153184,-0.017566225,-0.012616219,-0.013299685,-0.004992416,-0.000340932,-0.001076306,0.009168719,0.010746315,-0.009306591,0.006219932,0.013591655
good,-0.14519155,0.2793869,0.17524198,-0.00769028,-0.16790079,-0.19145474,0.5653898,-0.29965016,-0.19495094,-0.13178758,0.5264524,-0.15262017,0.078153975,0.30996948,0.065117806,0.036100343,-0.18090177,-0.005621533,-0.18203804,-0.096346796,-0.30512536,0.23094428,-0.24879923,-0.022305578,-0.14023432
goodwill,0.015194917,-0.018257698,0.00968142,0.01791949,0.000297036,-0.008062691,-0.008923095,0.017071733,-0.001712202,-0.0178611,-0.005975276,0.011702663,-0.010105675,-0.016841237,-0.008318821,-0.005264404,-0.00459526,0.000755676,-0.001079434,0.007930672,0.010904121,0.011932314,-0.005181915,0.009836491,-0.004570205
goofiness,0.012883204,0.000363122,0.008371055,0.013374776,0.007665311,-0.006817334,-0.000120546,0.00150927,0.01935286,-0.012150804,0.006470679,0.002357476,0.002933885,-0.014769102,-0.009463115,0.017004292,0.010493725,0.00917961,0.013787041,-0.001482007,-0.013022939,0.017939487,0.010263223,0.006781214,0.006343765
gratefulness,-0.01321706,-0.006091086,0.001505257,0.015157929,0.006948575,-0.009264219,-0.001557568,-0.018833332,0.016524969,-0.00752198,0.004757789,-0.011732657,-0.012510784,-0.010875674,-0.002759028,-0.005726522,-0.003746645,0.019851949,0.006704312,0.002573516,-0.007284055,0.001582797,-0.004594917,0.008109693,-0.017188272
greediness,0.016300634,0.01710749,0.005791957,0.007877032,-0.018453604,-0.004356384,0.01462773,-0.004675516,-0.004452549,-0.006723673,-0.015560957,0.012509854,0.013724637,0.010773343,0.015253224,-0.013121368,-0.000315412,-0.011633477,0.014848521,-0.003235562,-0.009921009,0.005873951,0.00575576,0.015551626,-0.009260997
grim,0.018652495,-0.004851092,-0.01853071,-0.010195484,0.00271542,-0.013586958,-0.003099012,0.001719245,0.015353221,0.017374525,-0.002421224,-0.006880868,-0.004489018,-0.010497073,-0.003970076,0.01920642,-0.003014089,-0.010946606,0.013336571,0.017552366,0.00358552,-0.00550041,0.004169556,0.002496269,0.010478759
grouch,-0.01607264,-0.003065856,0.019040862,-0.008641598,-0.012201308,-0.009725414,0.01078033,0.017598053,0.018136257,0.002496186,-0.003831109,0.002952741,0.019980438,-0.004488978,-0.012988045,0.015816778,0.008203378,-0.007164206,0.001891935,-0.005440047,0.005951806,-0.01923862,0.004288364,0.003167454,-0.019286437
grumpiness,0.002502655,0.010357082,0.012673668,-0.004729641,0.016002301,-0.009936386,-0.015815793,0.002342759,0.004100283,0.007505794,0.017438978,-0.01905199,0.000700593,-0.007230299,0.002338524,-0.013661156,-0.002793056,-0.01378778,-0.013898822,0.019709263,-0.017605608,0.006188341,0.007366173,0.016114106,0.01238524
happiness,-0.010411102,-0.008404835,0.02648603,0.013155493,0.009010344,-0.005940866,0.007014686,-0.002757052,0.000492126,0.012528265,0.022299308,0.007971902,0.01989267,0.015879326,0.002252926,0.011167851,-0.004432636,0.016500661,-0.015597354,0.000575688,-0.026224868,0.014410974,-0.009911491,0.014161363,-0.018804757
harassment,0.009442364,-0.001435391,0.00331477,0.018754797,0.01407559,-0.004479023,0.014359531,0.00483423,-0.018450594,0.010977498,-0.008405402,-0.001374064,-0.012839947,-0.013820957,0.013737546,-0.004304748,-0.016614523,0.015347776,-0.019166915,0.014308853,-0.007530289,0.010206126,0.002153121,-0.007564514,0.008700181
harm,0.008346843,-0.005508466,0.004745704,-0.004193008,0.019630518,0.006578676,0.003550005,-0.011360898,0.006653945,0.000946743,0.009021677,-0.000223929,0.000932595,-0.007521791,0.003157583,0.0187593,-0.015737081,-0.019171191,0.003396449,-0.002744845,0.016304187,0.01897138,0.009211369,-0.001040337,0.010165938
harshness,-0.013749556,-0.011583433,-0.013083221,-0.007957057,-0.00563492,-0.010231486,0.015778355,0.006520377,-0.003704099,-0.01353553,-0.002031705,0.000578062,-0.010376623,0.005909888,-0.006521573,-0.005237904,-0.002034002,0.003504542,-0.004605138,0.018540503,0.009531755,0.007743215,0.010921632,0.006658472,-0.009760989
hate,-0.12959011,0.21702248,0.15752198,-0.005938762,-0.13333772,-0.16228572,0.432633,-0.27860624,-0.15854777,-0.0902445,0.4389263,-0.12045662,0.0734458,0.22696887,0.04521072,0.047802128,-0.15235774,-0.025310867,-0.15373805,-0.052214243,-0.23284915,0.19687809,-0.18419373,-0.024128193,-0.108090416
haughty,-0.017706417,-0.000157523,0.00110716,-0.010807495,0.003007436,-0.00992704,0.014640581,0.018648092,-0.017855078,0.01603728,0.009159297,-0.008317826,0.009667451,-0.006033613,0.01824859,-0.009421078,-0.001361205,-0.008606015,-0.01104197,0.011878268,0.011739147,0.01581849,-0.012679473,0.016404543,-0.010178326
heartbreak,0.001897903,0.01188388,0.00203158,-0.010783464,0.01224105,-0.018213952,0.004693769,-0.003898262,0.012207326,0.011502552,0.025717694,0.003797805,-0.000793238,0.009691454,0.015879389,-0.013504843,-0.008238575,0.001084081,0.01477754,-0.008414703,0.011380539,-0.009913,-0.014187985,-0.016342191,-0.005588337
heat,-0.001347801,0.022888448,0.007113645,0.004349462,-0.015869379,-0.01945438,0.03603875,-0.019540053,-0.0235361,-0.00835671,0.029338613,-0.022830676,0.018009534,0.037637327,-0.00326753,0.01786058,-0.010452005,0.002925378,-0.012024615,-0.007651647,-0.034713905,0.023543226,-0.040258806,-0.013789251,-0.018108547
helplessness,-0.014162555,-0.001151325,0.019878063,0.010304756,0.006223165,-0.006371697,0.010038264,-0.007404031,0.015145697,0.007038318,-0.010745016,0.006021937,-0.011370193,-0.017186334,-0.006644185,-0.01443016,-0.010681899,0.011003479,-0.002690799,-0.008723266,0.013469994,-0.018925909,-0.004407579,-0.001412554,0.009073872
hesitation,-0.001309582,-0.0130546,-0.001766448,0.017523108,0.00564705,0.015849873,-0.009148431,0.019369846,-0.000995491,-0.019949524,0.012360267,0.004498528,-0.019486148,-0.004789607,0.015989918,0.012219762,-0.001242054,-0.006936982,0.015058676,0.018170632,0.006795846,0.000669974,0.001428701,0.002027404,0.014326953
honesty,-0.020444538,-0.007037026,0.00487314,-0.001270578,-0.008207874,0.009809967,-0.009205444,0.015210421,-0.009078515,-0.018841714,0.014182146,0.003064785,0.014134173,-0.002443922,0.012131774,0.009156546,0.015574737,-0.002243836,0.000401141,-0.0103068,0.011228834,-0.010225541,-0.017120212,0.002395082,0.000769542
hope,-0.075772665,0.19074847,0.12810545,0.012607154,-0.10964464,-0.13131322,0.37243852,-0.23599131,-0.12738061,-0.101540014,0.34261477,-0.13813418,0.045860793,0.20821542,0.049604844,0.031290453,-0.13369171,-0.02099587,-0.15232785,-0.053781662,-0.18380985,0.15162735,-0.17152928,-0.031484198,-0.09860675
hopelessness,-0.002685984,0.007663469,0.009293609,0.009013948,-0.012404225,0.011320275,-0.004187603,0.009286289,-0.016586907,0.000277622,0.004360248,-0.003234202,-0.019007528,0.015527525,-0.001603816,-0.001643281,0.015365339,0.017003981,-0.017329264,-0.003419296,-0.01389095,0.005866021,0.005980962,-0.005470526,0.008008088
horror,-0.01630701,0.011411985,0.032043338,-0.013816512,0.001227822,-0.012395133,0.06371525,-0.014161514,-0.017108155,0.007952551,0.056801926,0.002556245,-0.005691174,0.015885008,-0.014064768,0.023918161,-0.028328,-0.008957744,-0.02129964,0.001557886,-0.030672478,0.007291533,-0.010981851,-0.020355694,-0.027329175
hostile,-0.012207235,-0.001712995,-0.004743739,-0.004440777,-0.021880439,-0.007796625,0.007059538,-0.017031929,-0.001172084,0.006221839,0.024288973,-0.008579372,0.017653782,0.002958373,-0.010341586,0.007385007,-0.003843616,0.01357706,0.012995215,-0.004706393,-0.00616766,-0.003229165,0.008191686,-0.002771511,-0.01054526
huff,-0.019636719,-0.011462016,-0.000176877,0.017377857,-0.018550156,0.01556585,-0.005194856,0.004018783,0.003362411,0.007350478,-0.010331994,-0.001594092,0.010987647,0.000197321,-0.004234142,-0.008753005,0.004688254,0.007052817,0.00403922,0.007811717,-0.010755438,0.010020923,0.019405989,-0.006497042,-0.018001523
humor,-0.015144531,0.014441468,0.014061229,-0.018231634,0.00737382,0.000686844,-0.018693136,-0.001785579,0.002652984,-0.003944738,0.013607387,-0.017576806,0.011378204,0.003314357,-0.009485122,-0.004370018,0.002209585,0.016559178,0.017923398,-0.019626148,-0.01549327,-0.016348034,-0.018905066,-0.018890709,0.011236157
hysteria,0.018220175,0.007710533,0.019580577,-0.008023063,0.015372261,-0.009648743,-0.002907054,0.015503949,0.010244037,-0.010110542,-0.00102594,-0.017059049,-0.008429659,-0.01737409,-0.006850477,-0.004260334,-0.016420033,0.005368029,-0.008351085,-0.004870563,-0.006769682,-0.000782538,-0.01893513,-0.003834739,-0.012534563
imagination,-0.000254131,-0.017595062,0.017083075,0.001655156,0.001906195,-0.00236286,-0.012345655,0.00614559,0.017249767,-0.01930522,0.008036754,-0.007735387,0.00188527,-0.005340243,-0.013522769,-0.011694325,0.010172325,0.016901582,0.006712418,0.008751934,0.00878678,0.015360946,-0.007833524,-0.006769899,0.001612413
impression,0.008368309,0.000514878,0.013891754,0.007344423,-0.00935052,-0.010944743,-0.006893266,-0.002160884,-0.010495737,0.009625175,0.014674242,0.012560523,-0.002348648,-0.003922393,-0.01696337,0.008847996,-0.008036709,-0.011661341,0.002794202,-0.010684365,-0.011903764,0.005426894,0.015263397,0.013190715,0.003803606
improvement,0.006717676,-0.009716108,0.013492339,0.009385881,-0.001975654,0.01722627,0.013872632,-0.018721716,0.012667099,0.006347096,0.01832682,-0.001702147,0.004295691,0.009184256,-0.01679856,0.006870973,-0.010524384,-0.013284408,0.009917177,0.001699321,-0.017143346,0.016293077,-0.004399916,0.00045777,-0.017960109
indifference,0.00154531,-0.003710823,0.001893547,0.012889336,0.013281112,-0.00217016,-0.010531675,-0.015690127,0.001141879,-0.002263607,0.010349995,0.011583313,0.007637327,-0.011463963,-0.000484264,0.01187648,0.013617506,0.007979643,0.003442548,0.011357995,-0.014628299,0.005607436,-0.000968791,0.002804785,0.011020931
indignation,-0.001967672,0.003194415,-0.007926133,-0.014756172,0.015214258,0.002748139,0.001488234,0.010069639,-0.000186434,-0.01155652,-0.018785475,0.005091673,0.001343475,-0.01593769,-0.001010219,0.002958642,0.004823791,-0.013940618,0.001073062,-0.017751396,0.011748615,0.01701721,0.01869139,0.00280507,0.001574217
insecure,0.017881336,-0.000921671,0.011348507,0.017583273,0.008486034,-0.006398873,0.004052031,0.008787711,-0.000202944,-0.005236012,0.003704239,-0.006845395,0.007764231,0.003289437,0.009231712,-0.001352742,-0.018301986,-0.010844803,0.004328163,0.01480271,-0.014029505,0.019183638,-0.02108247,0.001573659,0.000169513
insolence,-0.009516661,0.004358211,-0.015874572,0.009416915,0.012435339,-0.008655262,0.000636647,0.002888055,-0.011621506,0.009366222,0.015628906,-0.009273588,-0.00910842,-0.003668188,-0.004493048,0.019905586,0.017128838,0.014268129,-0.000728789,0.010880291,0.011800203,-0.014988556,-0.013788232,0.00908579,-0.013361936
interest,-0.008641224,0.011041412,0.03586526,0.006407087,-0.035527084,-0.0361698,0.061573222,-0.018059373,-0.009234312,0.003640714,0.041911356,-0.024485711,0.004506685,0.017180946,0.023262331,0.008748668,-0.004542822,0.003496053,-0.03957667,0.009223796,-0.03851349,0.03196333,-0.031157138,0.009668934,-0.031702243
intimidation,-0.01588259,-0.002728724,-0.014441584,0.005736657,0.016490076,0.01752769,0.000244285,0.008556964,0.007217654,-0.007998743,0.019823067,-0.014981695,0.000393341,-0.003092357,-0.004478849,0.007598622,-0.006330264,0.010587337,-0.018149225,0.00194613,-0.016747288,-0.0093981,0.003506686,-0.001424039,-0.011709861
irate,-0.005380107,-0.008091884,0.013346196,0.00305162,0.018740153,-0.013720676,-0.014773487,-0.018487403,0.010581478,0.019154787,-0.007533073,0.003209423,0.013023578,0.0158382,0.013332879,0.003876757,-0.009718589,0.008877343,-0.008067884,0.010938191,0.000458447,0.017531345,-0.000196649,0.008022481,-0.000625378
irked,-0.014619573,0.007220786,0.016105702,0.016641855,0.014449532,0.012693872,-0.006922829,-0.011995605,-0.005116178,-0.019097336,-0.008425704,-0.015476158,-0.006883721,-0.01065128,-0.016397662,0.019448584,-0.006041605,-0.003572524,-0.007868993,0.007074128,-0.003595033,0.004895955,0.007512938,0.015835404,-0.011396531
irritable,-0.011493466,0.010697121,-0.003403307,-0.00430756,-0.002936942,0.016364694,-0.019709438,0.018137671,-0.003251765,0.002937528,-0.010055595,0.01287699,0.015313267,0.011831938,0.017375894,0.010450591,0.011715431,-0.00710781,-0.015867855,0.013469581,-0.016062912,-0.002110502,-0.000372313,0.012510902,-0.00275456
irritation,-0.006553073,0.01929885,0.012565491,0.005500162,0.010007136,0.003316833,0.018188754,-0.019258512,0.003803183,-0.011610949,-0.003808342,-0.019693892,-0.016516171,0.006680128,-0.003632397,0.009839007,0.000800528,-0.005185121,0.015390264,-0.019670129,-0.002799134,0.005172398,-0.000289532,-0.007178517,-0.016091969
jittery,0.001944494,0.014799072,0.017332874,-0.010441647,-0.013311326,-0.005365891,0.016123353,0.017510718,0.014530477,-0.008527393,0.009435513,0.002470414,0.013232199,-0.001294799,-0.013402634,-0.006248411,-0.014679902,0.006485602,0.012163231,-0.016492907,-0.017294195,-2.58E-05,-0.002548634,-0.01742736,0.003435267
jolt,0.005773505,-0.004850315,-0.013533722,-0.008181615,0.008953873,0.005228616,-0.017343838,-0.015456046,0.001943444,0.00256544,-0.019574689,0.010363722,0.00674287,-0.00550484,-0.001689054,-0.011221308,-0.007814034,-0.012811576,-0.001242536,0.017552791,-0.017647007,0.009326499,-0.000542614,0.013970513,0.014091196
joy,-0.006652243,0.01766051,0.025664752,0.01531203,-0.00205493,0.009588513,0.023708371,-0.008777015,0.001754559,-0.004136218,0.014395546,0.006101149,0.006991778,0.025226872,-0.00110205,-0.003868399,-0.006874551,-0.017333157,-0.006690944,-0.003326444,-0.023427907,-0.003460173,-0.023518758,-0.016139505,-0.007925224
joyfulness,-0.009761438,0.009735256,-0.000712697,0.009794,0.008900878,-0.011765921,-0.011537024,0.005397038,-0.002350975,0.008102152,0.001894073,-0.011848781,0.009057069,-0.002013542,-0.013963862,1.81E-05,-0.002794063,0.012339857,0.011566292,0.001144161,0.000881012,0.016978431,-0.007017234,-0.002742915,-0.011680233
jubilation,-0.005152522,0.019273717,0.003766365,-0.006062141,0.009915759,0.012795015,-0.010778433,-0.000399806,0.01248291,-0.009168616,-0.006364038,-0.010187975,-0.01971206,-0.008288745,0.009782422,-0.004466678,0.009073412,0.016734341,-0.004189577,0.012030254,-0.006421488,-0.004132655,-0.001271861,0.016104488,-0.016633568
jumpy,-0.013740355,0.009959609,0.009725787,0.011789737,-0.019140795,-0.013858561,0.019832196,0.01803988,-0.005420279,0.011026611,0.0195208,-0.00953955,0.007387043,-0.000340743,-0.011526046,0.01245357,0.002554422,-0.00935923,-0.010247353,0.00801233,0.011952301,0.019140981,-0.019895844,0.001719959,-5.92E-05
knowing,-0.01941044,0.011268152,0.021162668,0.002148793,0.001750212,-0.015219373,0.027098084,0.006519781,0.0073692,-0.004036271,0.020817641,0.006341059,0.004402722,0.015312406,0.010233562,0.02039063,-0.01206274,0.018259082,-0.000298599,0.004656904,-0.009638413,0.0004195,-0.013846469,-0.012639415,-0.022026414
knowledge,-0.017954407,0.008409424,-0.001243095,0.008532245,0.009126045,-0.018880092,0.018304493,-0.004977851,-0.014949075,-0.006969658,0.013716648,0.00629595,0.004580008,0.018996477,-0.008228003,0.009277629,0.013294163,-0.001444186,-0.008421786,0.014408032,0.006754436,-0.008368364,0.000364345,0.005566332,-0.003939911
laughter,-0.002472522,-0.012700593,-0.007638588,0.005242133,0.018016705,0.010958199,-0.007215781,0.009722976,0.013414823,0.013773654,0.018027315,0.01397748,0.01614327,-0.016091088,-0.01145047,0.005192639,-0.005159504,-0.0149095,-0.013695478,0.001734405,0.001573037,0.018099537,0.003169232,0.012427088,-0.013052556
letdown,-8.46E-05,0.013001645,-0.007469703,-0.017879114,-0.007396447,0.006158938,-0.017179158,-0.001151562,-0.004816403,0.001657678,-0.000282005,0.00894826,-0.013714759,0.010156527,0.017364169,0.001482187,-0.007289973,-0.001160061,0.005032092,-0.001694962,-0.010666112,-0.013874179,0.016771225,0.017329525,-0.019246286
lethargy,-0.017430004,-0.013636801,-0.001634927,-0.01226535,-0.016174003,-0.010524211,0.012103309,0.002856199,-0.006209104,0.01265284,-0.005538337,0.005329193,0.004709595,-0.004240995,-0.007834496,-0.006225511,0.017870318,0.012735751,0.000490708,-0.014989709,-0.018774394,-0.009926576,0.007533862,-0.011677753,0.01324584
loneliness,0.012267606,0.007392655,0.012971687,-0.006553979,-0.000704217,0.011786925,-0.010176551,0.011089979,-0.001948492,-0.011557127,0.009582409,-0.002450133,-0.007253397,0.006778575,-0.012669561,-0.012649811,0.010014782,-0.009078591,0.007171442,-0.0101274,-0.006530603,0.002627554,0.00120468,-0.001121861,-0.015312326
loss,-0.017177805,0.028306464,0.015447198,-0.011909886,-0.017617142,0.00332749,0.020887101,-0.003356448,-0.025995279,-0.022074295,0.02403652,-0.008755761,0.023537895,0.036739234,-0.007685627,-0.000194068,-0.019463442,-0.005328363,-0.000988879,-0.006699477,-0.007598708,0.025160333,-0.022811832,-0.001602162,4.28E-05
lost,-0.05606955,0.09018355,0.04799249,-0.005145336,-0.04874998,-0.040667795,0.19224659,-0.103856795,-0.04686907,-0.06013223,0.19682391,-0.05439767,0.041227702,0.09962037,0.009366637,0.03699032,-0.04506163,-0.006114678,-0.072862186,-0.0280294,-0.08765998,0.07385933,-0.066243306,-0.023711415,-0.07015927
love,-0.18827808,0.3457673,0.23529565,0.018590404,-0.18557061,-0.22681312,0.70435256,-0.4210643,-0.2157032,-0.15447408,0.66926813,-0.2351682,0.10113726,0.39265895,0.05029922,0.08067952,-0.23790877,-0.044919714,-0.2539049,-0.09262576,-0.37381384,0.29302174,-0.3277245,-0.046605356,-0.18904229
marvel,0.009074002,-0.013981999,-0.009819689,-0.003743825,0.019620594,-0.00553569,0.014970623,-0.000530524,-0.006266012,-0.016847063,0.007880728,-0.014785072,0.014356464,8.02E-05,-0.007673009,-0.008752746,0.01626023,0.004388508,-0.009693071,0.013222661,0.018620733,-0.012472152,0.002640969,0.00607012,-0.018791627
mediocrity,0.018024264,0.014990483,0.000827603,0.004749775,0.004773662,0.019222843,0.009675517,-0.007144868,-0.012748254,0.000551682,-0.016172256,-0.001012494,-0.017622482,-0.00524172,0.004433491,-0.017941453,0.00338684,0.009432561,0.018863577,-0.0147043,-0.014807455,-0.018879233,0.007929576,0.013403618,0.012910914
meekness,-0.012900138,-0.017774433,-0.011780803,0.011810925,0.013887427,-0.013398949,0.00881256,-0.017233755,0.019104585,-0.015795372,0.005555741,0.009198368,0.01118981,0.017147621,0.007692599,0.007565538,0.018600803,-0.0197512,0.01136027,0.019818563,0.007492022,-0.019834528,-0.014117796,0.003086351,-0.002957176
melancholy,0.003681937,0.012458733,0.008334283,-0.011177485,0.003989193,0.007508697,-0.019229682,0.009689315,-0.001066653,-0.007176977,-0.016005449,-0.017365176,0.007408319,0.017151924,-0.001654293,0.001802517,-0.00236474,0.008997526,0.013566332,-0.007710914,0.005324118,0.012978988,0.010191347,0.008591621,-0.012451557
miracle,-0.001145521,0.018533621,-0.00480369,0.00422696,0.001576869,0.014350713,0.02688688,0.012519571,0.00466372,0.008569139,0.026747169,0.013247594,0.018021846,-0.007184315,-0.006430474,0.006695269,0.01546342,0.007327701,-0.015691008,-0.013543545,-0.007560327,0.023614043,-0.0167653,-0.017701143,-0.006626515
misery,-0.004507394,0.012319393,0.006236759,0.011751849,-0.006684234,-0.016917227,0.015892075,-0.013100338,-0.014698204,0.003115439,-0.009806449,0.002399326,0.01349448,0.020618469,-0.013220896,-0.011863794,-0.016010294,-0.01652157,0.016095994,0.01750606,0.000215083,-0.017383365,-0.013973266,-0.005498449,0.009599111
misfortune,0.019870983,-0.013238439,-0.011499526,0.017719487,-0.017057704,0.004822028,-0.011743092,0.015685292,-0.00657521,0.014711484,0.003017523,-0.000881993,-0.008610141,0.019312883,0.006735248,-0.003963055,0.006363759,-0.007059196,-0.001120445,0.01946194,0.019793533,-0.015067541,-0.000901867,-0.010529827,0.018676748
mistake,0.017589504,0.017735187,-0.003777555,-0.000401205,0.016428718,-0.009410638,-0.004787171,-0.010920884,0.007802142,0.005355116,0.024891052,-0.001154957,-0.008995877,-0.007834381,-0.018650364,0.008619313,-0.004742341,0.009458575,-0.012709075,0.017519617,-0.020792473,0.014085375,-0.023027565,-0.00735062,-0.007209902
mockery,-0.014015822,-0.003053831,-0.012904821,-0.012335717,0.013411944,0.00307542,-0.001010809,0.001355612,0.002974559,-0.014521845,0.005505584,-0.001000995,-0.01694932,0.015718162,0.006113498,-0.003795373,0.00575768,0.003723942,0.008660307,0.000989627,-0.012972883,0.006822493,0.005252829,0.015250119,0.009680612
moodiness,0.01622189,0.010988642,-0.008650677,0.011844804,0.004330265,-0.014140001,0.007526101,0.00233345,0.018815905,-0.002671255,-0.004735861,0.005551153,-0.000622157,0.018021053,-0.006908073,0.018424505,0.005863315,0.019803537,0.01101043,0.00565561,0.007858297,0.019011203,0.003880596,-0.007820683,0.001689672
motivation,-0.003803235,0.026021263,0.015185259,-0.013454601,0.01143815,0.005740644,0.025700403,-0.018608926,-0.002504578,-0.016279913,0.026557175,-0.007276821,0.0166148,0.019957393,0.019754218,-0.011959132,-0.005029933,0.014815006,0.012011915,0.008139754,-0.023461087,0.0197016,0.01157185,-0.019639162,0.003360399
naughtiness,0.008687357,5.19E-05,0.018070472,-0.00561892,-0.019173972,0.009762321,0.005692793,-0.007820659,-0.017600527,0.013478909,-0.010242226,-0.010428063,0.012401354,-0.012243419,-0.018780453,0.013982507,0.008551033,-0.004379815,-0.001640779,0.005263155,0.010378206,-0.012984331,-0.003701948,0.000554743,-0.010328697
nausea,0.003018602,0.003903381,-0.018328343,-0.017580148,-0.014786351,-0.016330631,0.003691576,0.001304236,0.00525611,0.001384818,-0.019573547,-0.004141254,0.008119553,0.015198648,-0.00751833,0.015277807,0.001262417,0.001417864,-0.016483353,-0.015647478,0.017529521,0.011999226,0.008890777,0.005919387,0.000141017
negativity,-0.010983842,0.018308906,0.007962532,-0.010248215,0.01708838,0.014737988,0.013852789,-0.018623779,0.012198451,0.002774476,0.010927453,-0.013142994,0.00074514,0.01726976,-0.010699637,0.007787923,-0.010028443,0.008236776,0.003728118,-0.011423158,-0.01786068,-0.009934497,-0.002918171,-0.016076768,0.00845073
nervousness,-0.014846724,-0.014658512,0.010276588,-0.004544783,-0.005324066,0.015312731,-0.00914602,0.016306708,0.015992943,0.003511805,-0.01954134,0.004696144,0.018687258,0.002645363,0.002638398,0.008686102,0.016690608,0.01186162,0.014596367,-0.013423324,-0.002223819,-0.000630789,-0.004538966,-0.005249965,0.007524692
neutral,0.008620095,0.006201295,-0.01997197,0.009238184,0.004065767,0.010909453,0.014866444,0.007762005,-0.008292764,-0.00703094,-0.019216573,-0.008746699,0.004771745,0.003965598,-0.003164558,-0.001908179,-0.019205922,0.005266181,-0.00308621,-0.003422998,-0.002626066,-0.008468375,0.00587407,-0.015370391,-0.006145781
newness,-0.005145222,-0.006463342,-0.01410151,0.004094492,0.004393268,-0.00318584,-0.005560329,0.005454993,-0.010782567,-0.016075542,-0.014432525,0.007635592,-0.015141476,0.014433961,0.001456399,-0.009286894,0.007385426,-0.00955399,-0.011841065,-0.005086031,0.003208912,-9.74E-05,0.00235241,-0.018914975,-0.017817415
niceness,0.002125998,0.014277531,-0.007299338,0.012436917,-0.007927128,-0.014445024,-0.011851221,-0.001633124,-0.019022012,0.0197694,0.016790165,-0.0118519,0.007472345,0.017558783,0.019430894,-0.002153491,-0.006584881,-0.013356514,0.002546982,0.017917035,0.019567693,0.018585907,-0.001300203,-0.000848673,-0.004187049
normal,-0.03731991,0.044674937,0.020017529,-0.014215658,-0.008510968,-0.014769576,0.061689135,-0.03283412,-0.03600686,-0.014688796,0.0762668,-0.034789845,0.013273265,0.04330089,0.004624181,0.011195208,-0.035013244,-0.011836595,-0.009348368,-0.018594965,-0.05197505,0.034508478,-0.026114244,-0.018065196,-0.007521339
numbness,0.017733704,0.011720231,0.008191058,-0.007262905,0.004706839,-0.010236774,0.001053011,0.015300735,0.010895397,-0.006107511,-0.001194472,0.014526745,-0.019572591,-0.004140395,0.014847255,-0.009750102,-0.008925799,0.002316916,0.000854284,0.010061243,0.012127488,-0.017577935,0.009139837,-0.007372299,0.006050197
observance,-0.008296759,0.015441004,0.007081454,0.009623215,0.016959341,0.018261427,0.003657766,0.008715755,-0.002833041,-0.01712204,0.007376253,0.016419299,-0.011272664,-0.000585979,0.018090142,-0.012960591,0.008324794,0.001038141,0.008746009,-0.018077957,-0.003926274,0.002367262,0.003720602,0.002305138,0.010299774
offence,-0.013196549,0.01727809,-0.002973939,-0.017088996,0.01254232,-0.000664875,0.015876114,-0.001278444,-0.00843452,0.011806848,0.014786623,-0.018248193,0.005358862,-0.008199519,-0.008680016,-0.017692404,-0.004683761,0.002819647,0.011408735,-0.004385932,-0.017728457,0.023129303,-0.009509281,0.017245237,-0.012756959
outrage,0.008009958,0.01977319,-0.009526773,0.014852455,0.000488287,-0.004609873,-0.015587192,0.016146759,-0.008909247,0.012234469,0.010306233,-0.004829949,-0.006206365,0.0047144,0.001304666,0.012980497,0.009826578,0.019360429,0.018352602,0.017821135,0.002851882,-0.019642854,0.003370528,-0.01897446,0.017822398
pacific,0.011965479,-0.017668763,-0.004937436,0.013794539,-0.004725269,-0.009106841,0.019472802,-0.018946942,-0.012939761,0.001112623,-0.01359054,-0.010171233,0.002734301,-0.005803851,-0.017761044,0.01715826,-0.015777152,-0.007911366,-0.018009195,0.006719342,-0.012139131,-0.009471497,-0.0080421,0.019506387,-0.003044859
pain,-0.009574678,0.029664058,0.01508554,0.015708895,-0.002696126,-0.033230316,0.035244025,-0.028980095,-0.013035048,-0.01924931,0.026950538,-0.003699291,0.012587747,0.023571875,-0.000105299,0.006123584,-0.010268523,-0.007910607,-0.029207442,0.001342231,-0.04141564,0.03736497,-0.03850908,0.011974908,0.000788707
panic,-0.005219343,-0.004772316,-0.006564116,0.019893374,-0.016594134,-0.011431077,0.009539265,0.00127888,0.00602497,-0.007520255,0.007260336,-0.015115112,-0.011704396,0.011965624,0.016997905,0.017576886,-0.013636442,0.000753393,-0.02820916,-0.020625804,0.005008524,0.005405237,0.004617014,0.002925676,0.00566389
peace,-0.005320812,0.016651977,0.018894793,0.008851822,-0.021253737,-0.029699307,0.06583625,-0.026757283,-0.035828587,-0.000765585,0.058537077,-0.02289344,0.003204621,0.047907975,-0.009535647,0.020391451,-0.04073031,0.006332805,-0.010563703,-0.025902184,-0.05223113,0.03887231,-0.04298554,0.007297227,-0.000234408
perplexity,-0.003698598,0.003056167,0.00264578,0.013992379,0.012950118,-0.004430816,-0.007194204,0.013674893,0.008664371,0.008824812,0.002237173,-0.009260716,-0.010035479,-0.015490811,0.005749967,-0.015396967,0.014388221,0.004164834,-0.000406267,-0.018207273,0.011270024,-0.01662767,-0.008025114,-0.004469344,0.009107421
perturbed,-0.000637652,-0.004970559,0.014992508,0.00075784,0.004709499,0.000371249,-0.002655427,0.013659845,-0.007641533,0.002685946,-0.012950181,0.014520394,-0.00661382,0.006208696,0.008083591,0.016464347,0.006815904,-0.014474345,0.012081961,-0.019657582,0.006420427,-0.015577789,-0.016834883,0.0187692,-0.006028347
pessimism,0.016630005,-0.00069709,0.006999594,-0.001685171,-0.003458253,0.007578378,-0.005011012,0.000251033,0.012474594,0.012212736,0.000667035,-0.010083308,-0.003335514,0.011694512,0.012115358,0.01664267,-0.004193162,0.008430284,-0.000612611,0.006958649,0.004365974,0.010895493,0.010746576,0.002778861,-0.00921052
pity,0.017756015,0.001039047,-0.01725578,0.002976137,0.003072467,-0.010643623,0.007392648,0.009702373,0.00613934,0.010400475,0.003302506,-0.013054811,-0.013286061,-0.002814821,-0.011498173,0.01133384,0.012226493,-0.015866654,-0.010875843,-0.001693214,-0.006431798,0.001284264,-0.006951782,-0.017243447,0.013230937
playfulness,-0.0027367,0.011015538,0.014072821,0.004325619,0.010104583,-0.017589223,-0.007139956,0.001360148,-0.018431867,0.005778021,-0.00279964,-0.016375715,-0.000758756,-0.006992036,-0.007969438,0.003668074,-0.015154124,0.005225454,0.019431446,0.000788974,-0.009762516,-0.00530046,0.007020382,0.006099594,-0.001290588
pleasant,0.017913638,0.009518087,-0.015988206,-0.001641389,-0.011229174,-0.019525068,0.003696599,-0.001735364,-0.015766466,0.003000143,-0.008946746,0.005833824,-0.014714752,0.003834904,0.010311342,-0.016650608,-0.01939058,-0.017554048,0.005709066,-0.013295786,0.014909482,0.007843106,-0.018278623,-0.009796654,-0.010631016
pleased,-0.011680298,0.000898532,0.013380805,-0.019515874,-0.012014936,0.010840453,-0.012307059,-0.010600938,0.013676472,0.010534036,0.006785568,0.015885167,0.008186161,0.020571807,0.016733097,0.003159337,0.001578397,-0.009712555,0.012780242,0.005812062,0.014474035,-0.012572272,0.004792488,0.018000742,0.007331938
pleasure,7.46E-05,0.02316616,0.006391436,0.016520083,-0.009922955,-0.01781465,0.041868437,-0.012615815,-0.023575468,-0.021396756,0.02335825,-0.017072069,0.001595847,0.013316398,0.016028127,0.01989188,-0.02209392,0.009449999,-0.02591462,-0.008980115,-0.012851833,0.02144186,0.00756366,0.003785769,-0.016660854
politeness,0.010256559,-0.001591487,0.01828114,-0.014281801,0.004873369,-0.01540272,-0.014739331,-0.001115794,0.001262159,-0.007669481,-0.006188885,0.014342008,0.004774396,-0.007686807,-0.01524032,0.00757225,-0.018011767,0.003994992,-0.019835971,-0.012299199,-0.006140717,-0.018082947,-0.014382781,-0.007511647,0.010918133
positive,-0.008964532,0.012732806,0.014545511,0.012370605,-0.012515852,-0.005483146,0.000193283,0.002964709,-0.020179125,0.007201728,0.018566553,0.002710734,0.00967808,0.019223377,-0.001476617,0.021196458,-0.017403444,-0.018189587,0.003128388,-0.008565352,0.013298675,-0.002981904,-0.001566517,-0.01863394,0.010219904
prey,-0.008817527,0.001444547,0.006826517,-0.011029663,-0.00833772,0.01955333,-0.004650155,-0.004338138,0.002609549,-0.01848485,-0.000439144,-0.017239837,-0.018418133,0.018492183,0.001642304,0.014214449,0.010251454,0.005729224,-0.006126467,-0.010031131,-0.001929011,-0.013130357,0.017642593,-0.000953903,0.007686309
push,0.01215701,0.015361507,0.010384868,0.00416738,-0.015660286,-0.010850621,0.03976232,-0.031613898,-0.01821249,-0.014051192,0.022217598,0.003658674,0.012810811,0.026844563,-0.010636454,0.002198852,-0.027933473,-0.008549186,0.003273203,-0.012345183,0.004887674,0.022219982,-0.013634125,0.016567867,-0.010870513
puzzlement,-0.015856477,0.01835143,-0.015195804,0.003676702,-0.009904189,0.002077876,0.00982467,0.005495192,0.000504717,0.017933745,0.010815565,-0.016155453,-0.000889258,0.014608374,-0.012470209,0.015169575,0.011252331,-0.01295524,3.01E-05,-0.010820546,0.015585009,-0.0015788,-0.010784254,-0.019689234,-0.018640278
quirkiness,0.006554707,-0.006096247,-0.000724359,0.01130675,-0.00804455,-0.010589046,-0.011972692,-0.003795571,-0.002131459,0.003815546,0.006631323,0.018944498,0.00165343,0.017046662,-0.001205018,-0.014361098,0.011502224,0.007322411,-0.01537499,0.005474744,-0.016902737,0.009530201,-0.017356679,-0.012335393,-0.010752788
quit,-0.008767555,0.015179881,0.02059113,0.001551671,-0.02245545,-0.00418153,0.038191553,-0.015099277,-0.00717916,0.010082661,0.009724853,-0.014281508,0.003034286,0.008516754,-0.008478467,-0.013760555,-0.02593657,0.005226746,-0.025353165,0.01013175,-0.011624128,0.006641034,-0.023831839,0.01098669,-0.004614227
radiance,0.003319486,-0.005241477,0.00970121,-0.004775884,0.009767804,-0.013491154,0.011727281,0.009231293,-0.010076822,-0.011605686,0.000936739,-0.011929126,0.011552443,-0.006498516,-0.003822627,-0.001913819,-0.018761834,-0.01282959,0.009447352,-0.012826867,0.017526526,-0.006130999,0.017521925,-0.019034825,0.014181117
realization,-0.019024651,-0.00949639,-0.012996176,-0.01826244,-0.01597803,-0.001773855,0.002568478,0.005808177,-0.008491827,0.000386387,0.010357334,0.017794859,0.006774606,0.005241329,0.000250987,0.019666916,-0.011591716,-0.000484665,0.001237287,0.006780859,-0.00126255,-0.012807419,0.012821115,0.002126307,0.009940901
reassurance,-0.007056112,0.010495318,0.008946591,-0.008108476,0.014144551,-0.01640389,-0.012035014,-0.005794437,-0.004511715,-0.002879217,-0.01859525,-0.018090094,-0.005744484,0.013500726,-0.002905043,0.018096995,0.013621944,-0.019189887,0.01541255,0.010716531,0.005996476,-0.002631672,0.002737238,-0.006672172,0.011174486
rebellious,0.017872173,-0.009735756,0.018559145,0.00747863,0.015196345,-0.012256146,0.011651387,-0.00377138,0.001619692,-0.00126903,-0.013393449,-0.015080587,0.019885717,0.002470432,-0.000235468,0.016927026,-0.005931272,0.011143279,0.010271587,-0.01018638,-0.009677221,-0.017333752,0.009308803,-0.01920597,0.014184025
refusal,-0.015721895,-0.00981401,0.009623016,0.01976901,0.019412644,-0.013890863,0.012289744,-0.003335434,-0.016436351,-0.006678373,-0.006810117,0.008554683,0.008767217,-0.002279587,-0.013272774,-0.012028962,0.000172921,-0.017990412,0.003262546,0.005500735,-0.008999785,-0.002538188,-0.006088581,-0.002984787,-0.008151948
regret,0.001715972,0.008419273,0.009040366,0.012330676,0.006318096,-0.013894214,0.030840008,-0.010461849,0.009728454,0.01460625,0.016112285,-0.010645112,-0.007047709,-0.004445438,-0.000502301,0.009296319,-0.003344988,0.017735578,0.003442534,-0.01817925,-0.000654671,0.013093406,-0.022237478,3.15E-05,-0.005334897
rejection,-0.015314584,-0.014063685,-0.002862332,-0.00167859,-0.00991173,0.013438145,0.01297598,-0.01895517,0.008290332,0.019511031,-0.002497007,-0.01822918,-0.000852121,-0.004419751,-0.006454501,0.01365345,-0.001984814,0.006565192,-0.01315198,-0.011943744,-0.001876545,0.012891501,-0.009463936,0.010826283,0.005977804
rejuvenation,0.005819392,0.010912782,0.006460088,-0.005080273,-0.006852031,-0.003157314,-0.010941313,0.003710314,-0.012004457,-0.005339682,-0.015415716,-0.004904467,0.009068713,0.000312468,-0.013091106,-0.012686166,0.013992071,-0.014686079,0.015572109,-0.004970878,0.012728779,-0.002189235,0.012946647,0.018393524,-0.010499377
relaxation,0.006350123,-0.01949822,-0.012896738,0.014803005,0.000708456,-0.008790526,0.01571365,-0.017737651,0.017977444,-0.008688122,0.010179634,-0.018916868,-0.016162088,-0.013543732,0.014026289,0.011688692,-0.017107442,-0.009614022,-0.012546109,0.006149707,-0.01135107,-0.002733839,0.003955126,-0.004909802,-0.013104689
relief,-0.007308602,-0.001224961,0.006661752,-0.01459843,-0.016384363,-0.01770995,0.03152553,-0.011085335,-0.021933027,0.010142356,0.03910067,-0.005041992,-0.015656754,0.000765701,0.005938983,0.005702032,0.009821778,-0.010664662,-0.016421132,-0.005828932,-0.021793531,0.01664809,-0.00133841,0.010350688,-0.001728538
relinquished,-0.015475101,0.007390405,0.000774372,-0.009862638,0.016564637,-0.01952994,0.002237547,-0.006499029,0.012510707,0.00282609,0.008195054,-0.014329876,-0.003773818,0.016665088,-0.01854074,-0.0105864,0.016423032,-0.003953176,0.000590844,-0.00053514,0.007776528,0.010070031,0.001945319,0.019020058,0.00628648
remorse,-0.008144381,0.009346372,0.016181933,0.015701367,-0.005991499,-0.016371738,-0.010992243,-0.019397879,0.006048324,-0.013366799,0.002276774,-0.009382671,0.002744467,-0.019169534,-0.008229898,-0.01910686,-0.011043695,-0.007986197,-0.014738297,-0.011387088,0.019175455,0.008247454,-0.011350657,0.015943727,0.010728397
repelled,-0.008274456,0.01993443,-0.00778508,0.00933858,-0.00429827,0.000189195,0.001920785,-0.01179401,-0.002318704,0.004727852,0.005905635,-0.013189321,0.011015086,0.004433313,0.00798848,-0.006856978,0.004978653,-0.018262375,-0.003797876,0.003071769,-0.011231408,0.015299794,-0.00759417,-0.014901479,-0.004088495
repulsion,0.004651289,-0.004358358,0.002773428,-0.016220938,-0.001865843,-0.00578688,0.004957384,0.001326129,-0.003029786,0.001168131,0.00851684,0.003670519,-0.003153176,-0.018102396,-0.012626735,-0.001997064,-0.018263364,-0.011320162,0.019606687,0.015056363,-0.012558251,-0.00912487,-0.014735032,0.009710563,-0.016820883
resentful,-0.008842769,-0.010005594,0.015417224,2.03E-05,0.007742015,0.018103117,0.019864073,-0.004111225,0.019432811,-0.00682882,0.01963593,0.011613696,0.000879407,-0.001756809,0.013685293,-0.001722681,0.007677777,-0.018705746,0.008038173,-0.008321215,-0.001211943,-0.014396326,-0.012316388,0.014191327,-0.002440559
resentment,0.019502789,0.014911608,-0.01038463,0.006609522,-0.009287164,0.016086346,-0.014928807,0.019365225,0.011903511,0.009580557,0.01550612,0.00940129,0.010200274,-0.00652972,0.000636365,-0.016844098,0.0111419,0.0111105,-0.010649703,-0.015447715,-0.018425936,0.006113606,0.013904153,-0.009895611,0.018863915
resignation,0.010655758,-0.012616904,-0.007624403,0.015504068,0.019958781,-0.001388978,-0.014726269,0.002060044,0.018121751,-0.018436149,0.001198947,0.013635472,0.001830608,-0.011303772,-0.003496275,0.018410055,-3.82E-05,0.006977387,-0.012164477,0.013138226,-0.019556709,-0.003308352,0.0097844,0.005367523,-0.007832563
resolve,-0.017932473,-0.004354667,-0.00625819,-0.011663575,0.01772084,-0.009750724,-0.00523654,0.017492132,-0.017777266,-0.017912699,-0.012675255,-0.009265507,0.013801444,0.01932963,0.007663844,-0.003744135,0.019955937,0.003018691,0.01639953,0.018825544,0.015149788,0.009956881,0.0170286,-0.015375178,-0.015188683
responsiveness,0.004930359,0.003441596,0.013213312,-0.00276647,0.011813276,0.004719307,-0.008573956,-0.009756336,-0.019429943,0.006224158,-0.00814031,0.0061321,-0.006748878,0.005628178,-0.015803285,-0.018422706,0.016641652,-0.006600941,-0.003209704,-0.005192419,0.001299736,-0.013379968,0.008816268,-0.014945938,-0.011689133
revelation,0.004143978,0.017782453,-0.01674566,-0.018945184,-0.016124485,0.016194487,-0.003095157,0.006275396,-0.004507018,-0.012346034,0.014222207,-0.017040856,0.018484334,-0.01753286,0.011304097,0.002923916,-0.002457149,-0.019370789,0.006910896,-0.004019119,-6.18E-05,0.013327569,0.018842442,0.018782388,0.01913776
revulsion,0.008703759,-0.003268517,0.014857862,-0.016401513,-0.004868106,-0.001798657,-0.017617526,-0.015450885,0.008953972,-0.014613535,-0.007308563,-0.015996348,0.01931335,0.013724871,-0.011676895,-0.012380479,0.017804284,0.017296858,-0.012714753,-0.007680968,0.007501782,-0.002063633,-0.003787694,0.016914377,-0.006961368
rush,0.005455867,0.002501875,-0.014795247,-0.003351417,-0.012979825,-0.000706446,-0.01771135,0.009708022,-0.005912321,-0.011886549,-0.01816211,-0.008904987,-0.017539456,0.011995774,0.00408088,0.009175743,-0.01901719,0.007701472,0.01011087,0.005551788,0.003145161,0.017062154,0.000203736,-0.011391348,-0.010932853
sadness,-0.001896346,-0.016189734,0.019786164,0.006366765,-0.015746187,0.015598759,-0.007266294,-0.015597708,0.015105595,0.014418925,0.016894909,0.005109946,0.005703031,-0.01378487,-0.012207245,-0.017980002,-0.000691882,-0.000529817,-0.011714939,-0.016022513,0.004482775,-0.008927553,-0.004713747,0.013550322,0.005791681
sarcasm,-0.01215464,-0.007791908,-0.008352474,0.005636067,-0.004810469,-0.01113747,0.002159152,-0.00356997,-0.008602527,-0.01582892,-0.01509354,0.01703568,0.004979607,0.018057581,0.009969693,-0.012127092,-0.013129675,-0.018030904,0.017103493,0.004163042,-0.006796505,-0.01509258,0.012445817,0.005537932,-0.019507412
satiated,0.005146069,-0.014942396,0.011982474,0.01294059,0.017460654,-0.014561569,-0.010151168,0.01967627,-0.012933289,-0.012883063,0.000178882,0.018093936,0.011917425,0.013748557,1.85E-05,-0.010487003,-0.000657115,-0.010862746,-0.000531434,-0.000669079,0.005714866,0.00437993,-0.009472193,0.010328517,-0.009446439
satisfaction,0.018040663,0.0143256,-0.013153455,0.015678616,0.015345132,-0.002015337,-0.015164971,0.006114782,-0.016163638,-0.009796813,0.001236808,-0.003276565,-0.004763686,-0.01144345,0.002708685,0.001904915,-0.002274619,0.005377232,-0.015442399,-0.010018684,0.012348481,0.016843732,0.000625804,0.019309696,-0.001046535
scare,0.015244393,-0.004339075,0.0112448,0.000364919,-0.011578005,-0.024615986,0.018843293,-0.000981526,-0.012422393,-0.007741956,-0.002107083,0.014836099,-3.98E-05,0.023862367,-0.004726354,-0.000737458,0.00761018,0.014395838,-0.019705331,-0.0225213,0.00012366,0.024729952,0.010306845,-0.018892905,0.011159869
scolding,0.018911233,0.013024474,0.016069474,0.010973427,0.019281546,0.009086783,-0.006743908,-0.00867647,-0.011476341,0.01337165,0.005248786,0.010934859,-0.007475144,0.009546719,0.0116126,0.00330169,0.003071407,-0.007383493,0.000320409,-0.018612122,-0.017978458,-0.008118376,-0.011266928,0.002296069,0.00453915
scorn,-0.01783606,-0.005090767,0.006281374,0.012759272,0.009991399,-0.007404544,0.011599581,0.009636436,0.008342506,-0.01612603,-0.008584174,0.004259283,-0.001118689,-0.012270113,-0.005322631,-0.00492696,0.006390819,-0.001775714,-0.010590085,0.002436575,0.01017818,0.016961781,-0.01576137,-0.009898534,-0.005634636
secure,-0.011488991,-0.011218205,0.016585756,0.01829283,-0.003452738,-0.020563403,0.02435576,-0.015113314,0.000508936,0.013400584,0.02883972,-0.015020102,0.009817762,0.017739845,-0.004374577,0.010749079,-0.016267028,0.011188406,-0.013257594,-0.00130791,0.008741557,-0.007560306,0.003236013,-0.00716476,-0.023463473
serene,-0.01710819,-0.003470519,0.009861508,0.00762467,0.018555064,0.010605986,-0.019401254,0.00333873,0.006879102,-0.00194398,-0.003865294,0.012135895,-0.012021579,-0.010082036,-0.006813093,-0.002980212,-0.016239896,-0.008679451,0.008139249,0.01650687,0.015231469,-0.006641944,-0.003255378,0.018681189,-0.003388454
seriousness,0.008546273,0.005370732,0.012176864,0.008751192,-0.000946264,-0.007158665,0.013475055,0.004031674,0.017277759,-0.01924619,-0.002877953,-0.007553817,0.003407927,-0.01679221,-0.016984222,0.004320782,-0.012865401,0.0196218,-0.0007948,0.009682314,0.001254375,0.005590453,0.004538153,-0.011541558,0.006233829
shame,0.006028419,-0.002179419,0.015646873,-0.010433227,0.015158426,0.005794855,0.024858184,-0.02218676,-0.002133331,-0.018908966,0.022045452,-0.003293845,-0.010941822,0.027543586,-0.009970334,-0.0031686,0.0022078,0.019071406,-0.010686144,-0.001999465,0.002601092,0.021212386,-0.023930302,0.006040628,0.01262624
shock,-0.0004826,-0.018557362,0.012004448,0.018100308,0.008507717,-0.018400757,0.001391606,-0.00087935,0.006942025,0.001927645,0.013541908,0.008437413,0.01727814,-0.008058354,-0.008814998,-0.002386776,-0.000155081,-0.014892735,-0.001977862,0.016171645,-0.014038943,0.00295038,0.004134206,0.012697573,0.015033198
sickness,-0.009941575,-0.005221376,-0.006831064,-0.013087087,0.001757073,0.01333387,0.020664671,-0.023199879,-0.017679196,-0.004763844,0.01566632,-0.022247445,-0.013289817,0.008728582,-0.007965708,0.00825954,0.003277043,0.011972406,-0.012640851,0.002780258,-0.022770688,0.009808319,0.011444017,-0.00235692,-0.010266925
silence,0.016874848,0.011627032,0.009338413,-0.011637424,0.013143419,-0.014354602,0.026108634,-0.008539318,-0.01960204,0.011220828,0.003665758,-0.005038692,-0.001457941,0.020328248,0.019795734,-0.002620986,-0.018101797,0.005921804,-0.015016263,0.016254347,0.009202866,0.005149296,-0.019017452,0.003992107,-0.017076747
silliness,0.01793351,-0.012094273,-0.012367526,-0.014522886,-0.015333939,0.013167916,0.00172495,-0.001015998,0.000714471,-0.009023063,-0.013431562,0.00255942,0.01648958,0.017297436,0.017316025,-0.01611592,-0.013807219,0.016399188,-0.007870923,0.01587835,-0.010894419,-0.012561139,0.010280927,0.003396724,-0.002985158
skepticism,0.002475238,-0.011074043,0.004239046,0.008761323,-0.012885032,0.006698683,0.018864164,-0.00488049,-0.002379062,0.014965208,-0.010841705,-0.004764413,0.01594871,0.019305415,-0.012270496,0.004410774,-0.017954173,-0.004439402,-0.014168088,0.012856881,0.008633905,-0.015686555,-0.009701529,-0.003808322,-0.016960062
smugness,0.003910032,-0.014819517,0.005872497,-0.000382324,-0.009515438,0.018815584,-0.00396058,-0.017031295,0.009374687,0.003595228,-0.002478922,-0.001189484,-0.0195716,-0.006942648,-0.012773478,-0.005800988,-0.011167514,0.003045419,0.010199956,-0.009323061,0.011680268,0.015424,-0.017541785,-0.008327213,-0.003441505
snarky,0.011516684,0.000226959,0.009451132,-0.01196039,-0.015907088,-0.015732743,-0.017527474,-0.0055132,-0.010354784,-0.017600797,0.010292686,-0.003379655,0.003341294,-0.019218164,0.019969568,0.015618417,-0.016148902,0.005830256,-0.008043439,-0.003054027,0.015341854,0.015101573,0.008038257,-0.008265873,0.009311534
snide,0.005099127,0.019513262,0.009852,0.011598606,-0.001657746,0.016242607,0.004952882,0.014389282,0.015377016,0.008270531,0.00891907,0.019764552,0.014522973,0.006356514,0.005090883,0.012888596,0.004343259,0.005405677,-0.002793284,0.008191967,-0.01865002,0.012177079,0.013154533,-0.019347576,-0.011062747
snobby,0.001564475,0.019382393,-0.006308111,0.012999188,-0.01902576,-0.005270188,-0.011375952,0.00614878,-0.008616377,0.006871688,-0.009692352,-0.001532106,-0.017341668,0.004885507,0.017092168,-0.019762823,0.019959407,-0.01323379,0.008907762,0.010993491,0.012510849,-0.004724927,0.005979619,-0.017468642,0.019235717
snot,0.001279539,-0.010267198,0.001561565,0.01785586,-0.006997456,-0.019323122,0.026293648,-0.008473048,0.007333269,-0.009725493,0.014897903,0.000942247,-0.000986299,0.022238184,0.008612912,0.013489793,0.003839413,0.000670082,-0.02160605,0.007365409,-0.008853103,-0.01192617,-0.020554673,-0.015510058,0.009947415
softness,-0.01198162,0.004991882,-0.010610882,0.012218654,0.016243134,-0.018564137,0.019541182,0.000806308,0.016516477,0.002162383,0.001294373,0.004694188,-0.015999103,-0.001712684,0.001254875,0.008796048,0.01212207,0.000386144,0.002844107,0.019442786,0.0045262,0.011459755,0.008548259,0.004441548,-0.003249335
somber,-0.019504387,0.002251446,-0.016975323,-0.008565077,0.010751032,0.00701159,0.009382503,-0.010495609,-0.007904673,0.002592976,-0.005559775,0.018825296,-0.001188866,-0.01980088,0.006296226,0.004134936,0.001135091,-0.007359974,-0.018443214,0.016965851,-0.004470022,-0.006910123,-0.015197677,-0.016289491,0.00047849
sorrow,-0.014540598,-0.001056112,-0.018301679,0.013775736,0.009705607,-0.019617485,-0.002529233,0.004945912,-0.003974206,-0.002101525,-0.004063542,0.001198344,-0.00162191,0.004859365,0.00483419,-0.015772091,0.010115383,-0.003303564,0.006101361,0.005187164,-0.014880963,-0.007059582,-0.009314152,0.016047256,-0.018552119
speechless,-0.015784666,-0.01520192,0.009429387,-0.005149614,-0.020036533,0.009717356,0.021676075,-0.005099344,0.011900933,-0.010192897,-0.002183177,0.013086712,-0.004901581,0.015572288,-0.01265225,0.012177611,-0.002804083,0.002333047,-0.006083812,-0.015976537,0.003660487,-0.016122686,-0.012290351,-0.015742192,-0.017411476
spook,0.017193172,0.004085314,-0.016906822,-0.005225757,-0.005402576,0.017798811,0.004919441,0.016389312,-0.019701552,0.00222764,0.011264166,0.005416703,0.011381836,-0.011668818,0.019425951,-0.012758768,0.007671407,-0.008887582,-0.008508591,-0.00567038,-0.01804832,0.002127077,-0.003179873,0.00263095,-0.012469041
